tree
version=v2
num_class=1
num_tree_per_iteration=1
label_index=0
max_feature_idx=28
objective=binary sigmoid:1
feature_names=Column_0 Column_1 Column_2 Column_3 Column_4 Column_5 Column_6 Column_7 Column_8 Column_9 Column_10 Column_11 Column_12 Column_13 Column_14 Column_15 Column_16 Column_17 Column_18 Column_19 Column_20 Column_21 Column_22 Column_23 Column_24 Column_25 Column_26 Column_27 Column_28
feature_infos=[0:1] [0:1] [0:1] [0:1] [0:1] [0:1] [0:1] [0:0.99999999999999989] [0:1] [0:1] [0:1] [0:1.0000000000000002] [0:1] [0:1] [0:1] [0:1] [0:1.0000000000000002] [0:1] [0:1] [0:1.0000000000000002] [0:1] [0:1] [0:1] [0:1] [0:1] [0:1] [0:1.0000000000000002] [0:1] [0:1]
tree_sizes=731 735 733 738 736 736 733 688 740 794 740 758 814 738 740 890 711 715 820 852 736 739 892 735 738 737 737 687 739 737 734 712 738 818 736 590 741 593 738 739 818 726 739 741 829 876 740 740 931 739 742 742 808 739 593 741 674 749 689 873 830 873 759 887 823 891 877 957 907 867 896 804 977 828 742 742 803 759 872 868 890 952 875 740 595 904 884 739 592 959 872 595 906 789 926 740 745 1010 858 868 867 744 743 846 844 931 831 872 744 936 775 935 1064 744 1125 833 799 918 944 743 725 875 864 870 1089 948 1074 687 746 794 815 684 1030 746 596 807 990 686 875 910 745 927 828 995 680 933 685 745 937 1037 744 933 813 994 726 746 866 868 684 596 937 1028 1236 929 926 1025 600 869 1276 816 682 936 1087 926 861 1167 1050 686 938 833 825 865 825 745 829 938 803 825 969 835 686 688 868 684 937 824 685 685 1277 873 922 766 847 812 686 1090 684 804 745 686 686 915 686 725 1216 686 1279 690 1144 689 935 931 725 681 685 906 1236 691 1087 937 809 935 968 681 819 830 1416 849 962 927 809 966 1079 687 1344 1080 747 728 929 1092 824 839 1350 1350 890 837 1019 682 687 740 1407 969 849 920 1266 698 1341 1348 1262 727 845 971 1081 1189 841 1199 905 901 1285 1357 1541 800 853 1196 1382 881 1059 1352 865 1469 1482 971 1306 1113 1267 1048 1315 1539 875 888 1308 963 1136 1308 841 1470 1164 1430 1156 840 1429 861 817 1129 1433 1306 1282 1197 781 826 1272 1226 1408 1194 1258 1429 971 1280 1127 1242 1341 1339 1134 1080 1196 1273 1452 1169 1022 1637 1136 1417 1416 1268 1290 1189 1196 1153 1195 1159 1352 1136 1170 1265 1106 1224 1140 1169 1154 1079 1150 1083 1573 1157 1171 1295 1015 955 977 1370 1102 1229 1249 1175 1246 1570 1361 1173 1174 1118 1172 1172 1416 1172 1107 1356 829 1197 1431 1142 1167 1356 1217 1268 1467 1158 1229 1243 1160 1146 729 1361 1241 1272 1153 1087 1247 1159 1348 626 742 1355 1174 1142 1175 1293 1089 1147 1224 1172 880 717 1164 1610 1149 950 1720 1350 1156 789 1050 1219 1158 1240 1377 793 1555 795 694 988 932 716 1161 1122 1244 1122 1161 1103 1479 1218 869 1163 1045 789 1102 1100 1221 1565 1209 1161 1101 1224 1459 1557 1224 783 1302 1123 1162 1099 787 870 1414 1170 1164 1437 870 1483 788 1162 789 1498 719 1096 1571 1623 788 1383 727 1035 1251 1240 1102 1217 687 1577 1021 674 1354 1573 1213 1153 1570 1153 1226 1100 1131 1148 1722 1347 1101 789 1569 740 1501 786 1566 1159 1393 1086 1156 1220 1099 733 1403 1088 1103 1103 1436 1573 793 1354 1161 1152 786 1171 864 1461 785 1299 1162 1100 1149 1337 1004 1440 1343 740 865 1425 1110 1437 870 786 1236 1208 1172 1242 1437 946 1507 1149 1238 1036 1129 1508 875 1508 916 1236 1079 874 1500 884 1342 1076 1435 739 1726 1009 740 1115 1380 1131 917 686 1535 775 730 1537 814 1476 1570 740 813 740 1571 812 1595 813 1320 1538 811 1128 1600 911 1317 1539 1570 790 1255 814 813 813 1259 660 808 1429 810 1067 1577 1256 812 915 1101 1634 869 1242 1217 1163 1451 1540 1641 786 663 1453 729 1454 1524 2098 1323 1383 744 1845 1381 786 782 728 730 1220 1653 1012 1577 1250 730 1581 662 730 812 1769 1247 730 661 732 731 1256 1643 730 729 661 729 663 830 728 729 1274 1458 729 1021 1150 1399 1421 1365 728 802 728 731 1455 1963 733 1847 1313 1760 1261 1526 663 1640 1738 729 793 1737 730 1054 1393 917 1887 663 921 1688 1811 1969 1039 1358 1803 720 730 730 1255 729 1572 721 1365 659 1958 1550 1765 787 719 1839 1766 843 1249 719 1683 716 1800 989 1439 1633 793 1674 1762 790 1915 1621 1658 1807 795 846 791 795 713 1114 795 792 795 787 1322 1675 792 792 1190 1215 1080 803 1670 1843 803 931 793 804 1323 794 864 718 1433 1512 1467 850 1675 1940 1330 1841 1633 851 721 848 848 796 1495 1157 850 1684 846 963 720 850 1306 719 792 714 848 1424 922 1068 849 1476 1685 903 717 849 793 850 930 1025 1684 848 924 1109 1020 920 1347 1366 851 852 933 849 794 1503 1024 788 1243 1085 1253 923 1834 1318 1737 992 1557 1674 791 930 934 854 851 1448 790 789 853 921 966 1507 1624 791 854 717 1421 852 1444 1480 1091 853 1067 790 791 1620 789 1430 788 1621 855 791 787 1429 790 1144 715 924 1448 786 1638 1681 1693 1438 1630 788 1702 873 789 1693 713 791 1905 718 1084 1025 1634 790 716 788 1617 1623 1514 1730 790 716 1229 1662 1567 746 718 866 712 1429 1683 791 1530 1776 791 1546 1684 717 802 1221 794 863 1552 845 1415 1619 846 789 1015 1736 1583 1754 792 1553 1622 1875 792 1368 1550 1795 1794 719 794 791 788 1423 713 790 1267 780 944 1153 1608 782 1664 1738 1566 1667 793 715 719 1207 714 718 718 940 788 917 1582 716 664 720 720 791 1075 1291 719 721 1299 719 716 845 1297 790 716 1314 1572 714 845 715 1293 789 719 717 752 902 1104 943 719 721 714 1296 791 1223 1201 733 1133 661 1171 720 1298 1606 1603 1070 1542 936 1551 1506 1600 805 1768 1500 792 1741 721 1970 1800 1840 1742 714 1558 920 720 716 839 1237 715 1662 1161 719 1540 1840 1800 1082 715 718 918 1298 1727 1740 973 790 719 1466 1023 1149 1496 1836 1749 791 1668 1710 1593 1779 848 1610 929 1457 1783 986 1338 923 1002 1596 1401 1727 1347 1684 924 1303 835 1129 1131 1008 1663 989 1609 849 864 1403 924 847 1353 792 1396 926 1450 908 1276 1128 1842 1398 1719 931 1692 1262 1059 854 1666 1777 1930 1686 852 1663 1132 1333 1132 1653 869 980 1389 1818 1131 1799 1021 1023 1023 1736 1398 1443 1727 1413 1458 915 1972 1815 1051 1632 1052 1046 1502 1328 1558 1795 1602 1444 1687 957 1627 1726 1650 1604 1225 1808 1394 1847 1041 998 1497 1979 1709 1158 1433 1268 1547 1504 1486 1459 1079 1102 1747 1483 1369 1474 1637 1533 846 1417 1800 1052 1050 909 1417 1746 1860 1272 1047 1052 1414 1531 1790 911 1102 1585 1164 1592 1466 1288 1232 1207 1761 1156 1054 914 1049 1520 1339 1023 1699 1508 1670 781 1743 695 846 1414 1050 1216 1796 1452 710 916 1033 1023 1687 1252 1457 1034 1159 966 1749 836 1156 1438 1030 1450 1778 974 1454 1537 1460 1624 910 1793 1158 1467 1013 1219 1447 895 916 1176 1390 1095 1666 1691 1458 849 1626 922 1542 1025 1418 1032 1111 1158 905 771 1833 975 1253 914 1018 916 1095 1096 1157 1100 1329 1093 1328 970 720 1266 1262 1307 1031 1240 970 1156 1570 834 1628 1553 1096 1092 1360 1295 1480 874 1155 1348 1367 854 1629 970 1629 1629 1043 939 1846 1156 1100 1096 1483 1148 1241 1468 1344 1370 885 1628 1141 1487 1469 1623 1550 1595 1156 918 1676 1560 1512

Tree=0
num_leaves=9
num_cat=0
split_feature=5 16 20 20 7 26 26 16
split_gain=26,2574 19,0889 6,35385 3,45042 2,13926 0,253968 0,388889 0,1
threshold=0,14220872722719591 0,44650897691650054 0,97685687405101274 0,78091303554377245 0,53168295564386214 0,42934624047635223 1,0000000180025095e-35 0,44746939663207613
decision_type=2 2 2 2 2 2 2 2
left_child=1 3 -3 5 -5 6 -1 -4
right_child=-2 2 7 4 -6 -7 -8 -9
leaf_value=-0 -0,0036239421661373762 0,0026456166296391376 -0 -0,0028723837693224929 -0 -0,00053992176115084402 0,00094486308201397699 -0,00094486308201397699
leaf_count=1 1357 16 2 46 4 3 4 4
internal_value=0 -0,619048 0,769231 -1,22581 -1,40741 -0 0,222222 -0,4
internal_count=1437 80 22 58 50 8 5 6
shrinkage=0.00188973


Tree=1
num_leaves=9
num_cat=0
split_feature=5 16 20 20 7 26 26 23
split_gain=25,4034 18,5689 6,23146 3,34615 2,0811 0,24883 0,384728 0,100369
threshold=0,14220872722719591 0,44650897691650054 0,97685687405101274 0,78091303554377245 0,53168295564386214 0,42934624047635223 1,0000000180025095e-35 0,76625791627181361
decision_type=2 2 2 2 2 2 2 2
left_child=1 3 -3 5 -5 6 -1 -4
right_child=-2 2 7 4 -6 -7 -8 -9
leaf_value=-0 -0,0026524186453806666 0,0019419475618933145 -0,00069796961515118899 -0,0021046252251844849 -0 -0,00039851614516282123 0,000696654755823488 0
leaf_count=1 1357 16 4 46 4 3 4 2
internal_value=0 -0,610466 0,757515 -1,20929 -1,38814 -0 0,21889 -0,397002
internal_count=1437 80 22 58 50 8 5 6
shrinkage=0.00140383


Tree=2
num_leaves=9
num_cat=0
split_feature=5 16 20 20 7 26 17 23
split_gain=24,5978 18,0662 6,1126 3,24609 2,02545 0,243791 0,38061 0,098883
threshold=0,14220872722719591 0,44650897691650054 0,97685687405101274 0,78091303554377245 0,53168295564386214 0,42934624047635223 0,64109499726867436 0,76625791627181361
decision_type=2 2 2 2 2 2 2 2
left_child=1 3 -3 5 -5 6 -1 -4
right_child=-2 2 7 4 -6 -7 -8 -9
leaf_value=-0 -0,0032075572998581485 0,0023546147486294641 -0,00084993581191013918 -0,002547447668536036 -0 -0,0004858016964794942 0,00084833766785952008 0
leaf_count=1 1357 16 4 46 4 3 4 2
internal_value=0 -0,602119 0,746049 -1,19322 -1,36943 -0 0,215586 -0,394025
internal_count=1437 80 22 58 50 8 5 6
shrinkage=0.00172237


Tree=3
num_leaves=9
num_cat=0
split_feature=5 16 20 20 7 26 17 16
split_gain=23,8367 17,5801 5,99714 3,14998 1,97213 0,238851 0,376535 0,0992234
threshold=0,14220872722719591 0,44650897691650054 0,97685687405101274 0,78091303554377245 0,53168295564386214 0,42934624047635223 0,64109499726867436 0,44746939663207613
decision_type=2 2 2 2 2 2 2 2
left_child=1 3 -3 5 -5 6 -1 -4
right_child=-2 2 7 4 -6 -7 -8 -9
leaf_value=-0 -0,0029988576955787575 0,0022067685079581222 0 -0,0023834998379448731 -0 -0,00045767308614323693 0,00079837590384179886 -0,00080137555891901719
leaf_count=1 1357 16 2 46 4 3 4 4
internal_value=0 -0,593996 0,734822 -1,17759 -1,35126 -0 0,212309 -0,391074
internal_count=1437 80 22 58 50 8 5 6
shrinkage=0.00163312


Tree=4
num_leaves=9
num_cat=0
split_feature=5 16 20 20 7 26 17 23
split_gain=23,1169 17,1099 5,8849 3,05761 1,92102 0,234006 0,372501 0,0977696
threshold=0,14220872722719591 0,44650897691650054 0,97685687405101274 0,78091303554377245 0,53168295564386214 0,42934624047635223 0,64109499726867436 0,76625791627181361
decision_type=2 2 2 2 2 2 2 2
left_child=1 3 -3 5 -5 6 -1 -4
right_child=-2 2 7 4 -6 -7 -8 -9
leaf_value=-0 -0,0024347539683838432 0,0017956501949152903 -0,00065468931422447269 -0,0019363165318788947 -0 -0,00037429226923725692 0,00065224301327069883 0
leaf_count=1 1357 16 4 46 4 3 4 2
internal_value=0 -0,586086 0,723826 -1,16238 -1,3336 -0 0,209059 -0,388143
internal_count=1437 80 22 58 50 8 5 6
shrinkage=0.00134422


Tree=5
num_leaves=9
num_cat=0
split_feature=5 16 20 20 7 26 17 23
split_gain=23,1169 17,1099 5,8849 3,05761 1,92102 0,234006 0,372501 0,0977696
threshold=0,14220872722719591 0,44650897691650054 0,97685687405101274 0,78091303554377245 0,53168295564386214 0,42934624047635223 0,64109499726867436 0,76625791627181361
decision_type=2 2 2 2 2 2 2 2
left_child=1 3 -3 5 -5 6 -1 -4
right_child=-2 2 7 4 -6 -7 -8 -9
leaf_value=-0 -0,0026304626691391075 0,0019399869004802805 -0,00070731409551614318 -0,0020919601811452337 -0 -0,00040437837020120259 0,00070467115769986296 0
leaf_count=1 1357 16 4 46 4 3 4 2
internal_value=0 -0,586086 0,723826 -1,16238 -1,3336 -0 0,209059 -0,388143
internal_count=1437 80 22 58 50 8 5 6
shrinkage=0.00145227


Tree=6
num_leaves=9
num_cat=0
split_feature=5 16 20 20 7 26 17 12
split_gain=22,4351 16,6548 5,77578 2,96878 1,87198 0,229256 0,368508 0,0981027
threshold=0,14220872722719591 0,44650897691650054 0,97685687405101274 0,78091303554377245 0,53168295564386214 0,42934624047635223 0,64109499726867436 0,56798533052238931
decision_type=2 2 2 2 2 2 2 2
left_child=1 3 -3 5 -5 6 -1 -4
right_child=-2 2 7 4 -6 -7 -8 -9
leaf_value=-0 -0,0027684639836366722 0,0020459077881734033 0 -0,002202717847922434 -0 -0,00042854755274655376 0,00074601622270747449 -0,0007502174249726999
leaf_count=1 1357 16 2 46 4 3 4 4
internal_value=0 -0,57838 0,713051 -1,14756 -1,31642 -0 0,205836 -0,385237
internal_count=1437 80 22 58 50 8 5 6
shrinkage=0.001549


Tree=7
num_leaves=8
num_cat=0
split_feature=25 17 20 7 22 22 26
split_gain=22,4627 12,2652 3,29612 3,41952 1,90102 0,800788 0,688658
threshold=0,14220836284383157 0,64109499726867436 0,97626928248626055 0,50374109476246731 0,75000000000000011 0,75000000000000011 0,42934624047635223
decision_type=2 2 2 2 2 2 2
left_child=1 4 3 5 -1 6 -3
right_child=-2 2 -4 -5 -6 -7 -8
leaf_value=-0,0021846985304775995 -0,0026147078356167229 0 -0,0010760124387105582 0,0013586426778055001 0 0,00035437465712687783 -0,0011005854983742755
leaf_count=34 1357 8 9 19 1 3 6
internal_value=0 -0,578699 0,04578 0,39575 -1,40706 -0,0729852 -0,401959
internal_count=1437 80 45 36 35 17 14
shrinkage=0.00146216


Tree=8
num_leaves=9
num_cat=0
split_feature=5 16 20 20 7 26 26 23
split_gain=21,8036 16,3148 5,67466 2,92049 1,83108 0,225041 0,365427 0,0992118
threshold=0,14220872722719591 0,44650897691650054 0,97685687405101274 0,78091303554377245 0,53168295564386214 0,42934624047635223 1,0000000180025095e-35 0,76625791627181361
decision_type=2 2 2 2 2 2 2 2
left_child=1 3 -3 5 -5 6 -1 -4
right_child=-2 2 7 4 -6 -7 -8 -9
leaf_value=-0 -0,0027966962516432522 0,0020754986554560196 -0,00075932584733240036 -0,0022302013208667622 -0 -0,00043201831878804273 0,00076051780052263152 0
leaf_count=1 1357 16 4 46 4 3 4 2
internal_value=0 -0,571075 0,706404 -1,13503 -1,30264 -0 0,20552 -0,379398
internal_count=1437 80 22 58 50 8 5 6
shrinkage=0.00158486


Tree=9
num_leaves=10
num_cat=0
split_feature=5 16 12 16 26 6 17 7 17
split_gain=21,191 15,8853 4,93249 2,05383 1,62257 1,40346 1,22503 0,396914 0,225
threshold=0,14220872722719591 0,44650897691650054 0,56798533052238931 0,44334651166977129 0,44663769916222074 0,49009945345399164 0,64183183143839773 0,51401568037804746 0,64459240393696282
decision_type=2 2 2 2 2 2 2 2 2
left_child=1 3 4 8 -3 7 -7 -5 -1
right_child=-2 2 -4 5 -6 6 -8 -9 -10
leaf_value=-0,0022202453952473609 -0,0027239485385018732 0,0020778914174791135 -0,00074414908366120117 0,00081691521377473813 -0 -0,0014485933855248778 0 -0 -0
leaf_count=39 1357 17 4 4 1 8 3 1 3
internal_value=0 -0,563725 0,695998 -1,1209 1,17898 -0,133175 -0,599305 0,257102 -1,36588
internal_count=1437 80 22 58 18 16 11 5 42
shrinkage=0.00156335


Tree=10
num_leaves=9
num_cat=0
split_feature=5 16 20 20 7 26 26 23
split_gain=21,2135 15,9059 5,58601 2,91364 1,81478 0,219462 0,364123 0,0957864
threshold=0,14220872722719591 0,44650897691650054 0,97685687405101274 0,78091303554377245 0,53168295564386214 0,42934624047635223 1,0000000180025095e-35 0,76625791627181361
decision_type=2 2 2 2 2 2 2 2
left_child=1 3 -3 5 -5 6 -1 -4
right_child=-2 2 7 4 -6 -7 -8 -9
leaf_value=-0 -0,0022079529179503624 0,0016402834728206403 -0,00060331793348017339 -0,0017647110430243074 0 -0,00033366678817319087 0,00060849563297312348 0
leaf_count=1 1357 16 4 46 4 3 4 2
internal_value=0 -0,564979 0,695657 -1,12234 -1,28988 0 0,208627 -0,378671
internal_count=1437 80 22 58 50 8 5 6
shrinkage=0.00126588


Tree=11
num_leaves=9
num_cat=0
split_feature=5 17 20 7 22 22 26 6
split_gain=20,6069 11,5157 3,15928 3,2103 1,78864 0,7066 0,667333 2,02877e-05
threshold=0,14220872722719591 0,64109499726867436 0,97626928248626055 0,50374109476246731 0,75000000000000011 0,75000000000000011 0,42934624047635223 0,24027864886658906
decision_type=2 2 2 2 2 2 2 2
left_child=1 4 3 5 -1 6 7 -3
right_child=-2 2 -4 -5 -6 -7 -8 -9
leaf_value=-0,0021984128120609747 -0,002616008873634263 -0 -0,0010901989099529961 0,0013774276031860465 0 0,00033558817982677364 -0,0011001542173968157 4,8414800292931416e-06
leaf_count=34 1357 4 9 19 1 3 6 4
internal_value=0 -0,557477 0,0454584 0,389939 -1,36216 -0,0589269 -0,377602 0
internal_count=1437 80 45 36 35 17 14 8
shrinkage=0.00151933


Tree=12
num_leaves=10
num_cat=0
split_feature=5 16 12 16 23 26 7 17 7
split_gain=20,0602 15,2397 4,78105 1,94069 1,91594 1,57677 0,407632 0,195936 0,0867625
threshold=0,14220872722719591 0,44650897691650054 0,56798533052238931 0,44334651166977129 0,66585296330022448 0,44663769916222074 0,50920058711917815 0,64459240393696282 0,53168295564386214
decision_type=2 2 2 2 2 2 2 2 2
left_child=1 3 5 7 6 -3 -5 -1 -8
right_child=-2 2 -4 4 -6 -7 8 -9 -10
leaf_value=-0,0026996045967540953 -0,0033047395921135428 0,0025412031126956706 -0,00090504728845094973 0,0010002920768725368 -0,0016071687317292963 -0 -0,00043308737669834273 -0 0
leaf_count=39 1357 17 4 4 7 1 3 3 2
internal_value=0 -0,550503 0,682207 -1,09752 -0,127933 1,15967 0,194012 -1,33701 -0
internal_count=1437 80 22 58 16 18 9 42 5
shrinkage=0.00194268


Tree=13
num_leaves=9
num_cat=0
split_feature=5 16 20 20 7 26 26 23
split_gain=20,9316 15,877 5,54257 2,94138 1,80296 0,218414 0,363717 0,0982189
threshold=0,14220872722719591 0,44650897691650054 0,97685687405101274 0,78091303554377245 0,53168295564386214 0,42934624047635223 1,0000000180025095e-35 0,76625791627181361
decision_type=2 2 2 2 2 2 2 2
left_child=1 3 -3 5 -5 6 -1 -4
right_child=-2 2 7 4 -6 -7 -8 -9
leaf_value=-0 -0,0020779683285725744 0,0015521319028336158 -0,00056430717404133387 -0,0016671977234787711 0 -0,0003096367362068326 0,00057821744776586574 0
leaf_count=1 1357 16 4 46 4 3 4 2
internal_value=0 -0,561556 0,697844 -1,11873 -1,28712 0 0,212599 -0,371526
internal_count=1437 80 22 58 50 8 5 6
shrinkage=0.00119856


Tree=14
num_leaves=9
num_cat=0
split_feature=5 16 20 20 7 26 26 23
split_gain=20,0063 15,2085 5,38801 2,86258 1,75068 0,210609 0,359279 0,0957491
threshold=0,14220872722719591 0,44650897691650054 0,97685687405101274 0,78091303554377245 0,53168295564386214 0,42934624047635223 1,0000000180025095e-35 0,76625791627181361
decision_type=2 2 2 2 2 2 2 2
left_child=1 3 -3 5 -5 6 -1 -4
right_child=-2 2 7 4 -6 -7 -8 -9
leaf_value=-0 -0,0024016071592805489 0,0017972696619394152 -0,00065900330239482881 -0,0019299351822160251 0 -0,00035347307105342924 0,00067788204001945876 0
leaf_count=1 1357 16 4 46 4 3 4 2
internal_value=0 -0,550718 0,680721 -1,09713 -1,26357 0 0,212042 -0,368471
internal_count=1437 80 22 58 50 8 5 6
shrinkage=0.00141267


Tree=15
num_leaves=11
num_cat=0
split_feature=5 16 12 16 23 26 7 17 7 5
split_gain=19,5991 14,9013 4,70878 1,8996 1,88977 1,55695 0,402986 0,182413 0,0853458 0,0735791
threshold=0,14220872722719591 0,44650897691650054 0,56798533052238931 0,44334651166977129 0,66585296330022448 0,44663769916222074 0,50920058711917815 0,64459240393696282 0,53168295564386214 0,32313904714205227
decision_type=2 2 2 2 2 2 2 2 2 2
left_child=1 3 5 7 6 -3 -5 -1 -8 -2
right_child=9 2 -4 4 -6 -7 8 -9 -10 -11
leaf_value=-0,0019979464010881202 -0,0015878849254577715 0,0018822230159309047 -0,00067267871267289055 0,00074378664871360071 -0,0011920413720655958 -0 -0,00032106735082944115 -0 0 -0,0024807600365505818
leaf_count=39 67 17 4 4 7 1 3 3 2 1290
internal_value=0 -0,545338 0,673068 -1,0868 -0,124691 1,14838 0,193384 -1,32414 -0 -1,6845
internal_count=1437 80 22 58 16 18 9 42 5 1357
shrinkage=0.001452


Tree=16
num_leaves=9
num_cat=0
split_feature=5 16 20 20 7 12 6 7
split_gain=20,3223 15,444 5,44328 2,9068 1,77361 0,0951027 4,0239e-06 0,463839
threshold=0,14220872722719591 0,44650897691650054 0,97685687405101274 0,78091303554377245 0,53168295564386214 0,56798533052238931 0,41322462144969091 0,27080872086779079
decision_type=2 2 2 2 2 2 2 2
left_child=1 3 -3 6 -5 -4 7 -1
right_child=-2 2 5 4 -6 -7 -8 -9
leaf_value=-0 -0,001924712567185688 0,001438973819751425 0 -0,0015466969861882903 0 -0,00052570476934054005 -0 0,00054143819853864038
leaf_count=2 1357 16 2 46 4 4 2 4
internal_value=0 -0,554939 0,686427 -1,10511 -1,2727 -0,369982 0 0,001269
internal_count=1437 80 22 58 50 6 8 6
shrinkage=0.00112416


Tree=17
num_leaves=9
num_cat=0
split_feature=5 16 20 20 7 23 6 7
split_gain=19,6443 14,9468 5,33088 2,85952 1,7405 0,0921254 3,35072e-05 0,461742
threshold=0,14220872722719591 0,44650897691650054 0,97685687405101274 0,78091303554377245 0,53168295564386214 0,76625791627181361 0,41322462144969091 0,27080872086779079
decision_type=2 2 2 2 2 2 2 2
left_child=1 3 -3 6 -5 -4 7 -1
right_child=-2 2 5 4 -6 -7 -8 -9
leaf_value=-0 -0,0032519974065835528 0,002434501239982356 -0,00089470495852134136 -0,0026171418719428447 0 0 -0 0,00092625419109550482
leaf_count=2 1357 16 4 46 4 2 2 4
internal_value=0 -0,546925 0,673468 -1,08901 -1,2555 -0,368129 0 0,0036623
internal_count=1437 80 22 58 50 6 8 6
shrinkage=0.00192737


Tree=18
num_leaves=10
num_cat=0
split_feature=5 16 20 20 7 26 6 23 5
split_gain=19,188 14,6007 5,24637 2,78751 1,70372 0,204504 0,355076 0,0915798 0,00906917
threshold=0,14220872722719591 0,44650897691650054 0,97685687405101274 0,78091303554377245 0,53168295564386214 0,42934624047635223 1,0000000180025095e-35 0,76625791627181361 0,32313904714205227
decision_type=2 2 2 2 2 2 2 2 2
left_child=1 3 -3 5 -5 6 -1 -4 -2
right_child=8 2 7 4 -6 -7 -8 -9 -10
leaf_value=-0 -0,0015784778732490143 0,0018199351173068866 -0,00067125561190876112 -0,0019539884678037417 0 -0,00035445681195747446 0,00069446491406527236 0 -0,0024632181706631191
leaf_count=1 67 16 4 46 4 3 4 2 1290
internal_value=0 -0,540868 0,664742 -1,07734 -1,24194 0 0,211596 -0,365683 -1,66978
internal_count=1437 80 22 58 50 8 5 6 1357
shrinkage=0.00145451


Tree=19
num_leaves=11
num_cat=0
split_feature=5 17 20 7 23 23 12 23 23 6
split_gain=18,7081 10,6606 2,99105 2,9607 0,688167 1,26574 0,995409 0,444544 0,293104 0,2829
threshold=0,14220872722719591 0,64109499726867436 0,97626928248626055 0,50374109476246731 0,24302050945194972 0,60143340996353611 0,27679813616553645 0,68057391915349374 0,76625791627181361 0,3374025624944002
decision_type=2 2 2 2 2 2 2 2 2 2
left_child=1 -1 3 4 9 6 -6 -5 -4 -3
right_child=-2 2 8 7 5 -7 -8 -9 -10 -11
leaf_value=-0,0024495537287390471 -0,0030834873206010893 -0 -0,0015408820042436299 0,0017994644365724021 0 0 -0,001770162786599114 -0 0 0,00077539196159700651
leaf_count=35 1357 1 7 17 1 2 9 2 2 4
internal_value=0 -0,534171 0,0432902 0,38123 -0,0429775 -0,400385 -0,739886 0,8774 -0,696544 0,164198
internal_count=1437 80 45 36 17 12 10 19 9 5
shrinkage=0.00186768


Tree=20
num_leaves=9
num_cat=0
split_feature=5 16 20 20 7 26 6 23
split_gain=19,0091 14,5985 5,21804 2,81563 1,68756 0,202618 0,354072 0,0931579
threshold=0,14220872722719591 0,44650897691650054 0,97685687405101274 0,78091303554377245 0,53168295564386214 0,42934624047635223 1,0000000180025095e-35 0,76625791627181361
decision_type=2 2 2 2 2 2 2 2
left_child=1 3 -3 5 -5 6 -1 -4
right_child=-2 2 7 4 -6 -7 -8 -9
leaf_value=-0 -0,0019256787220721511 0,0014503264788061881 -0,00052880886720990303 -0,001553894266112354 0 -0,0002756789377579838 0,00055438273249767706 0
leaf_count=1 1357 16 4 46 4 3 4 2
internal_value=0 -0,537865 0,667601 -1,07467 -1,24017 0 0,214724 -0,359664
internal_count=1437 80 22 58 50 8 5 6
shrinkage=0.0011586


Tree=21
num_leaves=9
num_cat=0
split_feature=25 16 20 20 23 20 17 23
split_gain=18,3886 21,1022 20,615 2,40323 1,96744 1,90226 0,46138 0,428298
threshold=0,31468692748718757 0,44398840989750082 0,9699891141330782 0,98484433741217015 0,68057391915349374 1,0000000180025095e-35 0,64139541531493849 0,054999535530661108
decision_type=2 2 2 2 2 2 2 2
left_child=1 5 4 6 -3 -1 -4 -8
right_child=-2 2 3 -5 -6 -7 7 -9
leaf_value=0 -0,002474936552831469 0,0022868762862246583 -0,00057396081139973688 -0,0019378527326424236 0 -0,0021660816038120948 -0 0,00081879513760906508
leaf_count=1 1300 23 4 19 4 81 1 4
internal_value=0 -0,780866 0,118831 -0,951665 1,33633 -1,41032 -0 0,274494
internal_count=1437 137 55 28 27 82 9 5
shrinkage=0.00149337


Tree=22
num_leaves=11
num_cat=0
split_feature=5 16 12 16 23 26 7 17 7 5
split_gain=17,9799 13,6993 4,42846 1,76966 1,77478 1,47586 0,393663 0,17505 0,0740798 0,0326361
threshold=0,14220872722719591 0,44650897691650054 0,56798533052238931 0,44334651166977129 0,66585296330022448 0,44663769916222074 0,50920058711917815 0,64459240393696282 0,53168295564386214 0,32313904714205227
decision_type=2 2 2 2 2 2 2 2 2 2
left_child=1 3 5 7 6 -3 -5 -1 -8 -2
right_child=9 2 -4 4 -6 -7 8 -9 -10 -11
leaf_value=-0,0022344780629657297 -0,0017629645841358732 0,0021218993875966739 -0,0007513522138732333 0,00085696719115659406 -0,0013373084151462541 -0 -0,00034817560093638918 -0 0 -0,0027732121771866756
leaf_count=39 67 17 4 4 7 1 3 3 2 1290
internal_value=0 -0,520624 0,645793 -1,0428 -0,108004 1,11123 0,192982 -1,27272 -0 -1,61864
internal_count=1437 80 22 58 16 18 9 42 5 1357
shrinkage=0.00168891


Tree=23
num_leaves=9
num_cat=0
split_feature=5 16 20 20 7 26 6 12
split_gain=17,9687 13,5514 4,99265 2,70757 1,60584 0,192303 0,350324 0,0807183
threshold=0,14220872722719591 0,44650897691650054 0,97685687405101274 0,78091303554377245 0,53168295564386214 0,42934624047635223 1,0000000180025095e-35 0,56798533052238931
decision_type=2 2 2 2 2 2 2 2
left_child=1 3 -3 5 -5 6 -1 -4
right_child=-2 2 7 4 -6 -7 -8 -9
leaf_value=-0 -0,0026513386613902243 0,0019892436270421633 0 -0,0021328216352786192 0 -0,00036714626895017609 0,00078076219632390999 -0,00073362152767892069
leaf_count=1 1357 16 2 46 4 3 4 4
internal_value=0 -0,52181 0,638165 -1,041 -1,20402 0 0,215567 -0,358294
internal_count=1437 80 22 58 50 8 5 6
shrinkage=0.0016368


Tree=24
num_leaves=9
num_cat=0
split_feature=5 16 20 20 23 20 17 23
split_gain=17,5351 20,2113 19,9301 2,32034 1,90763 1,85069 0,446038 0,42141
threshold=0,31468728479308844 0,44398840989750082 0,9699891141330782 0,98484433741217015 0,68057391915349374 1,0000000180025095e-35 0,64139541531493849 0,054999535530661108
decision_type=2 2 2 2 2 2 2 2
left_child=1 5 4 6 -3 -1 -4 -8
right_child=-2 2 3 -5 -6 -7 7 -9
leaf_value=0 -0,0030284094425090326 0,0028154491570962442 -0,00070590965595259748 -0,0023828706569971494 0 -0,0026523438783260574 -0 0,0010127035966091744
leaf_count=1 1300 23 4 19 4 81 1 4
internal_value=0 -0,763147 0,11685 -0,936052 1,31632 -1,38123 -0 0,269802
internal_count=1437 137 55 28 27 82 9 5
shrinkage=0.00186628


Tree=25
num_leaves=9
num_cat=0
split_feature=25 16 20 20 7 26 6 23
split_gain=17,1889 12,9154 4,80581 2,65962 1,53264 0,186719 0,34763 0,0865554
threshold=0,14220836284383157 0,44650897691650054 0,97685687405101274 0,78091303554377245 0,53168295564386214 0,42934624047635223 1,0000000180025095e-35 0,76625791627181361
decision_type=2 2 2 2 2 2 2 2
left_child=1 3 -3 5 -5 6 -1 -4
right_child=-2 2 7 4 -6 -7 -8 -9
leaf_value=-0 -0,0035402644096764902 0,0026638890014991927 -0,00098390843164954112 -0,0028488103524012686 0 -0,00047251234536454818 0,0010668874806014981 0
leaf_count=1 1357 16 4 46 4 3 4 2
internal_value=0 -0,507626 0,623987 -1,01647 -1,17873 0 0,219859 -0,34738
internal_count=1437 80 22 58 50 8 5 6
shrinkage=0.00223283


Tree=26
num_leaves=9
num_cat=0
split_feature=25 16 20 20 23 20 17 23
split_gain=16,9315 19,4508 19,243 2,26473 1,85353 1,79589 0,429659 0,420558
threshold=0,31468692748718757 0,44398840989750082 0,9699891141330782 0,98484433741217015 0,68057391915349374 1,0000000180025095e-35 0,64139541531493849 0,054999535530661108
decision_type=2 2 2 2 2 2 2 2
left_child=1 5 4 6 -3 -1 -4 -8
right_child=-2 2 3 -5 -6 -7 7 -9
leaf_value=0 -0,0022599852061213487 0,002119204613906855 -0,0005217074411249798 -0,0017803680655797687 0 -0,0019773536289605115 -0 0,00077155102930829937
leaf_count=1 1300 23 4 19 4 81 1 4
internal_value=0 -0,74241 0,120728 -0,915066 1,30111 -1,3514 -0 0,270455
internal_count=1437 137 55 28 27 82 9 5
shrinkage=0.00142137


Tree=27
num_leaves=8
num_cat=0
split_feature=5 16 20 20 20 17 28
split_gain=16,582 18,9604 18,7976 2,21121 1,77098 0,421508 0,156669
threshold=0,31468728479308844 0,44398840989750082 0,9699891141330782 0,98484433741217015 1,0000000180025095e-35 0,64139541531493849 1,0000000180025095e-35
decision_type=2 2 2 2 2 2 2
left_child=1 4 6 5 -1 -4 -3
right_child=-2 2 3 -5 -6 -7 -8
leaf_value=0 -0,0032337243854766119 0,0027947120064968196 -0,00074860851408932493 -0,0025472935994191562 -0,0028263807012279926 0,00054809451914591587 0
leaf_count=1 1300 24 4 19 81 5 3
internal_value=0 -0,733669 0,11801 -0,905952 -1,33631 -0 1,28581
internal_count=1437 137 55 28 82 9 27
shrinkage=0.00205402


Tree=28
num_leaves=9
num_cat=0
split_feature=5 16 20 20 23 20 17 23
split_gain=16,6515 18,7849 18,5788 2,18135 1,81638 1,76649 0,422611 0,415858
threshold=0,31468728479308844 0,44398840989750082 0,9699891141330782 0,98484433741217015 0,68057391915349374 1,0000000180025095e-35 0,64139541531493849 0,054999535530661108
decision_type=2 2 2 2 2 2 2 2
left_child=1 5 4 6 -3 -1 -4 -8
right_child=-2 2 3 -5 -6 -7 7 -9
leaf_value=0 -0,0024561416612520278 0,002279540314957848 -0,0005722403433514895 -0,0019277592446016259 0 -0,0021407629796143268 -0 0,00083701005732239923
leaf_count=1 1300 23 4 19 4 81 1 4
internal_value=0 -0,733481 0,113521 -0,904267 1,27428 -1,33359 -0 0,264294
internal_count=1437 137 55 28 27 82 9 5
shrinkage=0.00155886


Tree=29
num_leaves=9
num_cat=0
split_feature=5 16 20 20 6 26 6 23
split_gain=16,9227 12,4693 4,69972 2,60035 1,49146 0,185064 0,348353 0,0868044
threshold=0,14220872722719591 0,44650897691650054 0,97685687405101274 0,78091303554377245 0,52383298987545934 0,42934624047635223 1,0000000180025095e-35 0,76625791627181361
decision_type=2 2 2 2 2 2 2 2
left_child=1 3 -3 5 -5 6 -1 -4
right_child=-2 2 7 4 -6 -7 -8 -9
leaf_value=-0 -0,0021707568340043914 0,0016262158607690941 -0,00060567306864828848 -0,0016871176420926142 0 -0,00028788728540439236 0,00066132020834083673 0
leaf_count=1 1357 16 4 49 1 3 4 2
internal_value=0 -0,49981 0,611528 -1,00097 -1,16189 0 0,220644 -0,34491
internal_count=1437 80 22 58 50 8 5 6
shrinkage=0.00138161


Tree=30
num_leaves=9
num_cat=0
split_feature=25 16 20 20 7 26 6 23
split_gain=17,2942 12,8771 4,78735 2,67611 1,53127 0,188442 0,35026 0,0876219
threshold=0,14220836284383157 0,44650897691650054 0,97685687405101274 0,78091303554377245 0,53168295564386214 0,42934624047635223 1,0000000180025095e-35 0,76625791627181361
decision_type=2 2 2 2 2 2 2 2
left_child=1 3 -3 5 -5 6 -1 -4
right_child=-2 2 7 4 -6 -7 -8 -9
leaf_value=-0 -0,001984327030537165 0,001490679455856883 -0,00054901148740519917 -0,0015935377167822639 0 -0,00026164915197366274 0,0006016537060313863 0
leaf_count=1 1357 16 4 46 4 3 4 2
internal_value=0 -0,50589 0,623979 -1,0142 -1,17704 0 0,223407 -0,345039
internal_count=1437 80 22 58 50 8 5 6
shrinkage=0.00125068


Tree=31
num_leaves=8
num_cat=0
split_feature=5 16 12 17 26 17 12
split_gain=17,0211 19,377 15,1667 5,07846 1,32469 1,18757 0,594614
threshold=0,31468728479308844 0,44398840989750082 0,56325036643480386 0,64139541531493849 0,39486029042602994 0,64294306406605883 0,52758657524227603
decision_type=2 2 2 2 2 2 2
left_child=1 4 3 6 -1 -4 -3
right_child=-2 2 5 -5 -6 -7 -8
leaf_value=-3,6014402427912599e-05 -0,0021358716224105481 6,648020077103806e-06 -0,0016247716436414404 0,0018431749980521276 -0,0019493787844517732 -0 -0,00069663890663887419
leaf_count=9 1300 2 17 26 73 5 5
internal_value=0 -0,747023 0,113736 0,991633 -1,35448 -1,00276 -0,0554205
internal_count=1437 137 55 33 82 22 7
shrinkage=0.00133793


Tree=32
num_leaves=9
num_cat=0
split_feature=5 16 20 20 7 26 6 23
split_gain=18,3914 13,617 4,96306 2,75317 1,58353 0,196687 0,357212 0,0914649
threshold=0,14220872722719591 0,44650897691650054 0,97685687405101274 0,78091303554377245 0,53168295564386214 0,42934624047635223 1,0000000180025095e-35 0,76625791627181361
decision_type=2 2 2 2 2 2 2 2
left_child=1 3 -3 5 -5 6 -1 -4
right_child=-2 2 7 4 -6 -7 -8 -9
leaf_value=-0 -0,0016809911729196555 0,0012569090754151824 -0,00046032177901633096 -0,0013450675366459065 0 -0,00022834880610472989 0,00049985398118194567 0
leaf_count=1 1357 16 4 46 4 3 4 2
internal_value=0 -0,519547 0,643378 -1,04025 -1,20469 0 0,222524 -0,349895
internal_count=1437 80 22 58 50 8 5 6
shrinkage=0.00103233


Tree=33
num_leaves=10
num_cat=0
split_feature=5 16 20 20 6 26 6 23 5
split_gain=16,708 12,3456 4,64713 2,59203 1,47198 0,181743 0,346476 0,0868056 0,0119602
threshold=0,14220872722719591 0,44650897691650054 0,97685687405101274 0,78091303554377245 0,52383298987545934 0,42934624047635223 1,0000000180025095e-35 0,76625791627181361 0,32313904714205227
decision_type=2 2 2 2 2 2 2 2 2
left_child=1 3 -3 5 -5 6 -1 -4 -2
right_child=8 2 7 4 -6 -7 -8 -9 -10
leaf_value=-0 -0,0016032298157374965 0,0018812124102953827 -0,00069463616296781567 -0,0019486307463630747 0 -0,00032622707507729145 0,00076659411264641444 0 -0,0025414986969382177
leaf_count=1 67 16 4 49 1 3 4 2 1290
internal_value=0 -0,495622 0,610074 -0,994947 -1,15582 0 0,22098 -0,33942 -1,56136
internal_count=1437 80 22 58 50 8 5 6 1357
shrinkage=0.00160421


Tree=34
num_leaves=9
num_cat=0
split_feature=5 16 20 20 7 26 6 23
split_gain=17,2242 12,8048 4,77362 2,62464 1,54386 0,186653 0,347656 0,0865439
threshold=0,14220872722719591 0,44650897691650054 0,97685687405101274 0,78091303554377245 0,53168295564386214 0,42934624047635223 1,0000000180025095e-35 0,76625791627181361
decision_type=2 2 2 2 2 2 2 2
left_child=1 3 -3 5 -5 6 -1 -4
right_child=-2 2 7 4 -6 -7 -8 -9
leaf_value=-0 -0,0019291970320328765 0,0014486614959979512 -0,00053427157660061264 -0,0015479094149556032 0 -0,0002596550327691932 0,0005812872179759345 0
leaf_count=1 1357 16 4 46 4 3 4 2
internal_value=0 -0,504895 0,621671 -1,01191 -1,17322 0 0,218622 -0,34529
internal_count=1437 80 22 58 50 8 5 6
shrinkage=0.00121808


Tree=35
num_leaves=7
num_cat=0
split_feature=25 16 20 20 16 6
split_gain=16,4507 12,1437 9,03915 1,59364 1,37741 0,717214
threshold=0,14220836284383157 0,44334651166977129 0,9724477064285254 1,0000000180025095e-35 0,44421487603305881 0,52459457037899837
decision_type=2 2 2 2 2 2
left_child=1 3 4 -1 -3 -4
right_child=-2 2 5 -5 -6 -7
leaf_value=0 -0,0032281637678443068 0 -0,0020540375215514642 -0,0026759250051705871 0,00259392260989148 -0
leaf_count=1 1357 6 10 41 18 4
internal_value=0 -0,491308 0,242341 -1,21347 1,00838 -0,7715
internal_count=1437 80 38 42 24 14
shrinkage=0.0020822


Tree=36
num_leaves=9
num_cat=0
split_feature=5 16 20 20 23 20 17 23
split_gain=16,8115 18,9824 18,8074 2,21134 1,86235 1,78069 0,427547 0,419906
threshold=0,31468728479308844 0,44398840989750082 0,9699891141330782 0,98484433741217015 0,68057391915349374 1,0000000180025095e-35 0,64139541531493849 0,054999535530661108
decision_type=2 2 2 2 2 2 2 2
left_child=1 5 4 6 -3 -1 -4 -8
right_child=-2 2 3 -5 -6 -7 7 -9
leaf_value=0 -0,0022779996430058284 0,0021135283487290547 -0,00053099850763593088 -0,0017898216218103413 -0 -0,0019857564749459818 -0 0,00077536102363987979
leaf_count=1 1300 23 4 19 4 81 1 4
internal_value=0 -0,739678 0,112088 -0,911205 1,28036 -1,34197 -0 0,26546
internal_count=1437 137 55 28 27 82 9 5
shrinkage=0.00143719


Tree=37
num_leaves=7
num_cat=0
split_feature=5 16 20 20 16 6
split_gain=16,5283 12,0679 9,04557 1,59266 1,3337 0,715305
threshold=0,14220872722719591 0,44334651166977129 0,9724477064285254 1,0000000180025095e-35 0,44421487603305881 0,52459457037899837
decision_type=2 2 2 2 2 2
left_child=1 3 4 -1 -3 -4
right_child=-2 2 5 -5 -6 -7
leaf_value=0 -0,0026364427097851991 0 -0,0016787632886144594 -0,0021783561008047619 0,0021047495027691418 -0
leaf_count=1 1357 6 10 41 18 4
internal_value=0 -0,492366 0,238916 -1,21212 1,00632 -0,774691
internal_count=1437 80 38 42 24 14
shrinkage=0.00169678


Tree=38
num_leaves=9
num_cat=0
split_feature=5 16 20 20 23 20 17 23
split_gain=16,2918 18,4719 18,3147 2,18089 1,83508 1,74141 0,415108 0,42107
threshold=0,31468728479308844 0,44398840989750082 0,9699891141330782 0,98484433741217015 0,68057391915349374 1,0000000180025095e-35 0,64139541531493849 0,054999535530661108
decision_type=2 2 2 2 2 2 2 2
left_child=1 5 4 6 -3 -1 -4 -8
right_child=-2 2 3 -5 -6 -7 7 -9
leaf_value=0 -0,0029508331206203296 0,0027634574490090951 -0,0006804044110008782 -0,0023221609994458188 -0 -0,0025739853583565697 -0 0,0010247217839152284
leaf_count=1 1300 23 4 19 4 81 1 4
internal_value=0 -0,724017 0,116365 -0,894399 1,2709 -1,32035 -0 0,267566
internal_count=1437 137 55 28 27 82 9 5
shrinkage=0.00189269


Tree=39
num_leaves=9
num_cat=0
split_feature=5 16 20 20 23 20 17 23
split_gain=15,9668 18,0117 17,8951 2,13016 1,79367 1,71803 0,40718 0,416649
threshold=0,31468728479308844 0,44398840989750082 0,9699891141330782 0,98484433741217015 0,68057391915349374 1,0000000180025095e-35 0,64139541531493849 0,054999535530661108
decision_type=2 2 2 2 2 2 2 2
left_child=1 5 4 6 -3 -1 -4 -8
right_child=-2 2 3 -5 -6 -7 7 -9
leaf_value=0 -0,0030803302805657053 0,0028792760737314884 -0,00071198914647212111 -0,0024234693614668765 -0 -0,0026839001522543371 -0 0,0010717047883726594
leaf_count=1 1300 23 4 19 4 81 1 4
internal_value=0 -0,715718 0,113701 -0,885664 1,2563 -1,30603 -0 0,263961
internal_count=1437 137 55 28 27 82 9 5
shrinkage=0.00199455


Tree=40
num_leaves=10
num_cat=0
split_feature=25 16 20 20 7 26 7 23 25
split_gain=16,3722 11,9508 4,53492 2,6204 1,44055 0,179963 0,347541 0,0866023 0,00593316
threshold=0,14220836284383157 0,44650897691650054 0,97685687405101274 0,78091303554377245 0,53168295564386214 0,42934624047635223 0,27080872086779079 0,76625791627181361 0,3231386990159138
decision_type=2 2 2 2 2 2 2 2 2
left_child=1 3 -3 5 -5 6 -1 -4 -2
right_child=8 2 7 4 -6 -7 -8 -9 -10
leaf_value=-0 -0,0018096444494467201 0,0021229976335462963 -0,00078442721381401139 -0,0022693599795051357 0 -0,00034536996277994642 0,00088578624786723992 0 -0,0028755157418353982
leaf_count=1 67 16 4 46 4 3 4 2 1290
internal_value=0 -0,488013 0,599592 -0,980562 -1,14284 0 0,22957 -0,334205 -1,54539
internal_count=1437 80 22 58 50 8 5 6 1357
shrinkage=0.00183366


Tree=41
num_leaves=9
num_cat=0
split_feature=5 16 12 23 26 17 26 12
split_gain=15,7394 17,6939 13,8759 6,00715 1,45679 1,14797 0,421866 0,559161
threshold=0,31468728479308844 0,44398840989750082 0,56325036643480386 0,68057391915349374 0,39486029042602994 0,64294306406605883 0,44506790109705324 0,55377928114961794
decision_type=2 2 2 2 2 2 2 2
left_child=1 4 3 -3 -1 -4 -5 -8
right_child=-2 2 5 6 -6 -7 7 -9
leaf_value=-0 -0,0023763490497172783 0,0022325895544653379 -0,00180795771317285 0 -0,0021682004896766242 -0 -0,00098477991741058573 0
leaf_count=9 1300 24 17 2 73 5 6 1
internal_value=0 -0,711036 0,110671 0,954704 -1,29703 -0,959149 -0,0725129 -0,401988
internal_count=1437 137 55 33 82 22 9 7
shrinkage=0.00154792


Tree=42
num_leaves=9
num_cat=0
split_feature=5 16 20 20 23 20 17 23
split_gain=15,4035 17,2794 17,2315 2,0622 1,7126 1,68303 0,392857 0,410137
threshold=0,31468728479308844 0,44398840989750082 0,9699891141330782 0,98484433741217015 0,68057391915349374 1,0000000180025095e-35 0,64139541531493849 0,054999535530661108
decision_type=2 2 2 2 2 2 2 2
left_child=1 5 4 6 -3 -1 -4 -8
right_child=-2 2 3 -5 -6 -7 7 -9
leaf_value=0 -0,002416514038297634 0,0022483289629704277 -0,00055834209084100928 -0,0019029778677227308 -0 -0,0021028973474996834 -0 0,00084390199937150524
leaf_count=1 1300 23 4 19 4 81 1 4
internal_value=0 -0,703684 0,108044 -0,872815 1,23192 -1,28422 -0 0,258452
internal_count=1437 137 55 28 27 82 9 5
shrinkage=0.00158854


Tree=43
num_leaves=9
num_cat=0
split_feature=5 16 20 20 23 20 17 23
split_gain=15,1104 16,8549 16,8431 2,01491 1,67532 1,66129 0,385331 0,405834
threshold=0,31468728479308844 0,44398840989750082 0,9699891141330782 0,98484433741217015 0,68057391915349374 1,0000000180025095e-35 0,64139541531493849 0,054999535530661108
decision_type=2 2 2 2 2 2 2 2
left_child=1 5 4 6 -3 -1 -4 -8
right_child=-2 2 3 -5 -6 -7 7 -9
leaf_value=0 -0,0028716790177945126 0,0026666303853571122 -0,00066479031664596147 -0,0022602941556759859 -0 -0,0024958014529604688 -0 0,0010042633215139713
leaf_count=1 1300 23 4 19 4 81 1 4
internal_value=0 -0,695868 0,105506 -0,864491 1,21826 -1,27074 -0 0,254925
internal_count=1437 137 55 28 27 82 9 5
shrinkage=0.00190474


Tree=44
num_leaves=10
num_cat=0
split_feature=25 16 20 20 16 6 20 25 20
split_gain=14,8466 10,5742 8,11857 1,4777 1,05669 0,637215 0,00804013 10,7876 2,56757
threshold=0,14220836284383157 0,44334651166977129 0,9724477064285254 1,0000000180025095e-35 0,44421487603305881 0,52459457037899837 0,96271454187302663 0,37259722539370449 0,89812840648901127
decision_type=2 2 2 2 2 2 2 2 2
left_child=1 3 4 -1 -3 -4 7 8 -2
right_child=6 2 5 -5 -6 -7 -8 -9 -10
leaf_value=0 -0,00041690380510649703 0 -0,0015937488839503815 -0,0020649356761879845 0,0020051443471912271 -0 -0,0025572384965130558 -0,0022630890776116261 0,0016979574895124023
leaf_count=1 4 6 10 41 18 4 1282 62 9
internal_value=0 -0,456271 0,225834 -1,13883 0,962224 -0,730181 -1,47484 -0,955096 0,412125
internal_count=1437 80 38 42 24 14 1357 75 13
shrinkage=0.00170627


Tree=45
num_leaves=11
num_cat=0
split_feature=5 16 20 20 20 23 16 16 6 20
split_gain=14,6049 16,1538 16,0856 1,97316 1,62109 1,61717 0,115343 0,188212 0,0401576 0,00463725
threshold=0,31468728479308844 0,44398840989750082 0,9699891141330782 0,98484433741217015 1,0000000180025095e-35 0,68057391915349374 0,44334651166977129 0,4434067336865341 0,54352208583460271 0,98005491782817
decision_type=2 2 2 2 2 2 2 2 2 2
left_child=1 4 5 8 -1 -3 -6 -8 9 -4
right_child=-2 2 3 -5 6 -7 7 -9 -10 -11
leaf_value=0 -0,0028719155593120117 0,0026628378583638495 -0,0002181847026667919 -0,0022570109441798305 -0,0026230991716821397 -0 0 -0,00053833516907528548 0,00020570688901075187 -0
leaf_count=1 1300 23 5 19 73 4 1 7 2 2
internal_value=0 -0,679781 0,104649 -0,844403 -1,24566 1,19489 -1,28525 -0,0772681 -0 -0,0929052
internal_count=1437 137 55 28 82 27 81 8 9 7
shrinkage=0.00193813


Tree=46
num_leaves=9
num_cat=0
split_feature=5 16 20 20 20 23 17 23
split_gain=14,3318 15,782 15,7204 1,93627 1,60186 1,58331 0,370617 0,407671
threshold=0,31468728479308844 0,44398840989750082 0,9699891141330782 0,98484433741217015 1,0000000180025095e-35 0,68057391915349374 0,64139541531493849 0,054999535530661108
decision_type=2 2 2 2 2 2 2 2
left_child=1 4 5 6 -1 -3 -4 -8
right_child=-2 2 3 -5 -6 -7 7 -9
leaf_value=0 -0,0023987452283324349 0,0022195685798427718 -0,00055073833879844671 -0,0018837842379033803 -0,0020784937301461391 -0 -0 0,00086365397146359428
leaf_count=1 1300 23 4 19 81 4 1 4
internal_value=0 -0,672679 0,102467 -0,835949 -1,23358 1,18209 -0 0,256355
internal_count=1437 137 55 28 82 27 9 5
shrinkage=0.0016325


Tree=47
num_leaves=9
num_cat=0
split_feature=5 16 20 20 23 20 17 23
split_gain=15,3639 17,0981 16,8942 2,0552 1,68503 1,68043 0,396944 0,417319
threshold=0,31468728479308844 0,44398840989750082 0,9699891141330782 0,98484433741217015 0,68057391915349374 1,0000000180025095e-35 0,64139541531493849 0,054999535530661108
decision_type=2 2 2 2 2 2 2 2
left_child=1 5 4 6 -3 -1 -4 -8
right_child=-2 2 3 -5 -6 -7 7 -9
leaf_value=0 -0,0016888794250262136 0,0015577941356201886 -0,00039008903891779166 -0,0013243087755993015 -0 -0,0014672285871773071 -0 0,00059723231706811087
leaf_count=1 1300 23 4 19 4 81 1 4
internal_value=0 -0,701649 0,105609 -0,865796 1,21877 -1,27962 -0 0,26283
internal_count=1437 137 55 28 27 82 9 5
shrinkage=0.00111214


Tree=48
num_leaves=12
num_cat=0
split_feature=5 17 12 7 22 23 22 12 23 7 6
split_gain=15,8634 9,10268 2,15828 3,16676 1,4604 0,401064 0,977966 0,610279 0,707748 0,819956 0,399919
threshold=0,14220872722719591 0,64109499726867436 0,56193037363739162 0,52380696667024673 0,75000000000000011 0,56233180696465868 0,75000000000000011 0,27679813616553645 0,21401666619169632 0,50374109476246731 0,49009945345399164
decision_type=2 2 2 2 2 2 2 2 2 2 2
left_child=1 4 3 5 -1 6 7 -3 -9 -10 -7
right_child=-2 2 -4 -5 -6 10 -8 8 9 -11 -12
leaf_value=-0,0014768489361354415 -0,0017486719607564107 0 -0,00077990214560519117 0,0011923355061887932 0 0,00058410844671681378 0,00014739935132361746 0 -0,0011037807358238968 0 -0
leaf_count=34 1357 1 6 12 1 4 3 1 11 4 3
internal_value=0 -0,477226 0,0531564 0,316304 -1,20568 -0 -0,221867 -0,491165 -0,615313 -0,742573 0,203601
internal_count=1437 80 45 39 35 27 20 17 16 15 7
shrinkage=0.00114923


Tree=49
num_leaves=9
num_cat=0
split_feature=5 16 20 20 20 23 17 23
split_gain=14,6454 16,2063 16,1014 1,97696 1,62539 1,61818 0,377875 0,410749
threshold=0,31468728479308844 0,44398840989750082 0,9699891141330782 0,98484433741217015 1,0000000180025095e-35 0,68057391915349374 0,64139541531493849 0,054999535530661108
decision_type=2 2 2 2 2 2 2 2
left_child=1 4 5 6 -1 -3 -4 -8
right_child=-2 2 3 -5 -6 -7 7 -9
leaf_value=0 -0,0027227287653089601 0,002520877566969653 -0,00062496072290065582 -0,0021381017129304541 -0,0023619543464712305 -0 -0 0,0009756374584703536
leaf_count=1 1300 23 4 19 81 4 1 4
internal_value=0 -0,681215 0,104445 -0,844944 -1,24777 1,19493 -0 0,258728
internal_count=1437 137 55 28 82 27 9 5
shrinkage=0.0018347


Tree=50
num_leaves=9
num_cat=0
split_feature=5 16 20 20 20 23 17 23
split_gain=14,3809 15,8158 15,7457 1,93284 1,60531 1,58446 0,370599 0,406452
threshold=0,31468728479308844 0,44398840989750082 0,9699891141330782 0,98484433741217015 1,0000000180025095e-35 0,68057391915349374 0,64139541531493849 0,054999535530661108
decision_type=2 2 2 2 2 2 2 2
left_child=1 4 5 6 -1 -3 -4 -8
right_child=-2 2 3 -5 -6 -7 7 -9
leaf_value=0 -0,0024964638477808633 0,0023067480165172459 -0,00057385435054892566 -0,0019590492757581832 -0,0021626319310597648 -0 -0 0,00089534572034592524
leaf_count=1 1300 23 4 19 81 4 1 4
internal_value=0 -0,673916 0,101991 -0,837117 -1,23518 1,18219 -0 0,255207
internal_count=1437 137 55 28 82 27 9 5
shrinkage=0.00169644


Tree=51
num_leaves=9
num_cat=0
split_feature=25 16 20 20 7 26 6 23
split_gain=15,6327 11,1815 4,29265 2,59988 1,35104 0,173061 0,346507 0,0877122
threshold=0,14220836284383157 0,44650897691650054 0,97685687405101274 0,78091303554377245 0,53168295564386214 0,42934624047635223 1,0000000180025095e-35 0,76625791627181361
decision_type=2 2 2 2 2 2 2 2
left_child=1 3 -3 5 -5 6 -1 -4
right_child=-2 2 7 4 -6 -7 -8 -9
leaf_value=-0 -0,0014055866109174055 0,0010517489988602878 -0,00038464829786310405 -0,0011224106249331943 0 -0,00015223801951076216 0,00045387545765938805 0
leaf_count=1 1357 16 4 46 4 3 4 2
internal_value=0 -0,470093 0,581653 -0,949735 -1,11274 0 0,237894 -0,318179
internal_count=1437 80 22 58 50 8 5 6
shrinkage=0.000931457


Tree=52
num_leaves=10
num_cat=0
split_feature=20 26 16 20 23 6 23 7 20
split_gain=14,5135 15,247 16,9727 1,70592 1,43595 1,38613 0,0364868 0,162424 0,0008682
threshold=0,96398167560458969 0,44644055721454812 0,44398840989750082 0,78091303554377245 0,68057391915349374 0,612803512230087 0,47172466262837526 0,44223678086850676 0,96060138590642208
decision_type=2 2 2 2 2 2 2 2 2
left_child=1 2 3 6 5 -4 -1 -8 -6
right_child=-2 -3 4 -5 8 -7 7 -9 -10
leaf_value=-0,00016486666410369402 -0,0019037551927907519 -0,0017064457050825245 0,0017993455947487842 -0,0015206025492343141 2,6936758377332166e-05 -0 0,0004007584778651637 -0 -0
leaf_count=3 1316 62 23 22 4 1 3 1 2
internal_value=0 -0,634206 0,0459178 -0,939407 1,10599 1,30215 -0 0,0635878 0
internal_count=1437 121 59 29 30 24 7 4 6
shrinkage=0.00128302


Tree=53
num_leaves=9
num_cat=0
split_feature=5 16 20 20 7 26 6 23
split_gain=15,2425 10,864 4,18294 2,60104 1,31852 0,170871 0,344027 0,0903849
threshold=0,14220872722719591 0,44650897691650054 0,97685687405101274 0,78091303554377245 0,53168295564386214 0,42934624047635223 1,0000000180025095e-35 0,76625791627181361
decision_type=2 2 2 2 2 2 2 2
left_child=1 3 -3 5 -5 6 -1 -4
right_child=-2 2 7 4 -6 -7 -8 -9
leaf_value=-0 -0,0019423056143459201 0,0014531284359406804 -0,00052996370781281752 -0,0015521948766862241 0 -0,00019683268882970641 0,00063605663721021815 0
leaf_count=1 1357 16 4 46 4 3 4 2
internal_value=0 -0,462937 0,573676 -0,937178 -1,10085 0 0,242294 -0,310322
internal_count=1437 80 22 58 50 8 5 6
shrinkage=0.00130188


Tree=54
num_leaves=7
num_cat=0
split_feature=5 16 20 20 5 16
split_gain=14,4302 10,1029 7,80434 1,44363 1,30191 1,01833
threshold=0,14220872722719591 0,44334651166977129 0,9724477064285254 1,0000000180025095e-35 0,10276716959869782 0,44421487603305881
decision_type=2 2 2 2 2 2
left_child=1 3 5 -1 -4 -3
right_child=-2 2 4 -5 -6 -7
leaf_value=0 -0,0026834482123200103 0 -0,0018176465813392088 -0,0021917791334993492 0 0,0021328791123586747
leaf_count=1 1357 6 11 41 3 18
internal_value=0 -0,445568 0,220013 -1,11597 -0,715372 0,945487
internal_count=1437 80 38 42 14 24
shrinkage=0.00184592


Tree=55
num_leaves=9
num_cat=0
split_feature=5 16 20 20 20 23 17 23
split_gain=15,0792 16,5804 16,3487 2,00315 1,65308 1,62069 0,389123 0,410358
threshold=0,31468728479308844 0,44398840989750082 0,9699891141330782 0,98484433741217015 1,0000000180025095e-35 0,68057391915349374 0,64139541531493849 0,054999535530661108
decision_type=2 2 2 2 2 2 2 2
left_child=1 4 5 6 -1 -3 -4 -8
right_child=-2 2 3 -5 -6 -7 7 -9
leaf_value=0 -0,0019898627527006702 0,0018293811566888355 -0,00045864859835816329 -0,0015549353488957442 -0,0017239453079718758 0 -0 0,00070601029716582339
leaf_count=1 1300 23 4 19 81 4 1 4
internal_value=0 -0,690342 0,104462 -0,851581 -1,26152 1,20166 -0 0,261584
internal_count=1437 137 55 28 82 27 9 5
shrinkage=0.00132488


Tree=56
num_leaves=8
num_cat=0
split_feature=5 16 20 20 16 6 5
split_gain=15,1608 10,7604 8,12529 1,49117 1,08672 0,664366 0,0270866
threshold=0,14220872722719591 0,44334651166977129 0,9724477064285254 1,0000000180025095e-35 0,44421487603305881 0,52459457037899837 0,32313904714205227
decision_type=2 2 2 2 2 2 2
left_child=1 3 4 -1 -3 -4 -2
right_child=6 2 5 -5 -6 -7 -8
leaf_value=0 -0,0012682274367016471 0 -0,0012649839618310004 -0,0016480511097075822 0,0015981237709322403 -0 -0,0020410621775730419
leaf_count=1 67 6 10 41 18 4 1290
internal_value=0 -0,458446 0,230147 -1,14602 0,965396 -0,726373 -1,48534
internal_count=1437 80 38 42 24 14 1357
shrinkage=0.00135365


Tree=57
num_leaves=9
num_cat=0
split_feature=5 16 12 17 16 17 16 5
split_gain=14,7239 10,3029 5,39864 2,88911 1,12213 0,263597 0,194962 0,0280316
threshold=0,14220872722719591 0,44334651166977129 0,56325036643480386 0,64109499726867436 0,44421487603305881 0,64459240393696282 0,44837562744004467 0,32313904714205227
decision_type=2 2 2 2 2 2 2 2
left_child=1 5 3 6 -5 -1 -3 -2
right_child=7 2 -4 4 -6 -7 -8 -9
leaf_value=-0,0014958507145121831 -0,0011715454055598493 -0,00042255456007823092 -0,0010413005604117218 0 0,0015196337287081277 -0 0 -0,0018932982151385121
leaf_count=39 67 4 8 6 19 3 1 1290
internal_value=0 -0,449965 0,222661 0,690606 0,983772 -1,12549 -0,0997153 -1,46585
internal_count=1437 80 38 30 25 42 5 1357
shrinkage=0.00127217


Tree=58
num_leaves=8
num_cat=0
split_feature=5 16 20 20 20 17 28
split_gain=14,4573 15,8333 15,6904 1,94708 1,60528 0,372934 0,184902
threshold=0,31468728479308844 0,44398840989750082 0,9699891141330782 0,98484433741217015 1,0000000180025095e-35 0,64139541531493849 1,0000000180025095e-35
decision_type=2 2 2 2 2 2 2
left_child=1 4 6 5 -1 -4 -3
right_child=-2 2 3 -5 -6 -7 -8
leaf_value=0 -0,0027388623312634428 0,0023328621097742138 -0,00062581223625126335 -0,0021443772343971977 -0,0023703162311674887 0,00048288774260127901 0
leaf_count=1 1300 24 4 19 81 5 3
internal_value=0 -0,672542 0,104018 -0,833541 -1,23422 -0 1,18237
internal_count=1437 137 55 28 82 9 27
shrinkage=0.00186071


Tree=59
num_leaves=11
num_cat=0
split_feature=5 17 20 7 23 23 23 12 23 6
split_gain=15,4478 8,7476 2,44104 2,1731 0,403796 0,293149 1,03015 0,824749 0,268741 0,168048
threshold=0,14220872722719591 0,64109499726867436 0,97626928248626055 0,50374109476246731 0,68057391915349374 0,24302050945194972 0,60143340996353611 0,27679813616553645 0,76625791627181361 0,3374025624944002
decision_type=2 2 2 2 2 2 2 2 2 2
left_child=1 -1 3 5 -5 9 7 -7 -4 -3
right_child=-2 2 8 4 -6 6 -8 -9 -10 -11
leaf_value=-0,0011610548386379515 -0,0014735487782214156 -0 -0,00071228177292110163 0,00086194216962118492 -0 0 4,6231348850887778e-05 -0,00080778983902638889 0 0,00030377362742259822
leaf_count=35 1357 1 7 17 2 1 2 9 2 4
internal_value=0 -0,462437 0,057459 0,370928 0,79181 -0 -0,265161 -0,618086 -0,598653 0,0921677
internal_count=1437 80 45 36 19 17 12 10 9 5
shrinkage=0.000984269


Tree=60
num_leaves=10
num_cat=0
split_feature=25 16 20 20 26 23 20 17 23
split_gain=14,2999 15,5782 15,4429 1,91761 1,6053 1,59424 0,384595 0,369983 0,405888
threshold=0,31468692748718757 0,44398840989750082 0,9699891141330782 0,98484433741217015 0,39486029042602994 0,68057391915349374 0,78091303554377245 0,64139541531493849 0,054999535530661108
decision_type=2 2 2 2 2 2 2 2 2
left_child=1 4 5 7 6 -3 -1 -4 -9
right_child=-2 2 3 -5 -6 -7 -8 8 -10
leaf_value=0,00013976238406517052 -0,0028052224993527952 0,0025858624055379391 -0,00064328991553459802 -0,0021943805238026927 -0,0025514331386038637 -0 -0,00079337829911280805 -0 0,0010120306165221252
leaf_count=4 1300 23 4 19 73 4 5 1 4
internal_value=0 -0,668707 0,101233 -0,828952 -1,2268 1,17206 -0 -0 0,257338
internal_count=1437 137 55 28 82 27 9 9 5
shrinkage=0.00191477


Tree=61
num_leaves=11
num_cat=0
split_feature=5 16 20 20 20 23 17 23 16 16
split_gain=14,0277 15,2174 15,1027 1,87516 1,57493 1,56185 0,362818 0,401633 0,175822 0,167138
threshold=0,31468728479308844 0,44398840989750082 0,9699891141330782 0,98484433741217015 1,0000000180025095e-35 0,68057391915349374 0,64139541531493849 0,054999535530661108 0,44334651166977129 0,4434067336865341
decision_type=2 2 2 2 2 2 2 2 2 2
left_child=1 4 5 6 -1 -3 -4 -8 -6 -10
right_child=-2 2 3 -5 8 -7 7 -9 9 -11
leaf_value=0 -0,0026546460759175679 0,0024420770560965874 -0,0006094971744392048 -0,002074954113976301 -0,0024175935723810826 -0 -0 0,00095833123690235167 0 -0,00047057846082150897
leaf_count=1 1300 23 4 19 73 4 1 4 1 7
internal_value=0 -0,662017 0,0988044 -0,821343 -1,2152 1,15972 -0 0,253829 -1,2549 -0,0551379
internal_count=1437 137 55 28 82 27 9 5 81 8
shrinkage=0.0018269


Tree=62
num_leaves=9
num_cat=0
split_feature=20 5 16 23 20 23 23 20
split_gain=13,8201 14,9196 16,3923 1,50525 1,12608 0,852886 0,107979 0,00107871
threshold=0,96398167560458969 0,37165842358980783 0,44398840989750082 0,68057391915349374 1,0000000180025095e-35 0,60143340996353611 0,60666558918047586 0,96060138590642208
decision_type=2 2 2 2 2 2 2 2
left_child=1 2 4 -4 -1 -6 -7 -5
right_child=-2 -3 3 7 5 6 -8 -9
leaf_value=0 -0,0033478069265811912 -0,0029851575598054641 0,0031768341568426325 5,466976366276373e-05 -0,0027095725065749295 0,00013338750583182608 -0,00053990507099442695 -0
leaf_count=1 1316 64 23 4 21 2 4 2
internal_value=0 -0,598009 0,0949652 1,15331 -0,889892 -0,986154 -0 0
internal_count=1437 121 57 29 28 27 6 6
shrinkage=0.00233192


Tree=63
num_leaves=11
num_cat=0
split_feature=25 16 20 20 26 23 20 20 23 23
split_gain=13,6386 14,6188 14,3408 1,86202 1,60233 1,5027 0,347398 0,0324015 0,214609 0,183393
threshold=0,31468692748718757 0,44398840989750082 0,9699891141330782 0,98484433741217015 0,39486029042602994 0,68057391915349374 0,78091303554377245 0,97831474959872378 0,054999535530661108 0,70862916714247748
decision_type=2 2 2 2 2 2 2 2 2 2
left_child=1 4 5 7 6 -3 -1 9 -9 -4
right_child=-2 2 3 -5 -6 -7 -8 8 -10 -11
leaf_value=0,0001605482279322957 -0,0028948899385347893 0,0026535383316473684 0 -0,0022529952121635244 -0,0026262714911564245 -0 -0,00079590638743681015 -0 0,000732628217650387 -0,00065039356564776916
leaf_count=4 1300 23 1 19 73 4 5 1 3 4
internal_value=0 -0,646304 0,0995985 -0,798189 -1,19193 1,13655 -0 -0 0,0810226 -0,0936458
internal_count=1437 137 55 28 82 27 9 9 4 5
shrinkage=0.002024


Tree=64
num_leaves=10
num_cat=0
split_feature=5 16 20 20 5 16 20 5 20
split_gain=13,3994 9,07205 7,03383 1,36008 1,24411 0,854425 0,107116 9,74202 2,29014
threshold=0,14220872722719591 0,44334651166977129 0,9724477064285254 1,0000000180025095e-35 0,10276716959869782 0,44421487603305881 0,96271454187302663 0,37165842358980783 0,89812840648901127
decision_type=2 2 2 2 2 2 2 2 2
left_child=1 3 5 -1 -4 -3 7 8 -2
right_child=6 2 4 -5 -6 -7 -8 -9 -10
leaf_value=0 -0,00040795663564876735 0 -0,0019464199067149601 -0,0023434168219074562 0 0,0022885778410966329 -0,0029455415669903898 -0,0025888471167095526 0,0019721603776274473
leaf_count=1 4 6 11 41 3 18 1282 62 9
internal_value=0 -0,417173 0,21206 -1,06117 -0,67168 0,909732 -1,39999 -0,885074 0,405084
internal_count=1437 80 38 42 14 24 1357 75 13
shrinkage=0.00206886


Tree=65
num_leaves=11
num_cat=0
split_feature=5 16 12 23 26 6 26 12 23 16
split_gain=13,2266 14,0572 10,7099 4,93737 1,58866 0,835643 0,361817 0,515262 0,0912511 0,0115538
threshold=0,31468728479308844 0,44398840989750082 0,56325036643480386 0,68057391915349374 0,39486029042602994 0,54352208583460271 0,44506790109705324 0,55377928114961794 0,26864408182559613 0,44334651166977129
decision_type=2 2 2 2 2 2 2 2 2 2
left_child=1 4 3 -3 9 -4 -5 -8 -7 -1
right_child=-2 2 5 6 -6 8 7 -9 -10 -11
leaf_value=-0,0001434892714315276 -0,0031996725375393713 0,0029640842982868584 -0,0023899625666162858 0 -0,0028987307878837122 0,00024743243085167184 -0,0013655882686689127 0 -0,00044684890443254406 0
leaf_count=8 1300 24 16 2 73 2 6 1 4 1
internal_value=0 -0,632254 0,0994671 0,853154 -1,17064 -0,847688 -0,0493476 -0,370144 -0 -0
internal_count=1437 137 55 33 82 22 9 7 6 9
shrinkage=0.00227149


Tree=66
num_leaves=11
num_cat=0
split_feature=5 17 20 7 23 23 23 23 12 6
split_gain=14,0554 7,81436 2,14274 1,86928 0,351962 0,256356 0,179257 0,906839 0,758087 0,125391
threshold=0,14220872722719591 0,64109499726867436 0,97626928248626055 0,50374109476246731 0,68057391915349374 0,76625791627181361 0,24302050945194972 0,60143340996353611 0,27679813616553645 0,3374025624944002
decision_type=2 2 2 2 2 2 2 2 2 2
left_child=1 -1 3 6 -5 -4 9 8 -8 -3
right_child=-2 2 5 4 -6 -7 7 -9 -10 -11
leaf_value=-0,001060964600710634 -0,0013590307324682846 -0 -0,00063964827267905375 0,00078634172678876705 -0 0 0 5,2625236835491409e-05 -0,00072878832261822073 0,00024655542121670006
leaf_count=35 1357 1 7 17 2 2 1 2 9 4
internal_value=0 -0,431792 0,0580472 0,358136 0,748934 -0,549962 -0 -0,212329 -0,565809 0,0495956
internal_count=1437 80 45 36 19 9 17 12 10 5
shrinkage=0.000949226


Tree=67
num_leaves=12
num_cat=0
split_feature=5 16 20 20 5 16 5 20 20 20 20
split_gain=13,5688 9,25822 7,10924 1,37606 1,24344 0,864639 0,021789 8,82912 1,87702 0,354582 0,343852
threshold=0,14220872722719591 0,44334651166977129 0,9724477064285254 1,0000000180025095e-35 0,10276716959869782 0,44421487603305881 0,32313904714205227 0,96271454187302663 0,89812840648901127 0,98573586938069735 0,97831474959872378
decision_type=2 2 2 2 2 2 2 2 2 2 2
left_child=1 3 5 -1 -4 -3 7 8 -2 10 -9
right_child=6 2 4 -5 -6 -7 -8 9 -10 -11 -12
leaf_value=0 -5,014689674130879e-05 0 -0,001314438531871479 -0,001592202736527662 0 0,0015506333750076652 -0,0019946486799806411 -0,0005561187736924612 0,0013747040357626815 -0,0018346534945817812 0
leaf_count=1 3 6 11 41 3 18 1290 5 7 49 3
internal_value=0 -0,421355 0,214914 -1,07028 -0,674114 0,914709 -1,40837 -0,873329 0,477487 -1,21344 -0,0160394
internal_count=1437 80 38 42 14 24 1357 67 10 57 8
shrinkage=0.00139439


Tree=68
num_leaves=12
num_cat=0
split_feature=5 17 22 23 23 23 17 26 6 7 17
split_gain=13,1185 13,7776 1,51815 1,26521 2,89976 2,04982 0,889032 0,871022 0,576334 0,54858 0,262468
threshold=0,31468728479308844 0,64109499726867436 0,75000000000000011 0,68057391915349374 0,56233180696465868 0,24302050945194972 0,64212991987056156 0,44661478698265145 0,3374025624944002 0,52087137078008094 0,64459240393696282
decision_type=2 2 2 2 2 2 2 2 2 2 2
left_child=1 2 -1 4 5 7 -6 8 -3 -5 -7
right_child=-2 3 -4 9 6 10 -8 -9 -10 -11 -12
leaf_value=-0,002689050636995326 -0,002859893351437175 -0 0 0 0,0020239102067778334 -0,0010983460960450572 -0 -0 0,0014212012163505937 -0,0013003289461414546 0
leaf_count=67 1300 1 1 1 13 23 3 2 13 11 2
internal_value=0 -0,631955 -1,27657 0 0,156342 -0,0655851 0,814319 0,33103 0,571168 -0,489038 -0,48201
internal_count=1437 137 68 69 57 41 16 16 14 12 25
shrinkage=0.00203397


Tree=69
num_leaves=11
num_cat=0
split_feature=20 5 12 20 23 7 12 17 17 17
split_gain=12,9711 13,7279 5,7038 1,33832 0,965214 0,705994 0,54982 0,424203 0,228886 0,107453
threshold=0,96398167560458969 0,37165842358980783 0,45250977200050685 0,78091303554377245 0,68057391915349374 0,52380696667024673 0,35596881137332453 0,64459240393696282 0,64158885505834029 0,64234895323284258
decision_type=2 2 2 2 2 2 2 2 2 2
left_child=1 2 3 6 5 9 7 -1 -7 -4
right_child=-2 -3 4 -5 -6 8 -8 -9 -10 -11
leaf_value=-0,00085944242640643282 -0,0023146385917310087 -0,0020561861321837086 -0 -0,0015019036877403033 -0 0 0,00068860701417391154 0 0,0019394488751220326 0,00035330264698130431
leaf_count=6 1316 64 4 13 7 2 4 1 14 6
internal_value=0 -0,567864 0,0950711 -0,535394 0,671722 0,831703 0 -0,284839 1,08363 0
internal_count=1437 121 57 24 33 26 11 7 16 10
shrinkage=0.00166553


Tree=70
num_leaves=11
num_cat=0
split_feature=25 16 12 16 23 17 7 17 7 25
split_gain=13,4813 9,2405 3,26438 1,28348 1,31776 1,16393 0,332304 0,253042 0,0181052 0,0114067
threshold=0,14220836284383157 0,44650897691650054 0,56798533052238931 0,44334651166977129 0,66585296330022448 0,63968932455653149 0,50920058711917815 0,64459240393696282 0,53168295564386214 0,3231386990159138
decision_type=2 2 2 2 2 2 2 2 2 2
left_child=1 3 5 7 6 -3 -5 -1 -8 -2
right_child=9 2 -4 4 -6 -7 8 -9 -10 -11
leaf_value=-0,0013989654620532911 -0,0010905744187902661 -0 -0,0004364691697220392 0,00059916244025147707 -0,00084239888275843542 0,001373557482096132 -0,00012888705040851981 -0 0 -0,0017873759572940762
leaf_count=39 67 1 4 4 7 17 3 3 2 1290
internal_value=0 -0,418773 0,53713 -0,865451 -0,0369201 0,959403 0,193491 -1,06629 -0 -1,40306
internal_count=1437 80 22 58 16 18 9 42 5 1357
shrinkage=0.00125418


Tree=71
num_leaves=10
num_cat=0
split_feature=5 16 12 23 17 16 16 17 12
split_gain=12,9218 13,7565 10,4451 4,76047 1,057 0,122746 0,125238 0,119731 0,308595
threshold=0,31468728479308844 0,44398840989750082 0,56325036643480386 0,68057391915349374 0,64294306406605883 0,44334651166977129 0,4434067336865341 0,64139541531493849 0,52758657524227603
decision_type=2 2 2 2 2 2 2 2 2
left_child=1 5 3 -3 -4 -1 -7 8 -5
right_child=-2 2 4 7 -6 6 -8 -9 -10
leaf_value=-0,0025424234061660581 -0,0029021117014521886 0,0026984158131625937 -0,0021672020225528403 0 0 0 -0,00045838788896920932 0 -0,00092671097791519833
leaf_count=74 1300 24 17 1 5 1 7 3 5
internal_value=0 -0,619402 0,104467 0,849422 -0,832531 -1,15507 -0,0207066 -0,0330539 -0,224872
internal_count=1437 137 55 33 22 82 8 9 6
shrinkage=0.00208798


Tree=72
num_leaves=12
num_cat=0
split_feature=25 16 20 20 6 20 25 20 26 6 12
split_gain=12,7114 8,42917 3,33821 2,33645 1,08155 0,152214 9,16634 2,16477 0,146173 0,316816 0,0654749
threshold=0,14220836284383157 0,44650897691650054 0,97685687405101274 0,78091303554377245 0,52383298987545934 0,96271454187302663 0,37259722539370449 0,89812840648901127 0,42934624047635223 1,0000000180025095e-35 0,56798533052238931
decision_type=2 2 2 2 2 2 2 2 2 2 2
left_child=1 3 -3 8 -5 6 7 -2 9 -1 -4
right_child=5 2 10 4 -6 -7 -8 -9 -10 -11 -12
leaf_value=-0 -0,00037013862158715181 0,0021123233991253289 0 -0,0021631036254706245 0 -0,0028720480267027432 -0,0025137009142906829 0,0019303583280463133 -0,00015963184141627799 0,00099200725275393458 -0,00066795100387242079
leaf_count=1 4 16 2 49 1 1282 62 9 3 4 4
internal_value=0 -0,395346 0,517959 -0,827667 -0,989546 -1,36081 -0,847806 0,397288 0 0,247595 -0,237007
internal_count=1437 80 22 58 50 1357 75 13 8 5 6
shrinkage=0.00207433


Tree=73
num_leaves=10
num_cat=0
split_feature=5 16 20 20 26 23 17 23 20
split_gain=12,5521 13,2675 12,7459 1,82859 1,55952 1,3547 0,326124 0,408398 0,293564
threshold=0,31468728479308844 0,44398840989750082 0,9699891141330782 0,98484433741217015 0,39486029042602994 0,68057391915349374 0,64139541531493849 0,054999535530661108 0,78091303554377245
decision_type=2 2 2 2 2 2 2 2 2
left_child=1 4 5 6 8 -3 -4 -8 -1
right_child=-2 2 3 -5 -6 -7 7 -9 -10
leaf_value=0,00020053543053107637 -0,0032629735022671295 0,0029927419571206004 -0,00067660718513331706 -0,0025294715912320032 -0,0029556948738481289 -0 -0 0,0012867272431809592 -0,00085968954762962368
leaf_count=4 1300 23 4 19 73 4 1 4 5
internal_value=0 -0,606529 0,10473 -0,745585 -1,13595 1,08947 0 0,275512 -0
internal_count=1437 137 55 28 82 27 9 5 9
shrinkage=0.00238124


Tree=74
num_leaves=9
num_cat=0
split_feature=5 16 20 20 6 26 6 23
split_gain=13,4743 9,24057 3,61322 2,36863 1,15762 0,140767 0,319901 0,0903065
threshold=0,14220872722719591 0,44650897691650054 0,97685687405101274 0,78091303554377245 0,52383298987545934 0,42934624047635223 1,0000000180025095e-35 0,76625791627181361
decision_type=2 2 2 2 2 2 2 2
left_child=1 3 -3 5 -5 6 -1 -4
right_child=-2 2 7 4 -6 -7 -8 -9
leaf_value=-0 -0,0012626086827786198 0,00094578419054227724 -0,00032603780059421472 -0,00097172962672807802 0 -9,5223549158233447e-05 0,00042417646763091339 0
leaf_count=1 1357 16 4 49 1 3 4 2
internal_value=0 -0,419241 0,53684 -0,865773 -1,02585 0 0,233513 -0,261929
internal_count=1437 80 22 58 50 8 5 6
shrinkage=0.000899718


Tree=75
num_leaves=9
num_cat=0
split_feature=5 16 20 20 13 26 6 23
split_gain=14,2892 10,1271 3,80199 2,50509 1,25212 0,146832 0,32416 0,0954599
threshold=0,14220872722719591 0,44650897691650054 0,97685687405101274 0,78091303554377245 0,16725098603894076 0,42934624047635223 1,0000000180025095e-35 0,76625791627181361
decision_type=2 2 2 2 2 2 2 2
left_child=1 3 -3 5 -5 6 -1 -4
right_child=-2 2 7 4 -6 -7 -8 -9
leaf_value=-0 -0,0011505311827833934 0,00086637017272542813 -0,00029345549618701457 -0,00091980227775765547 0 -9,2111399515698748e-05 0,0003791463231844709 0
leaf_count=1 1357 16 4 46 4 3 4 2
internal_value=0 -0,435913 0,565772 -0,899176 -1,06183 0 0,235694 -0,263683
internal_count=1437 80 22 58 50 8 5 6
shrinkage=0.000798596


Tree=76
num_leaves=10
num_cat=0
split_feature=5 16 12 23 17 16 17 12 16
split_gain=12,5117 13,2411 10,0017 4,59481 1,0405 0,133732 0,113618 0,300076 0,11297
threshold=0,31468728479308844 0,44398840989750082 0,56325036643480386 0,68057391915349374 0,64294306406605883 0,44334651166977129 0,64139541531493849 0,52758657524227603 0,4434067336865341
decision_type=2 2 2 2 2 2 2 2 2
left_child=1 5 3 -3 -4 -1 7 -5 -7
right_child=-2 2 4 6 -6 8 -8 -9 -10
leaf_value=-0,0025093816790290511 -0,0028688259546101151 0,002659134545429479 -0,0021363924915486091 0 0 0 0 -0,00091253047812842796 -0,00043549013577442991
leaf_count=74 1300 24 17 1 5 1 3 5 7
internal_value=0 -0,608387 0,102009 0,833835 -0,816144 -1,13703 -0,0278152 -0,218475 -0,0111146
internal_count=1437 137 55 33 22 82 9 6 8
shrinkage=0.00209228


Tree=77
num_leaves=9
num_cat=0
split_feature=20 5 16 23 20 23 23 20
split_gain=12,3588 12,8439 14,2718 1,19487 1,05509 0,868337 0,0685828 0,0016625
threshold=0,96398167560458969 0,37165842358980783 0,44398840989750082 0,68057391915349374 1,0000000180025095e-35 0,60143340996353611 0,60666558918047586 0,96060138590642208
decision_type=2 2 2 2 2 2 2 2
left_child=1 2 4 -4 -1 -6 -7 -5
right_child=-2 -3 3 7 5 6 -8 -9
leaf_value=0 -0,002546683692121235 -0,0022544949078389179 0,0024140052027229429 5,4771299207432852e-05 -0,0020725565189890316 9,6983469805427664e-05 -0,00034690951481185104 -0
leaf_count=1 1316 64 23 4 21 2 4 2
internal_value=0 -0,544651 0,0951628 1,09393 -0,829698 -0,927219 -0 0
internal_count=1437 121 57 29 28 27 6 6
shrinkage=0.00187857


Tree=78
num_leaves=11
num_cat=0
split_feature=25 16 20 23 16 26 20 26 12 7
split_gain=12,2252 13,9708 13,6094 4,59189 1,58142 1,62984 1,57085 0,481778 0,590632 0,0156483
threshold=0,3231386990159138 0,44334651166977129 0,98484433741217015 0,66585296330022448 0,44398840989750082 0,44667985868894872 1,0000000180025095e-35 0,44506790109705324 0,55377928114961794 0,50920058711917815
decision_type=2 2 2 2 2 2 2 2 2 2
left_child=1 6 3 4 9 -6 -1 -5 -9 -3
right_child=-2 2 -4 7 5 -7 -8 8 -10 -11
leaf_value=0 -0,0030088778020141323 0,00018715899543282798 -0,002456354808999397 0 0,0030589392100941778 -0 -0,0027565962310642771 -0,0014415797343158717 0 -0,00012158217942566152
leaf_count=1 1290 2 23 2 27 1 80 7 1 3
internal_value=0 -0,618531 0,0279327 0,741205 1,10478 1,27308 -1,19908 -0,118159 -0,42679 0
internal_count=1437 147 66 43 33 28 81 10 8 5
shrinkage=0.00221984


Tree=79
num_leaves=11
num_cat=0
split_feature=25 16 20 23 20 16 26 26 12 7
split_gain=12,0275 13,6571 13,3037 4,4839 1,55498 1,54706 1,609 0,472438 0,584315 0,0154825
threshold=0,3231386990159138 0,44334651166977129 0,98484433741217015 0,66585296330022448 1,0000000180025095e-35 0,44398840989750082 0,44667985868894872 0,44506790109705324 0,55377928114961794 0,50920058711917815
decision_type=2 2 2 2 2 2 2 2 2 2
left_child=1 4 3 5 -1 9 -7 -5 -9 -3
right_child=-2 2 -4 7 -6 6 -8 8 -10 -11
leaf_value=0 -0,0025616042879612949 0,00015961334503302832 -0,0020883130441266932 0 -0,0023437399164230864 0,0025961354325207981 -0 -0,0012256525399746664 0 -0,00010357518286969748
leaf_count=1 1290 2 23 2 80 27 1 7 1 3
internal_value=0 -0,612876 0,0262394 0,73273 -1,18903 1,0928 1,25973 -0,11353 -0,421765 0
internal_count=1437 147 66 43 81 33 28 10 8 5
shrinkage=0.00190257


Tree=80
num_leaves=11
num_cat=0
split_feature=20 26 16 20 23 6 22 23 7 20
split_gain=11,8377 11,6962 12,5679 1,66142 0,858319 1,00529 0,346337 0,0260129 0,167081 0,00253151
threshold=0,96398167560458969 0,44644055721454812 0,44398840989750082 0,78091303554377245 0,68057391915349374 0,612803512230087 0,75000000000000011 0,47172466262837526 0,44223678086850676 0,96060138590642208
decision_type=2 2 2 2 2 2 2 2 2 2
left_child=1 2 3 7 5 -4 -2 -1 -9 -6
right_child=6 -3 4 -5 9 -7 -8 8 -10 -11
leaf_value=-7,4990263878896163e-05 -0,0025734509692234798 -0,0022290675356025241 0,0023683084877282028 -0,0019930889994489594 6,8351517364975266e-05 -0 -0,0015876330519112162 0,00062719468603882403 -0 -0
leaf_count=3 1230 62 23 22 4 1 86 3 1 2
internal_value=0 -0,526102 0,0690331 -0,795803 1,00142 1,16293 -1,32842 0 0,108802 0
internal_count=1437 121 59 29 30 24 1316 7 4 6
shrinkage=0.00189809


Tree=81
num_leaves=12
num_cat=0
split_feature=5 16 20 20 5 16 20 5 20 17 17
split_gain=11,743 7,39925 5,75268 1,2305 1,11982 0,673943 0,169123 8,26222 1,91508 0,028437 0,0329879
threshold=0,14220872722719591 0,44334651166977129 0,9724477064285254 1,0000000180025095e-35 0,10276716959869782 0,44421487603305881 0,96271454187302663 0,37165842358980783 0,89812840648901127 0,63853131228497806 0,63839259731945397
decision_type=2 2 2 2 2 2 2 2 2 2 2
left_child=1 3 5 -1 -4 -3 7 8 -2 10 -5
right_child=6 2 4 9 -6 -7 -8 -9 -10 -11 -12
leaf_value=0 -0,00026397748166775704 0 -0,0015770679758260117 -0,00024465146596209988 0 0,0018901755553230812 -0,0024438008247067763 -0,0021238435743490399 0,0016148560925286009 -0,0020191541652749665 0
leaf_count=1 4 6 11 4 3 18 1282 62 9 36 1
internal_value=0 -0,36378 0,201657 -0,964216 -0,591395 0,848121 -1,30713 -0,797709 0,375204 -1,03742 -0
internal_count=1437 80 38 42 14 24 1357 75 13 41 5
shrinkage=0.00183632


Tree=82
num_leaves=11
num_cat=0
split_feature=5 16 20 23 20 16 26 26 12 7
split_gain=11,6215 12,9699 12,6014 4,24751 1,50833 1,43276 1,55178 0,433708 0,565545 0,0143421
threshold=0,32313904714205227 0,44334651166977129 0,98484433741217015 0,66585296330022448 1,0000000180025095e-35 0,44398840989750082 0,44667985868894872 0,44506790109705324 0,55377928114961794 0,50920058711917815
decision_type=2 2 2 2 2 2 2 2 2 2
left_child=1 4 3 5 -1 9 -7 -5 -9 -3
right_child=-2 2 -4 7 -6 6 -8 8 -10 -11
leaf_value=0 -0,0031597027911019898 0,00020561731270574081 -0,0025617080774049286 0 -0,0028814833200789115 0,0032016122529232964 -0 -0,0014961246707867236 0 -0,00010683283565782783
leaf_count=1 1290 2 23 2 80 27 1 7 1 3
internal_value=0 -0,593108 0,0303724 0,720678 -1,16121 1,07259 1,23431 -0,0972997 -0,401627 0
internal_count=1437 147 66 43 81 33 28 10 8 5
shrinkage=0.00239243


Tree=83
num_leaves=9
num_cat=0
split_feature=5 16 20 20 7 26 6 23
split_gain=12,6165 8,2899 3,21575 2,28868 1,10624 0,138889 0,306151 0,094408
threshold=0,14220872722719591 0,44650897691650054 0,97685687405101274 0,78091303554377245 0,53168295564386214 0,42934624047635223 1,0000000180025095e-35 0,76625791627181361
decision_type=2 2 2 2 2 2 2 2
left_child=1 3 -3 5 -5 6 -1 -4
right_child=-2 2 7 4 -6 -7 -8 -9
leaf_value=-0 -0,001162977875549023 0,00086685444110371466 -0,00028126410781514297 -0,00091680759754238629 0 -6,1766391479556798e-05 0,00040338460786279196 0
leaf_count=1 1357 16 4 46 4 3 4 2
internal_value=0 -0,38966 0,517509 -0,819683 -0,980392 0 0,242242 -0,217735
internal_count=1437 80 22 58 50 8 5 6
shrinkage=0.000859067


Tree=84
num_leaves=7
num_cat=0
split_feature=5 16 20 20 5 16
split_gain=12,901 8,50062 6,43518 1,32361 1,21293 0,823551
threshold=0,14220872722719591 0,44334651166977129 0,9724477064285254 1,0000000180025095e-35 0,10276716959869782 0,44421487603305881
decision_type=2 2 2 2 2 2
left_child=1 3 5 -1 -4 -3
right_child=-2 2 4 -5 -6 -7
leaf_value=0 -0,0012811368101922815 0 -0,00084573751414983734 -0,0010291847854858368 0 0,0010113422227878048
leaf_count=1 1357 6 11 41 3 18
internal_value=0 -0,395655 0,212938 -1,02576 -0,629704 0,884977
internal_count=1437 80 38 42 14 24
shrinkage=0.000937081


Tree=85
num_leaves=12
num_cat=0
split_feature=25 17 20 16 23 16 23 12 23 6 16
split_gain=11,6097 13,0071 8,30081 8,12043 1,85575 1,4001 1,1775 0,595491 0,522169 0,233016 0,180606
threshold=0,3231386990159138 0,64109499726867436 0,98573586938069735 0,44398840989750082 0,56233180696465868 0,44837562744004467 0,77906148067866732 0,27679813616553645 0,020152354928004716 0,49009945345399164 0,44421487603305881
decision_type=2 2 2 2 2 2 2 2 2 2 2
left_child=1 5 3 4 7 -1 8 -3 -5 -6 -10
right_child=-2 2 -4 6 9 -7 -8 -9 10 -11 -12
leaf_value=-0,0023587226540020983 -0,0024975554840238555 0 -0,001906402875561974 0 0,00076557178427994507 0 -0 -0,0016789012454775795 0 -0 0,0025137643378616206
leaf_count=74 1290 2 20 3 3 1 1 14 3 1 25
internal_value=0 -0,595724 0 0,470041 -0,389725 -1,20682 1,09651 -0,761097 1,17498 0,161893 1,25528
internal_count=1437 147 72 52 20 75 32 16 31 4 28
shrinkage=0.00188802


Tree=86
num_leaves=11
num_cat=0
split_feature=5 16 20 20 6 26 6 23 20 20
split_gain=12,0691 7,66572 3,02096 2,23862 1,0203 0,136329 0,299856 0,0886117 0,0871114 0,112867
threshold=0,14220872722719591 0,44650897691650054 0,97685687405101274 0,78091303554377245 0,52383298987545934 0,42934624047635223 1,0000000180025095e-35 0,76625791627181361 0,96271454187302663 0,96060138590642208
decision_type=2 2 2 2 2 2 2 2 2 2
left_child=1 3 -3 5 -5 6 -1 -4 9 -2
right_child=8 2 7 4 -6 -7 -8 -9 -10 -11
leaf_value=-0 -0,00081093517570276987 0,00094308272262358514 -0,00029807026580556327 -0,00096595497676626942 0 -4,5293591839595027e-05 0,00044948729446199612 0 -0,0012946157857991786 -0
leaf_count=1 71 16 4 49 1 3 4 2 1282 4
internal_value=0 -0,372959 0,499805 -0,791464 -0,952945 0 0,244932 -0,202385 -1,32478 -0,818475
internal_count=1437 80 22 58 50 8 5 6 1357 75
shrinkage=0.000960253


Tree=87
num_leaves=9
num_cat=0
split_feature=25 16 20 20 7 26 6 23
split_gain=12,4172 8,05391 3,15892 2,31638 1,0719 0,144589 0,306733 0,0894433
threshold=0,14220836284383157 0,44650897691650054 0,97685687405101274 0,78091303554377245 0,53168295564386214 0,42934624047635223 1,0000000180025095e-35 0,76625791627181361
decision_type=2 2 2 2 2 2 2 2
left_child=1 3 -3 5 -5 6 -1 -4
right_child=-2 2 7 4 -6 -7 -8 -9
leaf_value=-0 -0,0013752558596130606 0,0010188036124685177 -0,00033097991749840615 -0,0010826184874258475 0 -6,1700057193009045e-05 0,00048476901423353787 0
leaf_count=1 1357 16 4 46 4 3 4 2
internal_value=0 -0,386998 0,5072 -0,811953 -0,974398 0 0,250099 -0,218316
internal_count=1437 80 22 58 50 8 5 6
shrinkage=0.00102136


Tree=88
num_leaves=7
num_cat=0
split_feature=5 16 20 20 5 16
split_gain=12,4161 8,0852 6,12173 1,28706 1,1638 0,780112
threshold=0,14220872722719591 0,44334651166977129 0,9724477064285254 1,0000000180025095e-35 0,10276716959869782 0,44421487603305881
decision_type=2 2 2 2 2 2
left_child=1 3 5 -1 -4 -3
right_child=-2 2 4 -5 -6 -7
leaf_value=0 -0,001420761731433452 0 -0,00093204597086750699 -0,0011378837053473067 0 0,0011222206452714694
leaf_count=1 1357 6 11 41 3 18
internal_value=0 -0,382408 0,210349 -1,00195 -0,610516 0,869288
internal_count=1437 80 38 42 14 24
shrinkage=0.00105879


Tree=89
num_leaves=12
num_cat=0
split_feature=25 16 20 20 25 16 20 25 20 17 17
split_gain=11,6556 7,31016 5,66262 1,22486 1,10052 0,689172 0,125282 8,13913 1,87606 0,0160943 0,0338951
threshold=0,14220836284383157 0,44334651166977129 0,9724477064285254 1,0000000180025095e-35 0,10276686622509602 0,44421487603305881 0,96271454187302663 0,37259722539370449 0,89812840648901127 0,63853131228497806 0,63839259731945397
decision_type=2 2 2 2 2 2 2 2 2 2 2
left_child=1 3 5 -1 -4 -3 7 8 -2 10 -5
right_child=6 2 4 9 -6 -7 -8 -9 -10 -11 -12
leaf_value=0 -0,00026393236727067029 0 -0,0015452753666457481 -0,00024449358431996495 0 0,0018541689671601517 -0,0024054083952803249 -0,0020911431411398387 0,0015675002400550747 -0,0019839444891676427 0
leaf_count=1 4 6 11 4 3 18 1282 62 9 36 1
internal_value=0 -0,363408 0,198451 -0,960709 -0,588079 0,840907 -1,30465 -0,798098 0,363673 -1,03393 -0
internal_count=1437 80 38 42 14 24 1357 75 13 41 5
shrinkage=0.00181105


Tree=90
num_leaves=11
num_cat=0
split_feature=5 16 20 23 20 16 26 26 12 7
split_gain=11,5156 12,8234 12,4095 4,16189 1,50289 1,44967 1,53474 0,424296 0,555332 0,0135796
threshold=0,32313904714205227 0,44334651166977129 0,98484433741217015 0,66585296330022448 1,0000000180025095e-35 0,44398840989750082 0,44667985868894872 0,44506790109705324 0,55377928114961794 0,50920058711917815
decision_type=2 2 2 2 2 2 2 2 2 2
left_child=1 4 3 5 -1 9 -7 -5 -9 -3
right_child=-2 2 -4 7 -6 6 -8 8 -10 -11
leaf_value=0 -0,0028023395257386948 0,00016940014890103915 -0,0022673629342056128 0 -0,0025538730537153324 0,00282298912754495 -0 -0,0013168057832031383 0 -0,00010515348723398936
leaf_count=1 1290 2 23 2 80 27 1 7 1 3
internal_value=0 -0,592617 0,0273247 0,71305 -1,15808 1,06142 1,22435 -0,0947587 -0,397139 0
internal_count=1437 147 66 43 81 33 28 10 8 5
shrinkage=0.00212588


Tree=91
num_leaves=7
num_cat=0
split_feature=5 16 20 20 5 16
split_gain=12,3755 8,08666 6,19402 1,28435 1,15426 0,815204
threshold=0,14220872722719591 0,44334651166977129 0,9724477064285254 1,0000000180025095e-35 0,10276716959869782 0,44421487603305881
decision_type=2 2 2 2 2 2
left_child=1 3 5 -1 -4 -3
right_child=-2 2 4 -5 -6 -7
leaf_value=0 -0,0012589819891312998 0 -0,00083034928425523499 -0,0010089582515284275 0 0,0009929180541368406
leaf_count=1 1357 6 11 41 3 18
internal_value=0 -0,387974 0,204488 -1,00629 -0,621723 0,86752
internal_count=1437 80 38 42 14 24
shrinkage=0.000935454


Tree=92
num_leaves=12
num_cat=0
split_feature=5 17 20 16 23 16 23 12 23 2 16
split_gain=11,4286 12,7301 8,10745 7,93787 1,82529 1,38435 1,15453 0,585709 0,502189 0,23112 0,162289
threshold=0,32313904714205227 0,64109499726867436 0,98573586938069735 0,44398840989750082 0,56233180696465868 0,44837562744004467 0,77906148067866732 0,27679813616553645 0,020152354928004716 0,46549018615304799 0,44421487603305881
decision_type=2 2 2 2 2 2 2 2 2 2 2
left_child=1 5 3 4 7 -1 8 -3 -5 -6 -10
right_child=-2 2 -4 6 9 -7 -8 -9 10 -11 -12
leaf_value=-0,0023281142920595749 -0,0024683726393574376 0 -0,0018802503814672317 0 -0 0 -0 -0,0016566508417587098 0 0,00075370375025690954 0,0024681946359937359
leaf_count=74 1290 2 20 3 1 1 1 14 3 3 25
internal_value=0 -0,591836 0 0,463089 -0,386054 -1,19849 1,08387 -0,755639 1,16179 0,156808 1,24096
internal_count=1437 147 72 52 20 75 32 16 31 4 28
shrinkage=0.00187598


Tree=93
num_leaves=10
num_cat=0
split_feature=5 17 20 16 16 26 26 12 2
split_gain=11,2593 12,4636 7,93884 7,75719 1,37121 1,30223 0,946794 0,667355 0,188365
threshold=0,32313904714205227 0,64109499726867436 0,98573586938069735 0,44398840989750082 0,44837562744004467 0,44667985868894872 0,39486029042602994 0,52213456664115776 0,83327216815783167
decision_type=2 2 2 2 2 2 2 2 2
left_child=1 4 3 6 -1 -5 8 -8 -3
right_child=-2 2 -4 5 -6 -7 7 -9 -10
leaf_value=-0,0020210273479138031 -0,0021452744717775874 0,00053920586859008805 -0,0016316740180258155 0,0019038736258539402 0 -0 -0,0013342501145034613 0 -0
leaf_count=74 1290 3 20 31 1 1 12 2 3
internal_value=0 -0,586496 0 0,458417 -1,18923 1,07332 -0,380395 -0,652153 0
internal_count=1437 147 72 52 75 32 20 14 6
shrinkage=0.00164058


Tree=94
num_leaves=12
num_cat=0
split_feature=5 16 20 17 20 16 26 2 12 7 16
split_gain=11,0719 12,2118 11,7667 3,11896 1,46829 1,10668 1,36572 0,219553 0,0696832 0,143369 0,0139567
threshold=0,32313904714205227 0,44334651166977129 0,98484433741217015 0,64109499726867436 1,0000000180025095e-35 0,44421487603305881 0,44667985868894872 0,91609825236329601 0,47436285320712474 0,50920058711917815 0,32625556261919902
decision_type=2 2 2 2 2 2 2 2 2 2 2
left_child=1 4 3 7 -1 8 -7 -3 -5 -10 -2
right_child=10 2 -4 5 -6 6 -8 -9 9 -11 -12
leaf_value=0 -0 -0,00080411839458623309 -0,0023809653324736524 0,00045569869504826676 -0,0026875945523863478 0,0027501329471909378 -0 0 0 -0,00061899966476731461 -0,0029635463501193034
leaf_count=1 7 5 23 3 80 28 1 1 1 4 1283
internal_value=0 -0,581793 0,0234238 0,694322 -1,13835 0,934564 1,11198 -0,1413 0 -0 -1,29967
internal_count=1437 147 66 43 81 37 29 6 8 5 1290
shrinkage=0.00227403


Tree=95
num_leaves=9
num_cat=0
split_feature=5 16 20 20 7 26 6 23
split_gain=12,2485 7,99395 3,15662 2,27905 1,047 0,138942 0,301187 0,085435
threshold=0,14220872722719591 0,44650897691650054 0,97685687405101274 0,78091303554377245 0,53168295564386214 0,42934624047635223 1,0000000180025095e-35 0,76625791627181361
decision_type=2 2 2 2 2 2 2 2
left_child=1 3 -3 5 -5 6 -1 -4
right_child=-2 2 7 4 -6 -7 -8 -9
leaf_value=-0 -0,0010358357202388192 0,00076484332788797715 -0,00025075549325749661 -0,00081548793638328172 0 -5,0707376783675624e-05 0,0003604682002316845 0
leaf_count=1 1357 16 4 46 4 3 4 2
internal_value=0 -0,390179 0,500906 -0,813172 -0,974136 0 0,243863 -0,223848
internal_count=1437 80 22 58 50 8 5 6
shrinkage=0.000770196


Tree=96
num_leaves=9
num_cat=0
split_feature=5 16 20 20 7 26 6 23
split_gain=12,1963 7,88599 3,07876 2,27105 1,04454 0,135221 0,299251 0,0882028
threshold=0,14220872722719591 0,44650897691650054 0,97685687405101274 0,78091303554377245 0,53168295564386214 0,42934624047635223 1,0000000180025095e-35 0,76625791627181361
decision_type=2 2 2 2 2 2 2 2
left_child=1 3 -3 5 -5 6 -1 -4
right_child=-2 2 7 4 -6 -7 -8 -9
leaf_value=-0 -0,00092322802182172217 0,00068378940530268472 -0,00021757695691590508 -0,00072575740338732793 0 -3,6110812284268668e-05 0,00032251281070162964 0
leaf_count=1 1357 16 4 46 4 3 4 2
internal_value=0 -0,381372 0,504045 -0,803614 -0,965162 0 0,243043 -0,208215
internal_count=1437 80 22 58 50 8 5 6
shrinkage=0.000691204


Tree=97
num_leaves=13
num_cat=0
split_feature=5 17 20 7 23 23 23 23 12 6 20 20
split_gain=11,7014 6,12552 1,67299 1,37623 0,302791 0,232218 0,0807655 0,661043 0,6444 0,0565613 0,0137361 0,0661267
threshold=0,14220872722719591 0,64109499726867436 0,97626928248626055 0,50374109476246731 0,68057391915349374 0,76625791627181361 0,60143340996353611 0,24302050945194972 0,27679813616553645 0,3374025624944002 0,96271454187302663 0,96060138590642208
decision_type=2 2 2 2 2 2 2 2 2 2 2 2
left_child=1 -1 3 6 -5 -4 7 9 -9 -3 11 -2
right_child=10 2 5 4 -6 -7 -8 8 -10 -11 -12 -13
leaf_value=-0,0010529764234104234 -0,0008828251029233124 -0 -0,00062358924052393239 0,00078258737197415727 -0 0 4,8081916999328863e-05 0 -0,00071176788334552995 0,00018187800765183515 -0,0014075906245222124 -0
leaf_count=35 71 1 7 17 2 2 2 1 9 4 1282 4
internal_value=0 -0,375483 0,0534027 0,332261 0,669175 -0,471306 -0 -0,133175 -0,475913 0 -1,31702 -0,81606
internal_count=1437 80 45 36 19 9 17 15 10 5 1357 75
shrinkage=0.00105028


Tree=98
num_leaves=11
num_cat=0
split_feature=25 16 20 20 24 16 20 20 17 17
split_gain=11,1378 6,81626 5,33308 1,185 1,0344 0,667294 0,135042 0,104715 0,0507905 0,0263909
threshold=0,14220836284383157 0,44334651166977129 0,9724477064285254 1,0000000180025095e-35 0,35602652172383392 0,44421487603305881 0,96271454187302663 0,96060138590642208 0,63853131228497806 0,63839259731945397
decision_type=2 2 2 2 2 2 2 2 2 2
left_child=1 3 5 -1 -4 -3 7 -2 9 -5
right_child=6 2 4 8 -6 -7 -8 -9 -10 -11
leaf_value=0 -0,0014096424432969042 0 -0,0014622769073021099 -0,00020994699214465652 0 0,0017545636874838489 -0,0022953474786374098 -0 -0,0018822683308088498 0
leaf_count=1 71 6 11 4 3 18 1282 4 36 1
internal_value=0 -0,354118 0,18734 -0,935845 -0,574418 0,817143 -1,28289 -0,777018 -1,0093 -0
internal_count=1437 80 38 42 14 24 1357 75 41 5
shrinkage=0.00175696


Tree=99
num_leaves=11
num_cat=0
split_feature=5 16 20 23 20 16 26 26 12 7
split_gain=11,0588 12,1484 11,7106 3,9689 1,46291 1,40356 1,49247 0,405603 0,529021 0,0115889
threshold=0,32313904714205227 0,44334651166977129 0,98484433741217015 0,66585296330022448 1,0000000180025095e-35 0,44398840989750082 0,44667985868894872 0,44506790109705324 0,55377928114961794 0,50920058711917815
decision_type=2 2 2 2 2 2 2 2 2 2
left_child=1 4 3 5 -1 9 -7 -5 -9 -3
right_child=-2 2 -4 7 -6 6 -8 8 -10 -11
leaf_value=0 -0,0030968875017893583 0,00017155147453453754 -0,0024938205675649932 0 -0,002814312708903807 0,0031066313394987636 -0 -0,001447091287749711 0 -0,00011481347576583507
leaf_count=1 1290 2 23 2 80 27 1 7 1 3
internal_value=0 -0,578901 0,0246561 0,693852 -1,13496 1,036 1,19754 -0,0900883 -0,388434 0
internal_count=1437 147 66 43 81 33 28 10 8 5
shrinkage=0.002388


Tree=100
num_leaves=11
num_cat=0
split_feature=25 16 20 23 26 26 20 12 20 17
split_gain=11,4003 11,6106 11,0179 3,94734 1,61003 1,46193 0,250727 0,445027 0,225949 0,164869
threshold=0,31468692748718757 0,44398840989750082 0,98484433741217015 0,68057391915349374 0,39486029042602994 0,44667985868894872 0,92859592855412043 0,55377928114961794 0,78091303554377245 0,64109499726867436
decision_type=2 2 2 2 2 2 2 2 2 2
left_child=1 4 3 5 8 -3 -5 -8 9 -1
right_child=-2 2 -4 6 -6 -7 7 -9 -10 -11
leaf_value=-0 -0,0013332643277911831 0,0012953674248702106 -0,0010168799859111399 0 -0,001200949761840199 -0 -0,00054480943789912348 0 -0,00031740576666929358 0,00032942570365817182
leaf_count=1 1300 26 19 2 73 1 6 1 5 3
internal_value=0 -0,571394 0,0960814 0,798124 -1,07718 1,17214 -0 -0,30709 -0 0,0987087
internal_count=1437 137 55 36 82 27 9 7 9 4
shrinkage=0.0010138


Tree=101
num_leaves=9
num_cat=0
split_feature=5 16 12 26 17 7 23 17
split_gain=11,8188 7,62535 2,76356 1,04861 1,00108 0,964524 0,104762 0,363231
threshold=0,14220872722719591 0,44650897691650054 0,56798533052238931 0,42934624047635223 0,63968932455653149 0,53168295564386214 0,60143340996353611 0,64459240393696282
decision_type=2 2 2 2 2 2 2 2
left_child=1 3 4 6 -3 -5 7 -1
right_child=-2 2 -4 5 -6 -7 -8 -9
leaf_value=-0,00034297321849442275 -0,0010197907837173996 -0 -0,00022586570490203226 -0,00078277138309702993 0,00078864841113447583 0 3,7529372533180627e-05 0
leaf_count=6 1357 1 4 43 17 4 2 3
internal_value=0 -0,378711 0,492303 -0,795135 0,89417 -0,928815 -0 -0,182073
internal_count=1437 80 22 58 18 47 11 9
shrinkage=0.000770856


Tree=102
num_leaves=9
num_cat=0
split_feature=5 16 20 20 7 26 6 23
split_gain=11,9514 7,64617 3,01219 2,2367 1,03951 0,136955 0,293017 0,0859795
threshold=0,14220872722719591 0,44650897691650054 0,97685687405101274 0,78091303554377245 0,53168295564386214 0,42934624047635223 1,0000000180025095e-35 0,76625791627181361
decision_type=2 2 2 2 2 2 2 2
left_child=1 3 -3 5 -5 6 -1 -4
right_child=-2 2 7 4 -6 -7 -8 -9
leaf_value=-0 -0,001152875636326588 0,00085128316709284823 -0,00027029166678091133 -0,00090510714946242447 0 -4,3991673415332421e-05 0,00040425703205797676 0
leaf_count=1 1357 16 4 46 4 3 4 2
internal_value=0 -0,376559 0,495269 -0,793726 -0,954793 0 0,245107 -0,205202
internal_count=1437 80 22 58 50 8 5 6
shrinkage=0.000870398


Tree=103
num_leaves=11
num_cat=0
split_feature=5 17 20 16 23 16 23 23 12 2
split_gain=11,0675 12,194 7,75027 7,58401 1,7675 1,3597 1,14468 0,578466 0,575981 0,226779
threshold=0,32313904714205227 0,64109499726867436 0,98573586938069735 0,44398840989750082 0,56233180696465868 0,44837562744004467 0,68057391915349374 0,020152354928004716 0,27679813616553645 0,46549018615304799
decision_type=2 2 2 2 2 2 2 2 2 2
left_child=1 5 3 4 8 -1 7 -5 -3 -6
right_child=-2 2 -4 6 9 -7 -8 -9 -10 -11
leaf_value=-0,0027458092453408788 -0,0029172866512347383 0 -0,0022144010757885082 0 -0 0 0 0,0028930866993833676 -0,0019545265956875512 0,00088817475185552796
leaf_count=74 1290 2 20 3 1 1 4 25 14 3
internal_value=0 -0,581846 0 0,452366 -0,376314 -1,18037 1,06179 1,19595 -0,743437 0,1503
internal_count=1437 147 72 52 20 75 32 28 16 4
shrinkage=0.00224473


Tree=104
num_leaves=11
num_cat=0
split_feature=5 17 20 16 16 26 26 12 2 17
split_gain=10,9064 11,9408 7,59026 7,41299 1,34711 1,27028 0,93115 0,6438 0,185756 0,0255543
threshold=0,32313904714205227 0,64109499726867436 0,98573586938069735 0,44398840989750082 0,44837562744004467 0,44667985868894872 0,39486029042602994 0,52213456664115776 0,83327216815783167 0,55743801652891445
decision_type=2 2 2 2 2 2 2 2 2 2
left_child=1 4 3 6 -1 -5 8 -8 -3 -2
right_child=9 2 -4 5 -6 -7 7 -9 -10 -11
leaf_value=-0,0022194663506284258 -0 0,00059656539226287406 -0,0017891807578460923 0,0020809125727092922 0 -0 -0,0014651143438025871 0 -0 -0,00236736979531323
leaf_count=74 7 3 20 31 1 1 12 2 3 1283
internal_value=0 -0,57668 0 0,447868 -1,17143 1,05166 -0,370769 -0,642635 0 -1,29183
internal_count=1437 147 72 52 75 32 20 14 6 1290
shrinkage=0.00182754


Tree=105
num_leaves=12
num_cat=0
split_feature=25 16 20 23 20 16 26 26 20 16 7
split_gain=10,7286 11,7109 11,2483 3,79314 1,43864 1,3607 1,46223 0,390591 0,515686 0,0144129 0,0102613
threshold=0,3231386990159138 0,44334651166977129 0,98484433741217015 0,66585296330022448 1,0000000180025095e-35 0,44398840989750082 0,44667985868894872 0,44506790109705324 0,98005491782817 0,32625556261919902 0,50920058711917815
decision_type=2 2 2 2 2 2 2 2 2 2 2
left_child=1 4 3 5 -1 10 -7 -5 -9 -2 -3
right_child=9 2 -4 7 -6 6 -8 8 -10 -11 -12
leaf_value=0 -0 0,00013766026493045743 -0,0021371115757303676 0 -0,0024158494853845016 0,0026501124562300963 -0 -0,0012369014799972185 0 -0,0026699757309795163 -9,6969831723126324e-05
leaf_count=1 7 2 23 2 80 27 1 7 1 1283 3
internal_value=0 -0,572143 0,0206133 0,679062 -1,12145 1,01479 1,17472 -0,081972 -0,38012 -1,28423 0
internal_count=1437 147 66 43 81 33 28 10 8 1290 5
shrinkage=0.00207332


Tree=106
num_leaves=11
num_cat=0
split_feature=5 17 16 12 23 16 16 2 6 17
split_gain=10,5682 11,4691 4,47317 7,00892 1,83384 1,49695 1,32382 0,920853 0,877514 0,0189833
threshold=0,32313904714205227 0,64109499726867436 0,44334651166977129 0,57635238277988099 0,77906148067866732 0,44421487603305881 0,44837562744004467 0,26537249591880646 0,3374025624944002 0,55743801652891445
decision_type=2 2 2 2 2 2 2 2 2 2
left_child=1 6 8 4 5 -4 -1 -5 -3 -2
right_child=9 2 3 7 -6 -7 -8 -9 -10 -11
leaf_value=-0,002453997665696421 -0 0 0 0 -0 0,0025335230769239457 0 -0,0016717252734866509 -0,0018317678545219725 -0,002622279465547812
leaf_count=74 7 5 8 1 2 26 1 13 17 1283
internal_value=0 -0,567299 0 0,373755 0,879617 1,01241 -1,15482 -0,629363 -0,696349 -1,27679
internal_count=1437 147 72 50 36 34 75 14 22 1290
shrinkage=0.00204811


Tree=107
num_leaves=11
num_cat=0
split_feature=5 17 20 7 22 23 23 23 23 6
split_gain=11,7485 6,05399 1,64937 1,34632 1,15809 0,306584 0,230412 0,0804724 0,656552 0,0561553
threshold=0,14220872722719591 0,64109499726867436 0,97626928248626055 0,50374109476246731 0,75000000000000011 0,68057391915349374 0,76625791627181361 0,60143340996353611 0,24302050945194972 0,3374025624944002
decision_type=2 2 2 2 2 2 2 2 2 2
left_child=1 4 3 7 -1 -5 -4 8 9 -3
right_child=-2 2 6 5 -6 -7 -8 -9 -10 -11
leaf_value=-0,00096437454489319214 -0,001178503299561856 -0 -0,00052729142195952065 0,00066368818210335253 0 -0 0 4,7905286334813888e-05 -0,00042476103642957659 0,00015459779332727439
leaf_count=34 1357 1 7 17 1 2 2 2 10 4
internal_value=0 -0,371865 0,0539776 0,331184 -0,996559 0,664166 -0,466304 -0 -0,131972 0
internal_count=1437 80 45 36 35 19 9 17 15 5
shrinkage=0.00089589


Tree=108
num_leaves=9
num_cat=0
split_feature=5 16 20 20 7 26 6 23
split_gain=11,9603 7,87476 3,11866 2,24404 1,00633 0,126546 0,290768 0,0803265
threshold=0,14220872722719591 0,44650897691650054 0,97685687405101274 0,78091303554377245 0,53168295564386214 0,42934624047635223 1,0000000180025095e-35 0,76625791627181361
decision_type=2 2 2 2 2 2 2 2
left_child=1 3 -3 5 -5 6 -1 -4
right_child=-2 2 7 4 -6 -7 -8 -9
leaf_value=-0 -0,00095113340969438893 0,00069935141400240817 -0,0002293517551711836 -0,00074940420119904664 0 -4,3478318747554873e-05 0,00032382328608359973 0
leaf_count=1 1357 16 4 46 4 3 4 2
internal_value=0 -0,392209 0,492908 -0,812255 -0,972155 0 0,23301 -0,225448
internal_count=1437 80 22 58 50 8 5 6
shrinkage=0.000710202


Tree=109
num_leaves=12
num_cat=0
split_feature=25 16 12 26 26 2 6 22 23 23 2
split_gain=10,531 6,26906 2,37316 1,01411 0,884238 0,861596 0,895764 0,0913317 0,0651793 0,141667 0,14007
threshold=0,14220836284383157 0,44650897691650054 0,56798533052238931 0,42934624047635223 0,44663769916222074 0,24797205806051559 0,52383298987545934 0,75000000000000011 0,60143340996353611 0,21401666619169632 0,66353880614014016
decision_type=2 2 2 2 2 2 2 2 2 2 2
left_child=1 3 4 8 -3 -5 -7 -2 9 -1 -11
right_child=7 2 -4 5 -6 6 -8 -9 -10 10 -12
leaf_value=0 -0,0035616434980796328 0,0026736489322090025 -0,00069481010118281681 0 -0 -0,0027009538458628007 0 -0,0021537163931255095 0,00015062019792854911 0 -0,0010749800065499558
leaf_count=1 1273 17 4 1 1 45 1 84 2 2 6
internal_value=0 -0,341559 0,449692 -0,730568 0,836388 -0,863069 -0,916823 -1,25602 -0 -0,142648 -0,270388
internal_count=1437 80 22 58 18 47 46 1357 11 9 8
shrinkage=0.00278082


Tree=110
num_leaves=9
num_cat=0
split_feature=20 5 16 2 23 22 20 20
split_gain=10,574 10,3494 11,269 0,925998 0,78047 0,653661 0,521747 0,00224384
threshold=0,96398167560458969 0,37165842358980783 0,44398840989750082 0,6566482327482569 0,68057391915349374 0,75000000000000011 0,78091303554377245 0,96060138590642208
decision_type=2 2 2 2 2 2 2 2
left_child=1 2 3 -1 -4 -2 -5 -6
right_child=5 -3 4 6 7 -7 -8 -9
leaf_value=-0,0020899588048596532 -0,002771654444735381 -0,0023664658407312957 0,0025072463830216433 0,00069914959526997712 7,316287185458423e-05 -0,0016211347252321801 -0,00082458367667550842 -0
leaf_count=19 1230 64 23 3 4 86 6 2
internal_value=0 -0,479149 0,093868 -0,737792 1,00306 -1,26135 -0 0
internal_count=1437 121 57 28 29 1316 9 6
shrinkage=0.00214864


Tree=111
num_leaves=12
num_cat=0
split_feature=5 16 20 23 20 16 26 26 12 16 7
split_gain=10,4488 11,2123 10,7771 3,63209 1,40188 1,27396 1,42332 0,35758 0,490816 0,0419426 0,00961403
threshold=0,32313904714205227 0,44334651166977129 0,98484433741217015 0,66585296330022448 1,0000000180025095e-35 0,44398840989750082 0,44667985868894872 0,44506790109705324 0,55377928114961794 0,32625556261919902 0,50920058711917815
decision_type=2 2 2 2 2 2 2 2 2 2 2
left_child=1 4 3 5 -1 10 -7 -5 -9 -2 -3
right_child=9 2 -4 7 -6 6 -8 8 -10 -11 -12
leaf_value=0 -0 0,000147006048581258 -0,0021286469509704982 0 -0,0024096743997697933 0,0026596540798871919 -0 -0,0012171496615160742 0 -0,0026716453452155717 -7,9231576017989492e-05
leaf_count=1 7 2 23 2 80 27 1 7 1 1283 3
internal_value=0 -0,554574 0,0260918 0,673163 -1,09863 1,00262 1,15842 -0,0673811 -0,362233 -1,26351 0
internal_count=1437 147 66 43 81 33 28 10 8 1290 5
shrinkage=0.00210848


Tree=112
num_leaves=14
num_cat=0
split_feature=5 17 20 7 2 2 23 2 23 6 20 20 2
split_gain=10,9427 5,49475 1,478 1,16868 0,703342 0,282568 0,280945 0,167255 0,221051 0,2078 0,0923827 0,0676796 0,000149995
threshold=0,14220872722719591 0,64109499726867436 0,97626928248626055 0,50374109476246731 0,91609825236329601 0,47225421090596176 0,68057391915349374 0,6566482327482569 0,24302050945194972 0,24027864886658906 0,96271454187302663 0,96060138590642208 0,83327216815783167
decision_type=2 2 2 2 2 2 2 2 2 2 2 2 2
left_child=1 4 3 7 -1 -4 -5 8 -3 12 11 -2 -9
right_child=10 2 5 6 -6 -7 -8 9 -10 -11 -12 -13 -14
leaf_value=-0,00090887251396398327 -0,0007075216409307885 0 0 0,00062110329096419948 0 -0,00051271687011262125 -0 0 -0,00035700911744695785 0,0002691676823090663 -0,0011516412122016769 -0 -8,3686884158058858e-06
leaf_count=33 71 1 2 17 2 7 2 1 6 6 1282 4 3
internal_value=0 -0,356291 0,0474907 0,316982 -0,958877 -0,439926 0,628552 -0 -0,24872 0,058646 -1,28012 -0,776873 -0
internal_count=1437 80 45 36 35 9 19 17 7 10 1357 75 4
shrinkage=0.000883487


Tree=113
num_leaves=9
num_cat=0
split_feature=5 16 20 20 7 26 6 23
split_gain=11,621 7,43724 2,93453 2,24482 0,988858 0,135226 0,284557 0,0809492
threshold=0,14220872722719591 0,44650897691650054 0,97685687405101274 0,78091303554377245 0,53168295564386214 0,42934624047635223 1,0000000180025095e-35 0,76625791627181361
decision_type=2 2 2 2 2 2 2 2
left_child=1 3 -3 5 -5 6 -1 -4
right_child=-2 2 7 4 -6 -7 -8 -9
leaf_value=-0 -0,00071485762379492669 0,00052463546652877033 -0,00016502763055312067 -0,0005615373461767204 0 -2,0620984236513582e-05 0,00025003930487288992 0
leaf_count=1 1357 16 4 46 4 3 4 2
internal_value=0 -0,375507 0,485258 -0,787906 -0,950011 0 0,245427 -0,20179
internal_count=1437 80 22 58 50 8 5 6
shrinkage=0.000543593


Tree=114
num_leaves=15
num_cat=0
split_feature=5 17 12 7 2 22 23 2 23 2 23 12 12 17
split_gain=10,3977 11,1175 3,94908 2,16031 2,10123 1,30051 0,840866 0,778956 0,496497 0,430709 0,417583 0,0313308 0,0215941 0,0106854
threshold=0,32313904714205227 0,64109499726867436 0,56193037363739162 0,52932015895177753 0,26537249591880646 0,75000000000000011 0,77906148067866732 0,41957833993495408 0,3457190050909868 0,87200237911441281 0,69592340106137696 0,43240519864567156 0,50779818401159371 0,55743801652891445
decision_type=2 2 2 2 2 2 2 2 2 2 2 2 2 2
left_child=1 5 3 7 -4 -1 -5 10 11 -10 -3 -9 -13 -2
right_child=13 2 4 6 -6 -7 -8 8 9 -11 -12 12 -14 -15
leaf_value=-0,0025439786591156736 -0 -0,0011741234502501371 0,00013674586759587862 0,001979575436578005 -0,0020543650164144031 0 -0 -0,00027946768198824792 0,001382590042831307 -0 0 0,00023300918396066769 -0 -0,0027251820474985988
leaf_count=74 7 10 2 19 19 1 1 4 8 1 1 4 3 1283
internal_value=0 -0,556098 0 0,348673 -0,668787 -1,1394 0,812303 -0 0,213943 0,492973 -0,394429 -0 0 -1,26376
internal_count=1437 147 72 51 21 75 20 31 20 9 11 11 7 1290
shrinkage=0.00215035


Tree=115
num_leaves=10
num_cat=0
split_feature=20 26 16 20 22 6 23 2 20
split_gain=10,3054 9,6355 10,2549 1,58506 0,712804 0,670727 0,703954 0,227326 0,00308421
threshold=0,96398167560458969 0,44644055721454812 0,44398840989750082 0,78091303554377245 0,75000000000000011 0,612803512230087 0,68057391915349374 0,6566482327482569 0,96060138590642208
decision_type=2 2 2 2 2 2 2 2 2
left_child=1 2 3 7 -2 6 -4 -1 -8
right_child=4 -3 5 -5 -6 -7 8 -9 -10
leaf_value=-0,00033669678920737029 -0,0026831247923251194 -0,002287075295786875 0,0024131780415742343 -0,0020608783808756131 -0,0015502957933291968 -0 8,3966427167700763e-05 0,00067401573167561238 -0
leaf_count=4 1230 62 23 22 86 1 4 3 2
internal_value=0 -0,46948 0,0697564 -0,721327 -1,24738 0,930973 0,989529 0 0
internal_count=1437 121 59 29 1316 30 29 7 6
shrinkage=0.00210228


Tree=116
num_leaves=10
num_cat=0
split_feature=5 16 12 17 16 17 17 16 17
split_gain=10,9133 6,61584 3,60231 1,91425 0,748526 0,292648 0,0673846 0,0656545 0,0198412
threshold=0,14220872722719591 0,44334651166977129 0,56325036643480386 0,64109499726867436 0,44421487603305881 0,64459240393696282 0,63853131228497806 0,44837562744004467 0,63839259731945397
decision_type=2 2 2 2 2 2 2 2 2
left_child=1 5 3 7 -5 6 8 -3 -1
right_child=-2 2 -4 4 -6 -7 -8 -9 -10
leaf_value=-9,727015122313751e-05 -0,0011851886292643114 -0,00017435171192956239 -0,00060305346770769038 0 0,00096110995095455688 -0 -0,00096693682236497424 0 0
leaf_count=4 1357 4 8 6 19 3 34 1 1
internal_value=0 -0,342186 0,191724 0,599873 0,843503 -0,919671 -0,969617 -0 -0
internal_count=1437 80 38 30 25 42 39 5 5
shrinkage=0.000935774


Tree=117
num_leaves=12
num_cat=0
split_feature=5 16 23 7 17 26 16 6 2 26 16
split_gain=10,3068 10,9861 4,43123 2,00689 2,25442 1,09625 1,02321 0,854849 0,54693 0,383147 0,0214614
