tree
version=v2
num_class=1
num_tree_per_iteration=1
label_index=0
max_feature_idx=28
objective=binary sigmoid:1
feature_names=Column_0 Column_1 Column_2 Column_3 Column_4 Column_5 Column_6 Column_7 Column_8 Column_9 Column_10 Column_11 Column_12 Column_13 Column_14 Column_15 Column_16 Column_17 Column_18 Column_19 Column_20 Column_21 Column_22 Column_23 Column_24 Column_25 Column_26 Column_27 Column_28
feature_infos=[-1.0200486153333359:3.192761691570281] [-1.0200606324345487:3.1927746248565008] [-1.0200666893559374:3.1927811443832894] [-1.0200682182350667:3.1927827807412554] [-1.7308459025134406:1.7308459025134406] [-2.9798192781895882:2.8507598705303954] [-12.741015055762064:10.382380194113928] [-11.354759818484856:8.9085645101585555] [-2.0672745100534242:16.07898791154452] [-12.741158320564693:10.382336583195567] [-2.980364467259299:2.8505812564338808] [-1.020379819976573:3.1926395606595852] [-8.9795018364831911:5.0635429985523031] [-2.9808426767032583:2.87598677605969] [-2.9775179294587319:2.8960281428254877] [-2.9811035663747076:2.875885367709349] [-24.601300427905919:23.760271586206155] [-13.671684407387874:53.426675444130801] [-9.5203216547196661:9.5010804635183828] [-24.765093974955462:23.900700258962921] [-32.847445691648062:0.25506451100253608] [-0.18759597500200323:22.696634211795541] [-2.6985356389335671:2.6985356389335671] [-2.4832890237233527:2.5692236682284539] [-1.2935231773135281:1.1418584350992182] [-2.8881252638568902:2.7767227126677256] [-20.252548851276835:23.04895320032178] [-0.095239499174030129:34.262949564324856] [-2.4292216502671247:2.75255694166834]
tree_sizes=1292 1313 1181 1297 1317 1258 1316 1754 1508 1138 1390 1534 1293 1447 1380 1284 1316 1273 1394 1586 1333 1206 1282 1229 1392 1413 1210 1427 1262 1318 1209 1139 1323 1260 1379 1414 1258 1236 1378 1165 1328 1425 1452 1258 1412 1795 1461 1325 1703 1260 1640 1411 1868 1322 1531 1374 1324 1364 1158 1691 1417 1592 2027 1551 2038 1771 1692 1941 2147 1906 1839 1551 1752 2118 1909 1270 1602 2311 1935 1921 1996 2122 2087 1660 1312 2206 1904 1635 1885 2226 1860 1412 2017 2105 2237 1532 1541 2114 2303 2089 2251 1663 1406 2228 2195 2057 2230 2253 1531 2290 1942 2022 2074 1316 2233 1904 2192 2283 2006 1939 1629 2240 1938 1866 2163 1591 1746 1793 1604 1798 1401 1331 2013 1345 1413 2015 2188 1414 2150 2170 1670 1824 1517 1868 1581 2257 1411 1473 2249 1858 1354 2115 1325 1248 1413 1434 1549 2153 1745 1448 2064 2233 1345 1802 1575 1860 1337 1836 1323 2316 1940 1282 1755 1386 2202 1418 2251 2014 2066 1440 2135 1738 2015 2265 2068 2260 1720 2104 2237 1676 1972 1678 1944 1420 2239 1927 1920 1609 2232 1433 2087 2070 1952 2200 1619 2231 1525 2066 1898 1759 2016 2115 2069 1472 1922 2089 2275 1473 2235 1546 1917 2281 1529 1547 1444 2047 2212 1545 2236 1387 2273 2221 1513 1786 1864 2030 2275 1717 2062 1244 2009 2253 1181 2089 1832 2101 2041 1936 1956 2295 1991 2179 1928 1985 2261 1455 1531 2007 1889 1812 2131 1449 1190 2229 2231 1849 2209 2211 2263 1915 2209 2168 1679 2014 1732 2171 2241 2114 1799 1942 2271 1954 2204 2145 2084 1385 2262 1864 1927 1664 2200 1511 1909 2242 2233 2168 2023 2215 2025 2222 1843 2179 2174 2111 2186 1724 2202 2211 1826 1347 2078 2056 2037 2233 1888 2282 2132 1870 1640 1804 1943 1729 2004 2245 1974 1816 2217 2033 2035 1986 1681 1930 2034 1933 2116 1944 1636 2134 1639 2234 2160 1801 1942 1944 1503 2081 1726 1884 2235 2194 1482 1461 2219 1855 1973 2230 1479 2229 2239 1581 2130 1751 2238 2208 2222 2275 2275 2082 2227 2210 2214 2269 2069 2182 2212 2264 1957 2242 2248 2249 2206 2209 2265 2198 2220 1898 2001 2184 2227 2200 2219 2273 2216 2229 2239 1817 2206 2232 2024 2148 2057 2157 1820 2244 2232 2265 2237 1925 2261 2148 2252 2268 2220 2190 2203 2203 2141 2248 2218 2201 2026 2251 2202 2213 2111 2231 2245 2213 1977 2251 2282 2208 1811 2024 1959 1989 2225 2260 1773 2240 1990 1820 1981 2232 1849 2208 2231 1784 2291 2254 2109 2232 1855 2205 2195 2078 1941 2240 2075 2231 1733 1818 2199 2284 2202 1874 2213 1962 2040 2207 2150 1884 2284 2265 2047 2251 2264 2230 2041 2103 1771 2216 2057 2079 2270 2148 1930 2134 2193 2245 1923 2215 2257 1939 2018 2254 1949 1671 2202 2166 2279 1826 2128 1874 2251 2260 2169 2165 2166 2173 1934 2003 2166 1877 2266 2126 2211 1710 2244 2256 2114 1941 1831 2225 2249 2242 1878 1821 1998 2260 1956 2197 2022 2234 2109 2181 2120 2083 2199 2288 2192 2198 2203 2190 2211 2237 2294 1853 2229 2209 2247 2197 2055 2231 2196 2290 2202 2217 2042 2173 2232 2220 2216 2185 2218 2202 1930 2336 2253 2211 2178 2179 2221 2243 2162 2204 2218 2072 2227 1946 2072 2172 2273 2143 2221 2031 2229 2058 2237 2177 2123 2240 2172 2029 2007 1812 2184 2191 2172 1957 2221 2158 1949 2214 2280 2154 2125 2186 2160 2128 2209 2246 2010 2202 2265 2034 2132 1983 2102 2224 2211 2190 2189 2232 2239 2204 2125 2157 2120 2245 2172 2232 2191 2119 1947 2135 2238 2168 2178 2253 2184 2222 2248 2140 2191 1995 1989 1950 2256 2241 2281 2141 2199 2034 2252 2198 1786 2208 2256 2187 1917 2135 2082 2216 1946 2155 2246 2194 2243 1984 1946 2298 2204 2078 2028 2213 2157 2270 2227 2246 2239 2163 2177 2283 2288 1946 2020 2239 2184 2105 2176 2220 2222 2168 2180 2259 2254 2173 2153 1977 2174 2231 2262 2161 2046 2158 2268 1834 2161 2163 2163 2161 2163 2244 2231 2215 2208 2166 2205 2246 2175 2165 2182 2198 2249 2209 2199 2216 2159 2250 2150 2244 2020 2275 2251 2295 2224 2235 2245 2136 2222 2229 2233 2274 2241 2246 2279 2225 2205 2208 1782 2219 2294 2233 2160 2206 2113 2159 2170 2180 2197 2182 2227 2237 2178 2225 2222 2125 2209 2281 2276 2153 2163 2225 2200 2122 2212 2273 2198 2227 2296 2236 2241 2211 2258 2262 2202 2229 1958 2227 2187 2205 2230 2225 2247 2203 2231 2133 2242 1913 2218 2204 2178 2237 2252 2161 2247 2280 2218 2224 2094 2200 1973 2110 2280 2232 2222 2247 2164 2233 2211 2164 2204 2222 2222 2220 2209 2208 2242 1999 2190 2306 2228 2240 2184 2181 2203 2227 2236 2144 2238 2160 2214 2186 2196 2217 2224 2104 2236 2191 2233 2261 2219 2240 2162 2198 2236 2265 2221 2215 2225 2179 2229 2218 2208 2222 2238 2231 2233 2129 2185 2229 2005 2270 2198 2117 2227 2233 2228 2159 2203 2228 2227 2196 2229 2208 2224 2155 2189 2194 2238 2254 2259 2179 2208 2218 2211 2195 2256 2194 2181 2242 2168 2214 2123 2201 2209 2225 2201 2182 2200 2237 2196 2235 2153 2225 2204 2246 2219 2219 2226 2171 2198 2248 2244 2229 2191 2180 2181 2161 2151 2196 2217 2232 2217 2213 2152 2176 2187 2221 2264 1966 2147 2161 2170 2238 2203 2134 2202 2180 2157 2231 2180 2189 2209 2226 2249 2190 2173 2226 2222 2230 2157 2208 2201 2179 2167 2169 2171 2233 2199 2178 2186 2154 2209 2206 2212 2197 2221 2203 2238 2205 2216 2210 2191 2207 2198 2225 2208 2177 2186 2189 2205 2195 2182 2288 2165 2180 2252 2221 2248 2185 2235 2216 2202 2197 2258 2108 2209 2233 2183 2231 2180 2236 2201 2185 2273 2238 2148 2113 2199 2219 2171 2216 2159 2160 2080 2199 2183 2183 2200 2214 2234 2176 2192 2183 2202 2249 2214 2218 2185 2177 2193 2228 2180 2229 2199 2238 2247 2206 2209 2194 2135 2232 2271 2167 2202 2214 2149 2220 2242 2157 2201 2211 2267 2140 2191 2191 2203 2211 2209 2179 2210 2271 2220 2208 2212 2200 2195 2139 2206 2225 2203 2196 2172 2181 2192 2234 2213 2209 2196 2216 2214 2225 2231 2206 2181 2167 2217 2172 2156 2190 2187 2135 1978 2147 2186 2185 2240 2168 2214 2266 2162 2183 2196 2238 2165 2193 2176 2242 2152 2079 2211 2064 2201 2232 2222 2187 2200 2171 2102 2129 2194 2191 2192 2197 2174 2169 2263 2179 2205 2170 2203 2157 2167 2185 2232 2140 2179 2168 2136 2188 2203 2229 2187 2245 2204 2170 2107 2205 2184 2130 2270 2130 2167 2204 2228 2226 2130 2151 2141 2205 2149 2115 2284 2169 2139 2146 2190 2152 2192 2272 2137 2156 2237 2067 2227 2229 2177 2196 2189 2157 2244 2194 2194 2190 2209 2230 2159 2142 2169 2120 2254 2248 2230 2116 2244 2159 2278 2210 2186 2143 2154 2213 2182 2193 2023 2162 2215 2136 2177 2231 2165 2110 2209 2229 2227 2063 2201 2200 2264 2161 2161 2170 2195 2194 2187 2236 2192 2137 2188 2117 2142 2150 2133 2109 2179 2194 2131 2125 2156 2118 2121 2152 2155 2213 1863 2137 2151 2126 2136 2179 2115 2159 2173 2182 2138 2147 1896 2260 2102 2235 2186 2168 2016 2103 2109 2182 2111 2174 2076 2097 2088 2175 2101 2193 1982 1940 2117 2115 2145 1926 2191 2175 2071 2130 2166 2165 2136 2098 2119 2159 2170 2138 2015 2186 2158 2171 2141 2123 2145 2140 2144 2219 1957 2165 1959 2125 2137 2133 2166 2133 2154 2092 2156 2151 2195 2209 2149 2137 2132 2142 2135 2234 1953 2141 2124 2145 2130 2120 2129 2056 2177 2016 2177 2182 2156 2017 2120 2179 1934 2164 2143 2217 2142 2155 2150 2133 2191 2184 2130 2162 2165 2075 2181 2114 2172 2133 2011 2114 2159 2160 2136 2143 2105 2169 1900 2177 2157 2085 2118 2208 2132 2152 2103 2145 2179 2125 2182 1681 2142 2063 1951 2134 2182 2097 1932 2076 2151 2086 2058 2151 2137 2153 2140 2154 1825 2125 2162 1899 2117 2141 2201 2180 2190 1878 2106 2187 2113 2173 2212 2147 2198 2143 2070 2157 2124 2140 2157 2136 2201 1749 2150 2112 2148 2148 2219 2124 2170 1882 2173 2148 2126 2156 2147 2109 2004 2120 2188 2123 2108 1859 1835 2135 2118 2115 2116 2169 2112 2138 2150 2135 1886 1996 2168 2165 2110 1946 2013 2099 2021 2145 2121 2103 2141 2146 2113 2126 2158 2143 2141 2131 2120 2140 2149 2159 2077 2165 2130 2128 2216 2183 2166 2150 2180 2145 1841 2100 2130 2140 2124 1966 2176 2152 1983 2167 2143 2149 2142 2199 2215 2190 2111 2090 2159 2219 2195 2112 2115 2148 2165 2119 2096 2137 1858 1949 1761 2126 2105 2112 2132 1817 2143 2187 2131 2190 2164 2160 2142 2135 2179 2154 2188 2131 2171 2132 2140 2212 2174 1796 1732 2191 2167 2072 2135 2228

Tree=0
num_leaves=17
num_cat=0
split_feature=5 16 20 20 22 17 6 26 16 16 24 24 16 27 16 20
split_gain=82,7751 64,7409 24,8232 17,0545 4,45776 3,43665 3,09623 1,83231 8,25808 0,996904 0,651985 0,606516 0,568182 0,564759 0,181818 0,142857
threshold=-1,7001623427422921 0,094785121243411055 -0,068834124808039784 -3,4445003923775404 1,0000000180025095e-35 0,069331074577166182 -0,32038081984680206 -0,066546354878141659 -0,010670590184036927 0,021022783681610351 1,1418373961533363 -1,2935156495438096 0,069867278978735084 -0,095141519478078446 0,027902946816194287 -0,40482820201047831
decision_type=2 2 2 2 2 2 2 2 2 2 2 2 2 2 2 2
left_child=1 3 6 5 -2 9 13 8 -5 -1 -9 -4 14 15 -10 -3
right_child=4 2 11 7 -6 -7 -8 10 12 -11 -12 -13 -14 -15 -16 -17
leaf_value=-0,00096771785111033053 -0,0032192594422914226 0,00047003438482501748 -0 -0,0022931980592978151 -0,0024926065861932759 0,0016451203468875613 -0 -0,003006599254656581 -0 0 -0 -0,0019048761911329673 -0 0,0026694405628741604 0,0010967468979250412 -0
leaf_count=13 3797 3 2 29 260 8 3 112 2 2 3 15 5 49 5 3
internal_value=0 -0,713178 0,78481 -1,36612 -1,93105 0,0740741 1,41935 -1,6 -0,844444 -0,315789 -1,79832 -1,04762 0,25 1,52542 0,545455 0
internal_count=4311 254 75 179 4057 23 58 156 41 15 115 17 12 55 7 6
shrinkage=0.00164512


Tree=1
num_leaves=17
num_cat=0
split_feature=5 16 12 20 20 22 26 16 7 16 24 16 24 26 26 20
split_gain=80,2486 62,8732 27,0121 16,6331 5,4036 4,25911 1,74098 8,06616 1,48819 1,32403 0,608108 0,560821 0,276113 0,182111 0,135515 4,11174e-06
threshold=-1,7001623427422921 0,094785121243411055 -0,60807508877528382 -3,4445003923775404 -0,068834124808039784 1,0000000180025095e-35 -0,066546354878141659 -0,010670590184036927 0,1851418848970888 -0,0064936683139632566 1,1418373961533363 0,069867278978735084 -1,2935178056557353 -0,098027406001922432 -0,020670645629246701 -6,2336129450846416
decision_type=2 2 2 2 2 2 2 2 2 2 2 2 2 2 2 2
left_child=1 3 4 9 -3 -2 7 -5 -4 12 -8 13 15 -9 -6 -1
right_child=5 2 8 6 14 -7 10 11 -10 -11 -12 -13 -14 -15 -16 -17
leaf_value=1,8595764468582409e-06 -0,0025003956501261269 0,0021116230633681701 -0,0015939751676429434 -0,0017841701798461756 0 -0,0019362494521416942 -0,0023363322495132035 0,00085885910492133628 0 0,0008574830846551526 -0 -0 -0,00042725947746809716 -0 -0,000360906831637368 -0
leaf_count=4 3797 53 17 29 1 260 112 5 1 8 3 5 8 2 3 3
internal_value=0 -0,702896 0,772931 -1,34652 1,45697 -1,90255 -1,57757 -0,832142 -1,08227 0,07388 -1,77283 0,246877 -0,102061 0,540915 -0 0
internal_count=4311 254 75 179 57 4057 156 41 18 23 115 12 15 7 4 7
shrinkage=0.00129692


Tree=2
num_leaves=15
num_cat=0
split_feature=5 16 12 20 20 22 17 26 16 7 16 16 26 26
split_gain=77,8176 61,059 26,2969 16,2062 5,28717 4,08303 3,33809 1,65666 7,88054 1,46552 0,974917 0,553555 0,179122 0,133781
threshold=-1,7001623427422921 0,094785121243411055 -0,60807508877528382 -3,4445003923775404 -0,068834124808039784 1,0000000180025095e-35 0,069331074577166182 -0,066546354878141659 -0,010670590184036927 0,1851418848970888 0,021022783681610351 0,069867278978735084 -0,098027406001922432 -0,020670645629246701
decision_type=2 2 2 2 2 2 2 2 2 2 2 2 2 2
left_child=1 3 4 6 -3 -2 10 8 -5 -4 -1 12 -10 -6
right_child=5 2 9 7 13 -7 -8 -9 11 -11 -12 -13 -14 -15
leaf_value=-0,00090488586529785964 -0,0029644208593886268 0,0025055399779880913 -0,0018943217543528417 -0,0021184029144691568 0 -0,0022954751991712836 0,0015387113482434769 -0,0027273746305225854 0,0010245062339087055 0 0 -0 -0 -0,00043133348470849675
leaf_count=13 3797 53 17 29 1 260 8 115 5 1 2 5 2 3
internal_value=0 -0,693214 0,760926 -1,32773 1,43649 -1,87524 0,0724044 -1,55593 -0,820126 -1,06818 -0,309509 0,243778 0,536416 -0
internal_count=4311 254 75 179 57 4057 23 156 41 18 15 12 7 4
shrinkage=0.00156


Tree=3
num_leaves=17
num_cat=0
split_feature=5 16 20 20 22 17 6 16 26 20 24 16 16 24 20 20
split_gain=75,5488 59,2912 23,0313 15,8171 3,92723 3,26329 2,85747 1,58012 6,62715 2,0466 1,02315 0,959687 0,923859 0,606608 0,250011 0,000475755
threshold=-1,7001623427422921 0,094785121243411055 -0,068834124808039784 -3,4445003923775404 1,0000000180025095e-35 0,069331074577166182 -0,32038081984680206 0,027902946816194287 -0,066546354878141659 -0,82586911533261165 1,0000000180025095e-35 0,021022783681610351 0,087691929166530472 -1,2935156495438096 -0,17510782312045467 -1,0384429926844152
decision_type=2 2 2 2 2 2 2 2 2 2 2 2 2 2 2 2
left_child=1 3 6 5 -2 11 14 -5 10 15 -9 -1 -12 -4 -3 -10
right_child=4 2 13 7 -6 -7 -8 8 9 -11 12 -13 -14 -15 -16 -17
leaf_value=-0,00090011691328952361 -0,0029412234051259352 0,0023687339060731076 0 -0,0026767011516002884 -0,0022770340031924878 0,0015330149523422279 -0 -0 -0 -0,0023110326329480969 0,0014086949033691087 0 -0 -0,0017614692436375855 0 2,7959503218203233e-05
leaf_count=13 3797 52 2 120 260 8 3 2 2 22 7 2 1 15 3 2
internal_value=0 -0,683581 0,749264 -1,30917 -1,84905 0,0722172 1,36235 -1,53482 -0,752972 -1,267 0,276509 -0,30357 0,655956 -1,01179 1,46438 0
internal_count=4311 254 75 179 4057 23 58 156 36 26 10 15 8 17 55 4
shrinkage=0.00156971


Tree=4
num_leaves=17
num_cat=0
split_feature=5 16 12 20 20 22 17 23 26 16 7 24 16 26 26 24
split_gain=73,3841 57,6139 25,1182 15,4489 5,03708 3,78969 3,19037 2,57373 1,57488 7,49018 1,43209 0,60408 0,54733 0,171311 0,125241 0,0462771
threshold=-1,7001623427422921 0,094785121243411055 -0,60807508877528382 -3,4445003923775404 -0,068834124808039784 1,0000000180025095e-35 0,069331074577166182 0,18552886878867689 -0,066546354878141659 -0,010670590184036927 0,1851418848970888 1,1418373961533363 0,069867278978735084 -0,098027406001922432 -0,020670645629246701 1,0000000180025095e-35
decision_type=2 2 2 2 2 2 2 2 2 2 2 2 2 2 2 2
left_child=1 3 4 6 -3 -2 7 -1 9 -5 -4 -10 13 -11 -6 -9
right_child=5 2 10 8 14 -7 -8 15 11 12 -12 -13 -14 -15 -16 -17
leaf_value=-0,0012193592119638279 -0,0022953029030180691 0,0019445317700147408 -0,0014808868607741133 -0,0016383908377649206 0 -0,0017763228161373885 0,0012009456632079355 0,00036233467176143816 -0,0021496684563473319 0,00080500070580812782 0 -0 -0 0 -0,00033224998245955952 0
leaf_count=8 3797 53 17 29 1 260 8 3 112 5 1 3 5 2 3 4
internal_value=0 -0,674341 0,738078 -1,29143 1,39996 -1,82391 0,0720297 -0,297706 -1,51468 -0,79338 -1,04727 -1,70305 0,238036 0,530555 -0 0,193253
internal_count=4311 254 75 179 57 4057 23 15 156 41 18 115 12 7 4 7
shrinkage=0.00124185


Tree=5
num_leaves=16
num_cat=0
split_feature=5 16 12 20 20 22 17 23 26 16 7 16 26 26 17
split_gain=73,3841 57,6139 25,1182 15,4489 5,03708 3,78969 3,19037 2,57373 1,57488 7,49018 1,43209 0,54733 0,171311 0,125241 0,0410656
threshold=-1,7001623427422921 0,094785121243411055 -0,60807508877528382 -3,4445003923775404 -0,068834124808039784 1,0000000180025095e-35 0,069331074577166182 0,18552886878867689 -0,066546354878141659 -0,010670590184036927 0,1851418848970888 0,069867278978735084 -0,098027406001922432 -0,020670645629246701 0,024983140470084306
decision_type=2 2 2 2 2 2 2 2 2 2 2 2 2 2 2
left_child=1 3 4 6 -3 -2 7 -1 9 -5 -4 12 -11 -6 -9
right_child=5 2 10 8 13 -7 -8 14 -10 11 -12 -13 -14 -15 -16
leaf_value=-0,0013705947614105053 -0,0025799863599342827 0,0021857095359833706 -0,0016645593469948403 -0,0018415983389890398 0 -0,0019966378426344179 0,0013498974039655609 0 -0,0023772439009913967 0,00090484390447620607 0 -0 0 -0,00037345851900720599 0,00040008305345277733
leaf_count=8 3797 53 17 29 1 260 8 4 115 5 1 5 2 3 3
internal_value=0 -0,674341 0,738078 -1,29143 1,39996 -1,82391 0,0720297 -0,297706 -1,51468 -0,79338 -1,04727 0,238036 0,530555 -0 0,193253
internal_count=4311 254 75 179 57 4057 23 15 156 41 18 12 7 4 7
shrinkage=0.00139587


Tree=6
num_leaves=17
num_cat=0
split_feature=5 16 12 20 20 22 17 23 26 16 7 24 16 26 26 24
split_gain=71,328 55,9777 24,4686 15,0883 4,93395 3,6686 3,12033 2,53082 1,50375 7,32298 1,4109 0,599765 0,540291 0,168495 0,123641 0,0459493
threshold=-1,7001623427422921 0,094785121243411055 -0,60807508877528382 -3,4445003923775404 -0,068834124808039784 1,0000000180025095e-35 0,069331074577166182 0,18552886878867689 -0,066546354878141659 -0,010670590184036927 0,1851418848970888 1,1418373961533363 0,069867278978735084 -0,098027406001922432 -0,020670645629246701 1,0000000180025095e-35
decision_type=2 2 2 2 2 2 2 2 2 2 2 2 2 2 2 2
left_child=1 3 4 6 -3 -2 7 -1 9 -5 -4 -10 13 -11 -6 -9
right_child=5 2 10 8 14 -7 -8 15 11 12 -12 -13 -14 -15 -16 -17
leaf_value=-0,0013913074612732239 -0,0026100180319747466 0,0022120629977060314 -0,0016865860495109807 -0,0018646938321843344 0 -0,0020188326019893142 0,0013704462928705171 0,00041530949962276345 -0,0024451690603895485 0,00092000303017026935 0 -0 -0 0 -0,00038041970201107948 0
leaf_count=8 3797 53 17 29 1 260 8 3 112 5 1 3 5 2 3 4
internal_value=0 -0,665354 0,727035 -1,2741 1,38125 -1,79976 0,0716299 -0,292221 -1,49501 -0,782223 -1,03393 -1,68092 0,235012 0,526181 -0 0,192069
internal_count=4311 254 75 179 57 4057 23 15 156 41 18 115 12 7 4 7
shrinkage=0.00143103


Tree=7
num_leaves=24
num_cat=0
split_feature=25 17 20 21 26 22 21 12 20 6 12 25 6 6 7 17 24 24 20 17 24 12 12
split_gain=68,1552 46,0669 17,6603 11,3856 5,43615 4,51332 3,12194 2,17693 1,75683 1,59996 1,55987 1,47818 1,54736 1,43952 1,06082 0,848763 0,728388 0,621447 0,425839 0,400223 0,228338 0,0980888 0,410674
threshold=-1,6214938204599676 0,034632268275868676 -0,55559103735501281 2,9043772609885647 -0,35568359097185087 1,0000000180025095e-35 -0,14850035643133316 -0,56074000000429358 -0,82586911533261165 -0,44502585702955877 -1,4233993152032769 -2,8692401485738857 -0,025480410646257546 -4,2372988877406934 0,34544980450373136 0,024983140470084306 -1,0000000180025095e-35 1,1418430774143047 -3,4445003923775404 0,024140249370810073 1,0000000180025095e-35 -1,1267086932861987 -0,40543023428256292
decision_type=2 2 2 2 2 2 2 2 2 2 2 2 2 2 2 2 2 2 2 2 2 2 2
left_child=1 4 3 8 13 -2 7 -4 17 18 -10 21 -13 15 -5 -1 -9 -3 -6 -15 -12 -8 -23
right_child=5 2 6 14 9 -7 11 16 10 -11 20 12 -14 19 -16 -17 -18 -19 -20 -21 -22 22 -24
leaf_value=-0,0011652137854730059 -0,0026188543747771779 0,0018474853046741913 0,0011154066713563347 -0,0014536971589459951 -0 -0,0020029380404814334 -0,0003396219476997497 0 -0,00063395019712180855 0 0 -0,0017758432806263438 0 0,00071684812957254829 0 0 -0,0010711303754709633 0 -0,0024301854343926942 -0 0,0010726430263391662 0,00065000462050525257 -0
leaf_count=10 3780 51 6 9 3 260 3 1 4 2 2 30 1 4 1 1 6 2 120 3 6 4 2
internal_value=0 -0,7231 0,122835 0,757253 -1,49097 -1,80161 -0,694774 0 1,08904 -1,643 0 -0,953933 -1,14603 -0,148727 -0,807117 -0,624577 -0,492304 1,24866 -1,67108 0,190309 0,624921 -0 0
internal_count=4311 271 128 75 143 4040 53 13 65 125 12 40 31 18 10 11 7 53 123 7 8 9 6
shrinkage=0.00143349


Tree=8
num_leaves=20
num_cat=0
split_feature=5 16 12 20 20 22 16 26 20 7 16 24 16 24 23 26 20 23 23
split_gain=69,4465 54,7911 23,9882 14,7494 4,84719 3,55793 1,46668 6,13782 1,95842 1,39193 1,1978 0,98511 0,896768 0,254928 0,46425 0,118216 0,000649751 4,92232e-05 0,119059
threshold=-1,7001623427422921 0,094785121243411055 -0,60807508877528382 -3,4445003923775404 -0,068834124808039784 1,0000000180025095e-35 0,027902946816194287 -0,066546354878141659 -0,82586911533261165 0,1851418848970888 -0,0064936683139632566 1,0000000180025095e-35 0,087691929166530472 -1,2935178056557353 0,72701874667178579 -0,020670645629246701 -1,0384429926844152 0,19548076373278658 -0,32650313613067655
decision_type=2 2 2 2 2 2 2 2 2 2 2 2 2 2 2 2 2 2 2
left_child=1 3 4 10 -3 -2 -5 11 16 -4 13 -8 -13 17 -15 -6 -9 18 -1
right_child=5 2 9 6 15 -7 7 8 -10 -11 -12 12 -14 14 -16 -17 -18 -19 -20
leaf_value=0 -0,0025851012825003207 0,0021999425062267657 -0,0016738764519630561 -0,002359249425721968 0 -0,0019984540697651591 -0 -0 -0,0020337576237481228 0 0,0009055311818960425 0,0012621253645872352 -0 -0,0007531611377892542 0 -0,00037315909704976804 2,98832376153874e-05 8,2230891992280166e-06 -0,00037448253381385665
leaf_count=2 3797 53 17 120 1 260 2 2 22 1 8 7 1 7 1 3 2 2 3
internal_value=0 -0,65665 0,721031 -1,25948 1,36938 -1,77703 -1,47816 -0,717574 -1,21525 -1,02194 0,06953 0,26363 0,639992 -0,0888952 -0,31229 -0 0 0 -0
internal_count=4311 254 75 179 57 4057 156 36 26 18 23 10 8 15 8 4 4 7 5
shrinkage=0.00143546


Tree=9
num_leaves=15
num_cat=0
split_feature=5 16 12 26 16 17 22 7 17 16 24 17 12 17
split_gain=67,5724 53,2639 23,3757 11,5578 9,55122 3,7108 3,46517 1,37176 1,30617 1,13617 0,514662 0,375455 0,323379 0,0864647
threshold=-1,7001623427422921 0,094785121243411055 -0,60807508877528382 -0,066546354878141659 -0,010670590184036927 0,00059152511640026852 1,0000000180025095e-35 0,1851418848970888 0,03689179055780855 0,087691929166530472 1,1418373961533363 0,10686346026264548 -0,70861850539367299 0,12426222006007716
decision_type=2 2 2 2 2 2 2 2 2 2 2 2 2 2
left_child=1 3 5 4 11 -3 -2 -4 -6 -10 -5 -1 -7 -13
right_child=6 2 7 10 8 12 -8 -9 9 -11 -12 13 -14 -15
leaf_value=-0,0015081332405115133 -0,0026197723220053393 -0 -0,0016982282803016118 -0,0024202202013818282 -0 0,0022244997029269987 -0,0020236354311602826 0 0,0014889807504608497 -0 -0 0 0 -0,00032784696988447023
leaf_count=37 3797 2 17 115 5 52 260 1 13 1 3 2 3 3
internal_value=0 -0,64826 0,710473 -1,24322 -0,406061 1,35157 -1,75467 -1,00912 0,574264 0,843808 -1,61716 -0,949398 1,46352 -0
internal_count=4311 254 75 179 61 57 4057 18 19 14 118 42 55 5
shrinkage=0.00147318


Tree=10
num_leaves=18
num_cat=0
split_feature=5 16 12 20 20 22 17 23 7 16 26 20 24 16 26 24 20
split_gain=67,7131 53,4068 23,4219 14,5959 4,78485 3,47005 2,98375 2,46846 1,37307 1,36685 5,97531 1,91689 0,958515 0,880009 0,118323 0,0432326 0,000618928
threshold=-1,7001623427422921 0,094785121243411055 -0,60807508877528382 -3,4445003923775404 -0,068834124808039784 1,0000000180025095e-35 0,069331074577166182 0,18552886878867689 0,1851418848970888 0,027902946816194287 -0,066546354878141659 -0,82586911533261165 1,0000000180025095e-35 0,087691929166530472 -0,020670645629246701 1,0000000180025095e-35 -1,0384429926844152
decision_type=2 2 2 2 2 2 2 2 2 2 2 2 2 2 2 2 2
left_child=1 3 4 6 -3 -2 7 -1 -4 -5 12 16 -11 -14 -6 -9 -12
right_child=5 2 8 9 14 -7 -8 15 -10 10 11 -13 13 -15 -16 -17 -18
leaf_value=-0,0011593166409370323 -0,002165959832172837 0,001844202537612773 -0,001403644986827446 -0,0019778455881180219 0 -0,0016732691798921047 0,0011468623956479398 0,00035839868226759822 0 -0 -0 -0,0017066469155880596 0,0010543176006924482 -0 -0,00031643869310064339 0 2,4721179919502093e-05
leaf_count=8 3797 53 17 120 1 260 8 3 1 2 2 22 7 1 3 4 2
internal_value=0 -0,649065 0,711436 -1,24476 1,35303 -1,75651 0,0763256 -0,275847 -1,00995 -1,46271 -0,711676 -1,20302 0,253456 0,628248 -0 0,19874 0
internal_count=4311 254 75 179 57 4057 23 15 18 156 36 26 10 8 4 7 4
shrinkage=0.00121672


Tree=11
num_leaves=21
num_cat=0
split_feature=5 17 20 21 20 12 26 17 12 22 7 27 5 27 20 6 17 17 27 17
split_gain=65,8408 43,2754 14,2169 6,94867 5,4094 7,55807 4,58813 3,85395 3,4986 3,38663 0,993746 0,856514 0,817983 0,753082 0,503113 0,334347 0,135143 0,133521 0,0739203 0,300038
threshold=-1,7001623427422921 0,027343517447649974 -0,068834124808039784 2,9043772609885647 -0,82586911533261165 -1,1775192371580612 -0,35568359097185087 0,034632268275868676 -0,60807508877528382 1,0000000180025095e-35 0,34544980450373136 -0,095159544320205139 -2,9604031907431847 -0,095141519478078446 -1,2076366810212307 -0,025480410646257546 0,040224613331182338 0,03904412709190079 0,61013296485061763 0,031010214065434697
decision_type=2 2 2 2 2 2 2 2 2 2 2 2 2 2 2 2 2 2 2 2
left_child=1 6 3 4 7 -6 14 18 12 -2 -5 -4 -7 -9 -1 -10 -13 -14 19 -3
right_child=9 2 11 10 5 8 -8 13 15 -11 -12 16 17 -15 -16 -17 -18 -19 -20 -21
leaf_value=-0,00052341554988670903 -0,0025161667934577949 0 0 -0,0014045318301392372 -0,0012608256933584318 -0 -0,00236240597045941 -0 -0,00064510997060728827 -0,001941903660236306 0 -0 0 0,0017798358214986846 0 0 -0,0019188320602794373 0,0018253464476116286 0 -0,0006200512019187437
leaf_count=14 3797 1 2 9 16 2 105 2 4 260 1 3 3 50 2 1 18 16 1 4
internal_value=0 -0,640598 0,12418 0,456501 0,64434 0 -1,49251 1,0233 0,704498 -1,73402 -0,780283 -1,14701 1,07116 1,19841 -0,13931 -0,177999 -1,24849 1,17898 -0 -0,181585
internal_count=4311 254 133 110 100 42 121 58 26 4057 10 23 21 52 16 5 21 19 6 5
shrinkage=0.00143169


Tree=12
num_leaves=17
num_cat=0
split_feature=5 16 12 26 16 23 17 22 23 7 17 24 12 26 17 23
split_gain=64,0937 50,8786 22,3801 10,9719 9,17821 5,78845 3,58425 3,31682 2,39887 1,33519 1,08516 0,498714 0,295775 0,123332 0,0800347 0,0498105
threshold=-1,7001623427422921 0,094785121243411055 -0,60807508877528382 -0,066546354878141659 -0,010670590184036927 0,19548076373278658 0,00059152511640026852 1,0000000180025095e-35 0,68118864541544444 0,1851418848970888 0,10686346026264548 1,1418373961533363 -0,70861850539367299 -0,14077976038355008 0,12426222006007716 0,39080022707407752
decision_type=2 2 2 2 2 2 2 2 2 2 2 2 2 2 2 2
left_child=1 3 6 4 5 10 -3 -2 -6 -4 -1 -5 -8 -10 -12 -7
right_child=7 2 9 11 8 15 12 -9 13 -11 14 -13 -14 -15 -16 -17
leaf_value=-0,0023736820399149899 -0,0029368395807589784 -0 -0,0019085153774107272 -0,0027178716184973711 0,0016850843149606427 0 0,0025038355824428386 -0,0022641662121623911 0 0 0 -0 0 -0,00044903453378800404 -0,0003622268245449731 0,00056413222530095515
leaf_count=30 3797 2 17 115 13 4 52 260 3 1 2 3 3 3 3 3
internal_value=0 -0,633109 0,6957 -1,21588 -0,397197 -0,931093 1,32472 -1,71325 0,561883 -0,985714 -1,267 -1,58177 1,43519 -0,00041976 -0 0,229446
internal_count=4311 254 75 179 61 42 57 4057 19 18 35 118 55 6 5 7
shrinkage=0.00169122


Tree=13
num_leaves=19
num_cat=0
split_feature=5 16 12 20 20 22 7 26 16 16 24 16 24 23 26 26 23 23
split_gain=66,7738 53,1344 23,2845 14,4478 4,72655 3,42747 1,36524 1,30698 7,02283 1,12983 0,585954 0,527422 0,239803 0,450628 0,159093 0,110225 0,000297924 0,112872
threshold=-1,7001623427422921 0,094785121243411055 -0,60807508877528382 -3,4445003923775404 -0,068834124808039784 1,0000000180025095e-35 0,1851418848970888 -0,066546354878141659 -0,010670590184036927 -0,0064936683139632566 1,1418373961533363 0,069867278978735084 -1,2935178056557353 0,72701874667178579 -0,098027406001922432 -0,020670645629246701 0,19548076373278658 -0,32650313613067655
decision_type=2 2 2 2 2 2 2 2 2 2 2 2 2 2 2 2 2 2
left_child=1 3 4 9 -3 -2 -4 8 -5 12 -9 14 16 -14 -10 -6 17 -1
right_child=5 2 6 7 15 -7 -8 10 11 -11 -12 -13 13 -15 -16 -17 -18 -19
leaf_value=0 -0,0020385239159531727 0,0017425938674617541 -0,0013230410073488954 -0,0014690308852862643 0 -0,0015741843321772512 0 -0,0019174516061355917 0,00072661367722680293 0,00071069765442553572 -0 -0 -0,0005883184538928673 0 0 -0,00028922529153945761 1,6236769860091433e-05 -0,00029265981021089411
leaf_count=2 3797 53 17 29 1 260 1 112 5 8 3 5 7 1 2 3 2 3
internal_value=0 -0,645678 0,711439 -1,24013 1,35121 -1,74597 -1,00496 -1,45707 -0,763815 0,073647 -1,63714 0,227952 -0,0741554 -0,297845 0,517287 -0 0 -0
internal_count=4311 254 75 179 57 4057 18 156 41 23 115 12 15 8 7 4 7 5
shrinkage=0.00115202


Tree=14
num_leaves=18
num_cat=0
split_feature=5 16 20 20 22 17 13 23 16 26 20 24 16 24 20 24 20
split_gain=64,0174 50,7979 20,1078 14,0052 3,31052 2,85909 2,47562 2,40499 1,29849 5,70392 1,82109 0,929738 0,854742 0,610779 0,190783 0,0432306 0,000407959
threshold=-1,7001623427422921 0,094785121243411055 -0,068834124808039784 -3,4445003923775404 1,0000000180025095e-35 0,069331074577166182 -0,70608562863758439 0,18552886878867689 0,027902946816194287 -0,066546354878141659 -0,82586911533261165 1,0000000180025095e-35 0,087691929166530472 -1,2935156495438096 -0,17510782312045467 1,0000000180025095e-35 -1,0384429926844152
decision_type=2 2 2 2 2 2 2 2 2 2 2 2 2 2 2 2 2
left_child=1 3 6 5 -2 7 14 -1 -5 11 16 -10 -13 -4 -3 -9 -11
right_child=4 2 13 8 -6 -7 -8 15 9 10 -12 12 -14 -15 -16 -17 -18
leaf_value=-0,001247196814234317 -0,0023101835379205145 0,001876390304355084 0 -0,0021154874782838137 -0,0017810150852586987 0,0012324334964170735 -0 0,00039331845502266032 -0 -0 -0,0018215534817666624 0,0011351379901878573 -0 -0,0014065214868152866 0 0 2,1958304278250141e-05
leaf_count=8 3797 52 2 120 260 8 3 3 2 2 22 7 1 15 3 4 2
internal_value=0 -0,632592 0,695175 -1,21495 -1,71216 0,0763571 1,27291 -0,264914 -1,42925 -0,690689 -1,17308 0,246423 0,617399 -0,945082 1,36838 0,199595 0
internal_count=4311 254 75 179 4057 23 58 15 156 36 26 10 8 17 55 7 4
shrinkage=0.00133119


Tree=15
num_leaves=17
num_cat=0
split_feature=5 16 12 26 16 23 17 22 23 7 17 24 12 26 17 23
split_gain=62,7572 49,7253 21,9888 10,7984 8,9613 5,69515 3,53314 3,26476 2,36322 1,32389 1,06021 0,493899 0,268447 0,120592 0,0779654 0,0495831
threshold=-1,7001623427422921 0,094785121243411055 -0,60807508877528382 -0,066546354878141659 -0,010670590184036927 0,19548076373278658 0,00059152511640026852 1,0000000180025095e-35 0,68118864541544444 0,1851418848970888 0,10686346026264548 1,1418373961533363 -0,70861850539367299 -0,14077976038355008 0,12426222006007716 0,39080022707407752
decision_type=2 2 2 2 2 2 2 2 2 2 2 2 2 2 2 2
left_child=1 3 6 4 5 10 -3 -2 -6 -4 -1 -5 -8 -10 -12 -7
right_child=7 2 9 11 8 15 12 -9 13 -11 14 -13 -14 -15 -16 -17
leaf_value=-0,0018995907842688379 -0,0023529964667537246 -0 -0,001533745334845061 -0,0021781271014943188 0,0013514148452899251 0 0,0020065388453814285 -0,0018123354909662774 0 0 0 -0 0 -0,00035924373786312631 -0,00028927522920953809 0,00045559044664784465
leaf_count=30 3797 2 17 115 13 4 52 260 3 1 2 3 3 3 3 3
internal_value=0 -0,626535 0,68756 -1,20331 -0,390602 -0,919124 1,3121 -1,69657 0,555856 -0,978434 -1,2532 -1,56677 1,42208 -0 -0 0,229079
internal_count=4311 254 75 179 61 42 57 4057 19 18 35 118 55 6 5 7
shrinkage=0.00136825


Tree=16
num_leaves=17
num_cat=0
split_feature=5 16 12 20 20 22 17 23 16 20 7 16 20 17 20 16
split_gain=65,0189 51,602 22,5845 14,119 4,66528 3,34453 2,91091 2,3685 1,34484 5,22903 1,33969 0,355112 0,0741172 0,0415157 0,0167647 0,0168238
threshold=-1,7001623427422921 0,094785121243411055 -0,60807508877528382 -3,4445003923775404 -0,068834124808039784 1,0000000180025095e-35 0,069331074577166182 0,18552886878867689 0,027902946816194287 -0,12509455204329264 0,1851418848970888 0,061773357891184148 -0,82586911533261165 0,024983140470084306 -1,4410339028282155 0,084781017797875904
decision_type=2 2 2 2 2 2 2 2 2 2 2 2 2 2 2 2
left_child=1 3 4 6 -3 -2 7 -1 -5 11 -4 12 -10 -9 -13 -16
right_child=5 2 10 8 -6 -7 -8 13 9 -11 -12 14 -14 -15 15 -17
leaf_value=-0,0010318994624453233 -0,0019260234833311347 0,0016457515689996855 -0,0012470296156242525 -0,0017630316268936804 -0 -0,0014859179831630963 0,0010262282789016252 0 0,00042899358458767858 -0,0014615501864349005 0 0 0 0,00030817212020195787 -0,00024265069517290729 -0
leaf_count=8 3797 53 17 120 4 260 8 4 6 19 1 2 4 3 3 2
internal_value=0 -0,637047 0,700923 -1,22358 1,33213 -1,7242 0,0736566 -0,272248 -1,43846 -0,694926 -0,988609 0 0,295144 0,186167 -0,136322 -0,173722
internal_count=4311 254 75 179 57 4057 23 15 156 36 18 17 10 7 7 5
shrinkage=0.00110212


Tree=17
num_leaves=16
num_cat=0
split_feature=5 16 12 20 20 22 17 23 7 16 20 24 20 24 20
split_gain=62,98 49,9033 22,0183 13,8465 4,5557 3,26834 2,84388 2,36887 1,32383 1,25542 5,08868 1,85004 0,439643 0,0472296 3,33921e-06
threshold=-1,7001623427422921 0,094785121243411055 -0,60807508877528382 -3,4445003923775404 -0,068834124808039784 1,0000000180025095e-35 0,069331074577166182 0,18552886878867689 0,1851418848970888 0,027902946816194287 -0,12509455204329264 1,0000000180025095e-35 -0,82586911533261165 1,0000000180025095e-35 -0,69786629862263783
decision_type=2 2 2 2 2 2 2 2 2 2 2 2 2 2 2
left_child=1 3 4 6 -3 -2 7 -1 -4 -5 11 -11 -13 -9 -14
right_child=5 2 8 9 -6 -7 -8 13 -10 10 -12 12 14 -15 -16
leaf_value=-0,0017228064675133211 -0,0031908350369667829 0,0027292632710744949 -0,0020765124626555597 -0,0029219171588582859 -0 -0,0024582272697628205 0,0017131148123592415 0,00054863739218818095 0 -0,001127486406407038 -0,0024247633457503562 0,0014160470368330439 -0 0 2,3963739519691655e-06
leaf_count=8 3797 53 17 120 4 260 8 3 1 5 19 6 2 4 4
internal_value=0 -0,627541 0,688838 -1,20524 1,31359 -1,69927 0,0779097 -0,262053 -0,978396 -1,41864 -0,685284 0 0,505531 0,196583 0
internal_count=4311 254 75 179 57 4057 23 15 18 156 36 17 12 7 6
shrinkage=0.00185253


Tree=18
num_leaves=18
num_cat=0
split_feature=5 16 12 20 20 22 17 23 6 16 26 20 24 16 26 24 20
split_gain=61,5621 48,6819 21,5244 13,5825 4,48256 3,2217 2,78906 2,33432 1,30725 1,22224 5,5269 1,78455 0,914769 0,838519 0,107853 0,0466543 0,000398031
threshold=-1,7001623427422921 0,094785121243411055 -0,60807508877528382 -3,4445003923775404 -0,068834124808039784 1,0000000180025095e-35 0,069331074577166182 0,18552886878867689 -0,025480410646257546 0,027902946816194287 -0,066546354878141659 -0,82586911533261165 1,0000000180025095e-35 0,087691929166530472 -0,020670645629246701 1,0000000180025095e-35 -1,0384429926844152
decision_type=2 2 2 2 2 2 2 2 2 2 2 2 2 2 2 2 2
left_child=1 3 4 6 -3 -2 7 -1 -4 -5 12 16 -11 -14 -6 -9 -12
right_child=5 2 8 9 14 -7 -8 15 -10 10 11 -13 13 -15 -16 -17 -18
leaf_value=-0,0012891677031651226 -0,0023832933520472666 0,0020380543840277346 -0,0015515733094849514 -0,0021824600060305634 0 -0,0018339793317075702 0,0012819990002045964 0,00041171919285899945 0 -0 -0 -0,0018827795098862879 0,0011808617106146278 -0 -0,00034721042351682413 0 2,2779073003874698e-05
leaf_count=8 3797 53 17 120 1 260 8 3 1 2 2 22 7 1 3 4 2
internal_value=0 -0,620734 0,680072 -1,19201 1,29894 -1,68172 0,0775501 -0,257511 -0,96769 -1,40379 -0,676199 -1,15286 0,242221 0,611497 -0 0,19553 0
internal_count=4311 254 75 179 57 4057 23 15 18 156 36 26 10 8 4 7 4
shrinkage=0.00139803


Tree=19
num_leaves=22
num_cat=0
split_feature=5 17 20 21 20 12 26 17 12 23 23 25 7 27 24 6 17 23 17 25 17
split_gain=60,0441 39,6864 13,1063 6,41751 5,03835 6,73965 4,31836 3,58589 3,19036 2,55047 2,08359 1,43848 0,917594 0,844536 0,812262 0,310271 0,168896 0,134803 0,132462 0,0603487 0,269236
threshold=-1,7001623427422921 0,027343517447649974 -0,068834124808039784 2,9043772609885647 -0,82586911533261165 -1,1775192371580612 -0,35568359097185087 0,034632268275868676 -0,60807508877528382 0,19548076373278658 1,7462030438583651 -1,3828687661409691 0,34544980450373136 -0,095159544320205139 -1,293523000396722 -0,025480410646257546 0,03904412709190079 0,39080022707407752 0,040224613331182338 -2,8692401485738857 0,031010214065434697
decision_type=2 2 2 2 2 2 2 2 2 2 2 2 2 2 2 2 2 2 2 2 2
left_child=1 6 3 4 7 -6 9 19 14 -1 -8 -9 -5 -4 -7 -10 -16 -11 -15 -3 -21
right_child=-2 2 13 12 5 8 10 11 15 17 -12 -13 -14 18 16 -17 -18 -19 -20 20 -22
leaf_value=-0,0015681941610951385 -0,0029849726243548055 0 0 -0,0016861937999223869 -0,0014966706690333034 -0 -0,0029059750519201222 0,0021779416762395475 -0,00076935077216110299 0 0 -0 0 -0 0 0 0,0021992550264361278 0,00088115253081876563 -0,0023208384139871991 0 -0,00073089313778785451
leaf_count=8 4057 1 2 9 16 2 104 51 4 4 1 1 1 3 3 1 16 4 18 1 4
internal_value=0 -0,61333 0,119376 0,440517 0,622428 0 -1,43331 0,988897 0,667112 -0,117696 -1,58693 1,15831 -0,745159 -1,1022 1,02067 -0,158093 1,12917 0,339809 -1,20366 -0 -0,164327
internal_count=4311 254 133 110 100 42 121 58 26 16 105 52 10 23 21 5 19 8 21 6 5
shrinkage=0.00179515


Tree=20
num_leaves=17
num_cat=0
split_feature=5 16 12 20 20 22 17 23 6 16 26 20 16 26 17 20
split_gain=60,8817 48,4947 21,4219 13,4593 4,43063 3,42344 2,71041 2,2909 1,30117 1,2389 5,50962 1,73716 0,607115 0,100403 0,0380258 0,000159214
threshold=-1,7001623427422921 0,094785121243411055 -0,60807508877528382 -3,4445003923775404 -0,068834124808039784 1,0000000180025095e-35 0,069331074577166182 0,18552886878867689 -0,025480410646257546 0,027902946816194287 -0,066546354878141659 -0,82586911533261165 0,069867278978735084 -0,020670645629246701 0,024983140470084306 -1,0384429926844152
decision_type=2 2 2 2 2 2 2 2 2 2 2 2 2 2 2 2
left_child=1 3 4 6 -3 -2 7 -1 -4 -5 12 15 -11 -6 -9 -12
right_child=5 2 8 9 13 -7 -8 14 -10 10 11 -13 -14 -15 -16 -17
leaf_value=-0,0010167900897758376 -0,0018899546637747367 0,0016207725355504284 -0,0012313900639131805 -0,001733865582688872 0 -0,0014483603642294028 0,0010072664564146259 0 0 0,00067132992426158916 -0 -0,0014922612450520381 -0 -0,00026690796089979911 0,00031536285614096527 1,1475211877838013e-05
leaf_count=8 3797 53 17 120 1 260 8 4 1 5 2 22 5 3 3 2
internal_value=0 -0,61816 0,680276 -1,18869 1,29774 -1,67386 0,0749711 -0,252978 -0,963743 -1,39957 -0,671988 -1,14862 0,244519 -0 0,192897 0
internal_count=4311 254 75 179 57 4057 23 15 18 156 36 26 10 4 7 4
shrinkage=0.00111361


Tree=21
num_leaves=16
num_cat=0
split_feature=25 16 12 20 21 6 22 20 21 25 26 23 16 7 26
split_gain=56,7793 48,7335 19,9962 13,3885 5,69799 4,1177 4,10802 2,64859 2,19932 1,9187 1,38525 1,03886 0,486656 0,109003 0,00425176
threshold=-1,6214938204599676 0,094785121243411055 -0,60807508877528382 -2,2156711775921996 2,9043772609885647 -2,2614313290475532 1,0000000180025095e-35 -0,16419983947283409 -0,1576238926930455 -1,7552944827810351 -0,14077976038355008 0,19548076373278658 0,057093602495090476 -0,036919871664943239 -0,0078563544986379342
decision_type=2 2 2 2 2 2 2 2 2 2 2 2 2 2 2
left_child=1 3 7 4 5 10 -2 -3 -5 13 -1 -6 -7 -4 -11
right_child=6 2 9 8 11 12 -8 -9 -10 14 -12 -13 -14 -15 -16
leaf_value=0,0017783390945675904 -0,0023548199394304707 0,0020015420098246322 -0,0016651995881869521 0 -0,0015540092876225652 -0,0008067024647088445 -0,0017798111014861774 0 -0,0020643512589578433 -0 -0 0 0 -0 7,5080655068201851e-05
leaf_count=14 3780 50 14 1 12 5 260 6 157 1 1 4 1 3 2
internal_value=0 -0,655286 0,654683 -1,19083 -0 0,552993 -1,64913 1,28068 -1,44337 -0,842452 1,10482 -0,874529 -0,31606 -1,08585 0
internal_count=4311 271 76 195 37 21 4040 56 158 20 15 16 6 17 3
shrinkage=0.00140724


Tree=22
num_leaves=17
num_cat=0
split_feature=5 16 12 26 16 23 17 22 23 7 17 24 12 26 17 23
split_gain=57,5369 45,4941 20,2447 10,1087 8,43718 5,34527 3,32389 3,31498 2,2285 1,26035 0,976583 0,511915 0,258338 0,0992044 0,0613551 0,050276
threshold=-1,7001623427422921 0,094785121243411055 -0,60807508877528382 -0,066546354878141659 -0,010670590184036927 0,19548076373278658 0,00059152511640026852 1,0000000180025095e-35 0,68118864541544444 0,1851418848970888 0,10686346026264548 1,1418373961533363 -0,70861850539367299 -0,14077976038355008 0,12426222006007716 0,39080022707407752
decision_type=2 2 2 2 2 2 2 2 2 2 2 2 2 2 2 2
left_child=1 3 6 4 5 10 -3 -2 -6 -4 -1 -5 -8 -10 -12 -7
right_child=7 2 9 11 8 15 12 -9 13 -11 14 -13 -14 -15 -16 -17
leaf_value=-0,0020904792366104375 -0,0025796080634531491 -0 -0,0016828571492409187 -0,0023932159832775 0,0015094300855757418 0 0,002206188879059056 -0,0019700950161997328 0 0 0 -0 0 -0,000371753306919738 -0,00029299249065428153 0,00050267586869872391
leaf_count=30 3797 2 17 115 13 4 52 260 3 1 2 3 3 3 3 3
internal_value=0 -0,600101 0,659435 -1,15477 -0,365853 -0,882813 1,26283 -1,63029 0,549725 -0,937423 -1,20946 -1,50885 1,3707 -0 -0 0,218478
internal_count=4311 254 75 179 61 42 57 4057 19 18 35 118 55 6 5 7
shrinkage=0.00156029


Tree=23
num_leaves=16
num_cat=0
split_feature=5 16 12 20 20 17 7 16 26 20 24 16 16 26 20
split_gain=57,6579 45,1677 20,1379 12,8202 4,27922 2,6159 1,25965 1,24328 5,2224 1,76619 0,90242 0,823946 0,798043 0,103905 0,00113756
threshold=-1,7001623427422921 0,094785121243411055 -0,60807508877528382 -3,4445003923775404 -0,068834124808039784 0,069331074577166182 0,1851418848970888 0,027902946816194287 -0,066546354878141659 -0,82586911533261165 1,0000000180025095e-35 0,087691929166530472 0,021022783681610351 -0,020670645629246701 -1,0384429926844152
decision_type=2 2 2 2 2 2 2 2 2 2 2 2 2 2 2
left_child=1 3 4 5 -3 12 -4 -5 10 14 -9 -12 -1 -6 -10
right_child=-2 2 6 7 13 -7 -8 8 9 -11 11 -13 -14 -15 -16
leaf_value=-0,00079289501065143487 -0,0025665881083656236 0,0022249162040206788 -0,0016960780073349917 -0,0023842858814077592 0 0,0014044673904600046 0 -0 -0 -0,0020528538862254028 0,0013204016092660338 -0 0 -0,00038355421559827419 4,3346349230842996e-05
leaf_count=13 4057 53 17 120 1 8 1 2 2 22 7 1 2 3 2
internal_value=0 -0,600072 0,655144 -1,15272 1,25747 0,0772863 -0,936974 -1,35987 -0,642098 -1,1104 0,242893 0,608569 -0,242022 -0 0
internal_count=4311 254 75 179 57 23 18 156 36 26 10 8 15 4 4
shrinkage=0.00157325


Tree=24
num_leaves=18
num_cat=0
split_feature=5 16 12 20 20 22 17 23 7 16 26 20 24 16 26 24 20
split_gain=56,2556 44,1252 19,6987 12,5615 4,1939 3,38685 2,55222 2,17998 1,24294 1,20084 5,11777 1,71641 0,889218 0,812732 0,0990962 0,0531959 0,000890665
threshold=-1,7001623427422921 0,094785121243411055 -0,60807508877528382 -3,4445003923775404 -0,068834124808039784 1,0000000180025095e-35 0,069331074577166182 0,18552886878867689 0,1851418848970888 0,027902946816194287 -0,066546354878141659 -0,82586911533261165 1,0000000180025095e-35 0,087691929166530472 -0,020670645629246701 1,0000000180025095e-35 -1,0384429926844152
decision_type=2 2 2 2 2 2 2 2 2 2 2 2 2 2 2 2 2
left_child=1 3 4 6 -3 -2 7 -1 -4 -5 12 16 -11 -14 -6 -9 -12
right_child=5 2 8 9 14 -7 -8 15 -10 10 11 -13 13 -15 -16 -17 -18
leaf_value=-0,0014702754891276577 -0,0027123036546399491 0,0023214260635172164 -0,0017678599505118247 -0,0024860475666623437 0 -0,0020644694219248633 0,001463147577179149 0,00048935860233075934 0 -0 -0 -0,0021395301842579571 0,0013802749644242819 -0 -0,00039462337161733785 0 4,0399470851185153e-05
leaf_count=8 3797 53 17 120 1 260 8 3 1 2 2 22 7 1 3 4 2
internal_value=0 -0,593125 0,648384 -1,14031 1,24531 -1,61362 0,0760012 -0,237305 -0,925993 -1,34589 -0,634025 -1,0989 0,239509 0,60347 -0 0,190137 0
internal_count=4311 254 75 179 57 4057 23 15 18 156 36 26 10 8 4 7 4
shrinkage=0.00165721


Tree=25
num_leaves=19
num_cat=0
split_feature=25 16 12 20 7 22 6 23 17 25 6 26 27 23 16 17 26 26
split_gain=53,16 44,9422 18,5165 12,7018 4,14615 4,08589 3,62439 2,52191 2,20888 1,86541 1,48829 1,27249 0,829983 0,701112 0,459464 0,181713 0,461288 0,00555677
threshold=-1,6214938204599676 0,094785121243411055 -0,60807508877528382 -2,2156711775921996 -3,4979073624177874 1,0000000180025095e-35 -2,2614313290475532 1,0865262435143848 0,038125031022904828 -1,7552944827810351 -0,50839288710570829 -0,14077976038355008 -0,095192151994468552 0,19548076373278658 0,057093602495090476 0,040224613331182338 -0,014304958080298405 -0,0078563544986379342
decision_type=2 2 2 2 2 2 2 2 2 2 2 2 2 2 2 2 2 2
left_child=1 3 7 4 13 -2 11 8 -3 12 -5 -6 -4 -1 -8 16 -9 -11
right_child=5 2 9 10 6 -7 14 15 -10 17 -12 -13 -14 -15 -16 -17 -18 -19
leaf_value=-0,0017432016389546717 -0,0031532497893248007 -0 0 -0,0027566753306992155 0,0023485321323070268 -0,0023670238937506306 -0,0010620621603544666 0,0010429255497224476 0,0029290868106872053 -0 0 -0 -0,0023012638684248472 0 0 -6,2139551825957239e-05 -0 0,00011863923515952262
leaf_count=13 3780 1 2 156 13 260 5 5 45 1 2 1 15 4 1 2 3 2
internal_value=0 -0,631296 0,629807 -1,14838 -0 -1,5981 0,497645 1,23659 1,42968 -0,809178 -1,39596 1,04639 -1,05241 -0,717335 -0,28832 0 0,246636 0
internal_count=4311 271 76 195 37 4040 20 56 46 20 158 14 17 17 6 10 8 3
shrinkage=0.00194381


Tree=26
num_leaves=16
num_cat=0
split_feature=25 16 12 20 21 22 6 20 21 25 26 23 27 16 26
split_gain=51,9891 43,7749 18,0686 12,3664 5,32014 4,05453 3,83627 2,47317 2,11169 1,83679 1,31223 0,958565 0,815331 0,454515 0,00550181
threshold=-1,6214938204599676 0,094785121243411055 -0,60807508877528382 -2,2156711775921996 2,9043772609885647 1,0000000180025095e-35 -2,2614313290475532 -0,16419983947283409 -0,1576238926930455 -1,7552944827810351 -0,14077976038355008 0,19548076373278658 -0,095192151994468552 0,057093602495090476 -0,0078563544986379342
decision_type=2 2 2 2 2 2 2 2 2 2 2 2 2 2 2
left_child=1 3 7 4 6 -2 10 -3 -5 12 -1 -6 -4 -8 -11
right_child=5 2 9 8 11 -7 13 -9 -10 14 -12 -13 -14 -15 -16
leaf_value=0,0015252910315831875 -0,0019872751281108676 0,0016836677175775154 0 0 -0,0013130565570188745 -0,0014889456589262861 -0,00067084209805951076 -0 -0,0017373884550854924 -0 -0 0 -0,0014503157838995403 0 7,5147816667156552e-05
leaf_count=14 3780 50 2 1 12 260 5 6 157 1 1 4 15 1 2
internal_value=0 -0,624081 0,621581 -1,13535 -0 -1,58198 0,54512 1,22248 -1,38034 -0,799352 1,07799 -0,839235 -1,04151 -0,28439 0
internal_count=4311 271 76 195 37 4040 21 56 158 20 15 16 17 6 3
shrinkage=0.00123739


Tree=27
num_leaves=19
num_cat=0
split_feature=5 16 12 20 20 22 17 16 26 20 7 24 16 16 27 26 24 20
split_gain=52,7225 40,8504 18,3781 11,7463 3,98162 3,30424 2,38103 1,28539 4,89785 1,70585 1,19361 0,896342 0,806018 0,746381 0,138854 0,0922243 0,0170114 0,00220339
threshold=-1,7001623427422921 0,094785121243411055 -0,60807508877528382 -3,4445003923775404 -0,068834124808039784 1,0000000180025095e-35 0,069331074577166182 0,027902946816194287 -0,066546354878141659 -0,82586911533261165 0,1851418848970888 1,0000000180025095e-35 0,087691929166530472 0,021022783681610351 -0,09517960875317856 -0,020670645629246701 -1,2935178056557353 -1,0384429926844152
decision_type=2 2 2 2 2 2 2 2 2 2 2 2 2 2 2 2 2 2
left_child=1 3 4 6 -3 -2 13 -5 11 17 14 -9 -13 16 -4 -6 -1 -10
right_child=5 2 10 7 15 -7 -8 8 9 -11 -12 12 -14 -15 -16 -17 -18 -19
leaf_value=-0 -0,0028967274455969894 0,002479986797264988 -0 -0,0026554313622839366 0 -0,002193455001807744 0,001559822786019071 -0 -0 -0,0022814858305431713 0 0,0015284372301143552 -0 0 -0,0020624968008736257 -0,00041912496402314435 -0,0010580407961065582 6,9957402173003268e-05
leaf_count=5 3797 53 3 120 1 260 8 2 2 22 1 7 1 2 14 3 8 2
internal_value=0 -0,5719 0,625785 -1,10136 1,20663 -1,56533 0,0710645 -1,30187 -0,595598 -1,0572 -0,893936 0,252494 0,611702 -0,2258 -1,03376 -0 -0,483466 0
internal_count=4311 254 75 179 57 4057 23 156 36 26 18 10 8 15 17 4 13 4
shrinkage=0.00182391


Tree=28
num_leaves=16
num_cat=0
split_feature=5 16 12 20 20 22 16 24 23 7 23 24 17 23 26
split_gain=52,7849 40,9235 18,4324 11,696 3,96417 3,29376 1,77549 1,84806 2,12308 1,19662 0,714372 0,454034 0,293523 0,783107 0,0910546
threshold=-1,7001623427422921 0,094785121243411055 -0,60807508877528382 -2,2156711775921996 -0,068834124808039784 1,0000000180025095e-35 0,021022783681610351 -1,293523000396722 0,52906692039578784 0,1851418848970888 0,71968371869418502 1,1418373961533363 0,069331074577166182 0,19548076373278658 -0,020670645629246701
decision_type=2 2 2 2 2 2 2 2 2 2 2 2 2 2 2
left_child=1 3 4 6 -3 -2 7 12 -9 -4 -8 -5 13 -1 -6
right_child=5 2 9 11 14 -7 10 8 -10 -11 -12 -13 -14 -15 -16
leaf_value=-0,00069615686228149476 -0,0021147393140619059 0,0018097045872191204 -0,0013781369559306151 -0,0018414950679035904 0 -0,0016019259554578501 0,0010500335562469449 -0,0013394815131199684 2,3788099874590853e-05 0 -0 -0 0,00051687801114148728 0,00041933334335047596 -0,00030380536119271553
leaf_count=5 3797 53 17 139 1 260 7 15 2 1 1 3 4 3 3
internal_value=0 -0,572719 0,625979 -1,10256 1,20766 -1,56661 -0 -0,311348 -0,71214 -0,895938 0,575473 -1,36478 0,039902 -0 -0
internal_count=4311 254 75 179 57 4057 37 29 17 18 8 142 12 8 4
shrinkage=0.00133047


Tree=29
num_leaves=17
num_cat=0
split_feature=5 16 12 20 20 22 16 24 23 7 23 24 17 23 27 26
split_gain=53,9741 41,6317 18,7437 12,1304 4,06398 3,11207 1,79071 1,85173 2,14275 1,21159 0,732418 0,41805 0,316839 0,80117 0,137099 0,101113
threshold=-1,7001623427422921 0,094785121243411055 -0,60807508877528382 -2,2156711775921996 -0,068834124808039784 1,0000000180025095e-35 0,021022783681610351 -1,293523000396722 0,52906692039578784 0,1851418848970888 0,71968371869418502 1,1418373961533363 0,069331074577166182 0,19548076373278658 -0,09517960875317856 -0,020670645629246701
decision_type=2 2 2 2 2 2 2 2 2 2 2 2 2 2 2 2
left_child=1 3 4 6 -3 -2 7 12 -9 14 -8 -5 13 -1 -4 -6
right_child=5 2 9 11 15 -7 10 8 -10 -11 -12 -13 -14 -15 -16 -17
leaf_value=-0,00067597643887903772 -0,0020488586196538419 0,0017475492525123257 -0 -0,001784256673786386 0 -0,0015606632722544934 0,0010229029932492919 -0,0012844640392829553 3,4987372696102884e-05 0 -0 -0 0,00051578548169028515 0,00040532997726469799 -0,001459325009122368 -0,00030700535653208614
leaf_count=5 3797 53 3 139 1 260 7 15 2 1 1 3 4 3 14 3
internal_value=0 -0,579375 0,628838 -1,11268 1,21455 -1,58257 -0 -0,30686 -0,709249 -0,905592 0,585831 -1,37886 0,0451791 -0 -1,04575 -0
internal_count=4311 254 75 179 57 4057 37 29 17 18 8 142 12 8 17 4
shrinkage=0.00127639


Tree=30
num_leaves=16
num_cat=0
split_feature=25 16 12 20 21 22 6 20 21 25 26 23 27 16 26
split_gain=53,2153 44,8351 18,4019 12,5982 5,43952 3,97768 3,88051 2,56423 2,12845 1,84217 1,33391 0,980272 0,799608 0,455312 0,00503517
threshold=-1,6214938204599676 0,094785121243411055 -0,60807508877528382 -2,2156711775921996 2,9043772609885647 1,0000000180025095e-35 -2,2614313290475532 -0,16419983947283409 -0,1576238926930455 -1,7552944827810351 -0,14077976038355008 0,19548076373278658 -0,095192151994468552 0,057093602495090476 -0,0078563544986379342
decision_type=2 2 2 2 2 2 2 2 2 2 2 2 2 2 2
left_child=1 3 7 4 6 -2 10 -3 -5 12 -1 -6 -4 -8 -11
right_child=5 2 9 8 11 -7 13 -9 -10 14 -12 -13 -14 -15 -16
leaf_value=0,001461555087972142 -0,0019128022116319699 0,0016185373843555049 0 0 -0,0012653695065274961 -0,0014387631693305778 -0,00064102921774402191 -0 -0,001671613023839668 -0 -0 0 -0,0013872931268708996 0 6,8455296601818309e-05
leaf_count=14 3780 50 2 1 12 260 5 6 157 1 1 4 15 1 2
internal_value=0 -0,631855 0,627971 -1,1481 -0 -1,59906 0,548777 1,23299 -1,39471 -0,806479 1,08402 -0,849672 -1,04811 -0,287125 0
internal_count=4311 271 76 195 37 4040 21 56 158 20 15 16 17 6 3
shrinkage=0.00117854


Tree=31
num_leaves=15
num_cat=0
split_feature=5 16 12 26 16 22 17 7 17 16 24 17 12 17
split_gain=54,3087 42,1946 18,9291 9,87594 7,98734 3,2485 3,19823 1,21592 1,12726 1,02229 0,547582 0,299168 0,279425 0,0483767
threshold=-1,7001623427422921 0,094785121243411055 -0,60807508877528382 -0,066546354878141659 -0,010670590184036927 1,0000000180025095e-35 0,00059152511640026852 0,1851418848970888 0,03689179055780855 0,087691929166530472 1,1418373961533363 0,10686346026264548 -0,70861850539367299 0,12426222006007716
decision_type=2 2 2 2 2 2 2 2 2 2 2 2 2 2
left_child=1 3 6 4 11 -2 -3 -4 -6 -10 -5 -1 -8 -13
right_child=5 2 7 10 8 -7 12 -9 9 -11 -12 13 -14 -15
leaf_value=-0,0011071756064310503 -0,0019512896396054113 -0 -0,0012708345728729719 -0,0018112683913719123 -0 -0,0014836508112671032 0,0016630159496112476 0 0,0011605175361066413 -0 -0 0 0 -0,00020233384119940285
leaf_count=37 3797 2 17 115 5 260 52 1 13 1 3 2 3 3
internal_value=0 -0,581784 0,634074 -1,11837 -0,339256 -1,58742 1,22177 -0,908468 0,548964 0,79837 -1,46949 -0,846955 1,32921 -0
internal_count=4311 254 75 179 61 4057 57 18 19 14 118 42 55 5
shrinkage=0.0012118


Tree=32
num_leaves=17
num_cat=0
split_feature=5 16 12 20 20 22 17 23 26 16 7 24 16 26 26 24
split_gain=58,4054 45,6323 20,1397 12,7833 4,33447 3,15322 2,62005 2,21301 1,50613 6,4804 1,25402 0,628411 0,524766 0,112271 0,110946 0,0502376
threshold=-1,7001623427422921 0,094785121243411055 -0,60807508877528382 -3,4445003923775404 -0,068834124808039784 1,0000000180025095e-35 0,069331074577166182 0,18552886878867689 -0,066546354878141659 -0,010670590184036927 0,1851418848970888 1,1418373961533363 0,069867278978735084 -0,098027406001922432 -0,020670645629246701 1,0000000180025095e-35
decision_type=2 2 2 2 2 2 2 2 2 2 2 2 2 2 2 2
left_child=1 3 4 6 -3 -2 7 -1 9 -5 -4 -10 13 -11 -6 -9
right_child=5 2 10 8 14 -7 -8 15 11 12 -12 -13 -14 -15 -16 -17
leaf_value=-0,00087453104693395673 -0,0016174089334121621 0,0013799958846568649 -0,0010454645975149419 -0,0011517807237980088 0 -0,0012400816132202529 0,00086498747774310257 0,00027824304199713441 -0,0015276075918276108 0,00061790548766658569 0 -0 -0 0 -0,00024503279590920384 0
leaf_count=8 3797 53 17 29 1 260 8 3 112 5 1 3 5 2 3 4
internal_value=0 -0,602695 0,65901 -1,15761 1,26069 -1,63984 0,0705261 -0,249097 -1,36409 -0,682556 -0,933775 -1,54316 0,259296 0,537909 -0 0,183856
internal_count=4311 254 75 179 57 4057 23 15 156 41 18 115 12 7 4 7
shrinkage=0.000972791


Tree=33
num_leaves=16
num_cat=0
split_feature=5 16 12 20 20 22 16 24 23 7 23 24 17 23 26
split_gain=53,2429 41,1522 18,4839 11,8715 4,02155 3,20823 1,77686 1,84577 2,12393 1,19899 0,72108 0,417705 0,306913 0,78846 0,0975383
threshold=-1,7001623427422921 0,094785121243411055 -0,60807508877528382 -2,2156711775921996 -0,068834124808039784 1,0000000180025095e-35 0,021022783681610351 -1,293523000396722 0,52906692039578784 0,1851418848970888 0,71968371869418502 1,1418373961533363 0,069331074577166182 0,19548076373278658 -0,020670645629246701
decision_type=2 2 2 2 2 2 2 2 2 2 2 2 2 2 2
left_child=1 3 4 6 -3 -2 7 12 -9 -4 -8 -5 13 -1 -6
right_child=5 2 9 11 14 -7 10 8 -10 -11 -12 -13 -14 -15 -16
leaf_value=-0,0008273777596239987 -0,0025092672308858113 0,0021432700458438449 -0,0016314170024228631 -0,0021843566939209165 0 -0,0019054314429843816 0,0012483931198026884 -0,0015806516603485098 3,2112000858436274e-05 0 -0 -0 0,00062493355415646859 0,0004934576994322106 -0,00037159234536385819
leaf_count=5 3797 53 17 139 1 260 7 15 2 1 1 3 4 3 3
internal_value=0 -0,575242 0,626634 -1,10605 1,20881 -1,57272 -0 -0,30881 -0,709935 -0,897373 0,579334 -1,36989 0,0421449 -0 -0
internal_count=4311 254 75 179 57 4057 37 29 17 18 8 142 12 8 4
shrinkage=0.00157275


Tree=34
num_leaves=18
num_cat=0
split_feature=5 16 12 20 20 22 17 23 26 16 6 24 16 27 26 26 24
split_gain=54,908 42,6451 18,9507 12,2341 4,13992 3,22152 2,51382 2,13096 1,39365 6,14554 1,21307 0,577602 0,510666 0,1268 0,110068 0,104246 0,0487539
threshold=-1,7001623427422921 0,094785121243411055 -0,60807508877528382 -3,4445003923775404 -0,068834124808039784 1,0000000180025095e-35 0,069331074577166182 0,18552886878867689 -0,066546354878141659 -0,010670590184036927 -0,025480410646257546 1,1418373961533363 0,069867278978735084 -0,09517960875317856 -0,098027406001922432 -0,020670645629246701 1,0000000180025095e-35
decision_type=2 2 2 2 2 2 2 2 2 2 2 2 2 2 2 2 2
left_child=1 3 4 6 -3 -2 7 -1 9 -5 13 -10 14 -4 -11 -6 -9
right_child=5 2 10 8 15 -7 -8 16 11 12 -12 -13 -14 -15 -16 -17 -18
leaf_value=-0,0010697032791321492 -0,0019707983047359059 0,0016814221658398402 -0 -0,0014028977437011985 0 -0,0015007726356766067 0,0010679447535968853 0,0003471607806978267 -0,0018624452674913972 0,00075957453565694735 0 -0 -0 -0,0013927532663932671 0 -0,00029745439849199808 0
leaf_count=8 3797 53 3 29 1 260 8 3 112 5 1 3 5 14 2 3 4
internal_value=0 -0,584873 0,637358 -1,12369 1,22467 -1,59516 0,0748733 -0,23481 -1,32724 -0,660161 -0,906535 -1,50253 0,250967 -1,04671 0,527417 -0 0,184326
internal_count=4311 254 75 179 57 4057 23 15 156 41 18 115 12 17 7 4 7
shrinkage=0.00121808


Tree=35
num_leaves=19
num_cat=0
split_feature=25 16 12 20 21 22 6 23 17 21 25 26 23 27 16 17 26 26
split_gain=50,7516 42,2233 17,4143 12,0752 5,25316 3,91011 3,76496 2,48307 2,16706 2,08724 1,80722 1,30256 0,959588 0,797917 0,433945 0,160378 0,439708 0,00614391
threshold=-1,6214938204599676 0,094785121243411055 -0,60807508877528382 -2,2156711775921996 2,9043772609885647 1,0000000180025095e-35 -2,2614313290475532 1,0865262435143848 0,038125031022904828 -0,1576238926930455 -1,7552944827810351 -0,14077976038355008 0,19548076373278658 -0,095192151994468552 0,057093602495090476 0,040224613331182338 -0,014304958080298405 -0,0078563544986379342
decision_type=2 2 2 2 2 2 2 2 2 2 2 2 2 2 2 2 2 2
left_child=1 3 7 4 6 -2 11 8 -3 -5 13 -1 -6 -4 -8 16 -9 -12
right_child=5 2 10 9 12 -7 14 15 -10 -11 17 -13 -14 -15 -16 -17 -18 -19
leaf_value=0,0023159886809526204 -0,0029922473401300005 -0 0 0 -0,0019857912914517015 -0,0022409729518937677 -0,00099419367323949994 0,00097825159782326601 0,0027774290495795307 -0,0026101797062391924 -0 -0 0 -0,002177557665932361 0 -7,3725525761503673e-05 -0 0,00012107183083781862
leaf_count=14 3780 1 2 1 12 260 5 5 45 157 1 1 4 15 1 2 3 2
internal_value=0 -0,614043 0,611265 -1,11732 -0 -1,5628 0,54672 1,20336 1,39505 -1,36021 -0,783168 1,07382 -0,830591 -1,02505 -0,2729 0 0,231359 0
internal_count=4311 271 76 195 37 4040 21 56 46 158 20 15 16 17 6 10 8 3
shrinkage=0.00188591


Tree=36
num_leaves=16
num_cat=0
split_feature=5 16 12 20 20 22 16 24 23 7 23 24 17 23 26
split_gain=53,5341 41,2532 18,5189 11,8575 4,04996 3,19443 1,79557 1,84906 2,11715 1,20003 0,715615 0,445278 0,304938 0,784031 0,100555
threshold=-1,7001623427422921 0,094785121243411055 -0,60807508877528382 -2,2156711775921996 -0,068834124808039784 1,0000000180025095e-35 0,021022783681610351 -1,293523000396722 0,52906692039578784 0,1851418848970888 0,71968371869418502 1,1418373961533363 0,069331074577166182 0,19548076373278658 -0,020670645629246701
decision_type=2 2 2 2 2 2 2 2 2 2 2 2 2 2 2
left_child=1 3 4 6 -3 -2 7 12 -9 -4 -8 -5 13 -1 -6
right_child=5 2 9 11 14 -7 10 8 -10 -11 -12 -13 -14 -15 -16
leaf_value=-0,00072633542241905182 -0,0022085459333692353 0,0018846702883411118 -0,0014342436477277455 -0,0019205472577344027 0 -0,001678283822278898 0,0010966130567336006 -0,0013899001422739 2,191491786996639e-05 0 -0 -0 0,00054655947683547059 0,00042852010589191253 -0,00033136276809213712
leaf_count=5 3797 53 17 139 1 260 7 15 2 1 1 3 4 3 3
internal_value=0 -0,576183 0,627108 -1,10748 1,20972 -1,57607 -0 -0,31138 -0,712259 -0,898357 0,581068 -1,37105 0,0398644 -0 -0
internal_count=4311 254 75 179 57 4057 37 29 17 18 8 142 12 8 4
shrinkage=0.00138138


Tree=37
num_leaves=16
num_cat=0
split_feature=5 16 12 20 20 16 24 23 7 23 24 17 23 27 26
split_gain=52,6978 40,1508 18,0913 11,7296 3,9938 1,73739 1,79522 2,08615 1,18755 0,714833 0,421765 0,306694 0,779891 0,12944 0,103201
threshold=-1,7001623427422921 0,094785121243411055 -0,60807508877528382 -2,2156711775921996 -0,068834124808039784 0,021022783681610351 -1,293523000396722 0,52906692039578784 0,1851418848970888 0,71968371869418502 1,1418373961533363 0,069331074577166182 0,19548076373278658 -0,09517960875317856 -0,020670645629246701
decision_type=2 2 2 2 2 2 2 2 2 2 2 2 2 2 2
left_child=1 3 4 5 -3 6 11 -8 13 -7 -5 12 -1 -4 -6
right_child=-2 2 8 10 14 9 7 -9 -10 -11 -12 -13 -14 -15 -16
leaf_value=-0,0007915985936236431 -0,0023581364623491219 0,0020326127342244439 -0 -0,0020759790334891901 0 0,0011899135641181818 -0,0014968812791553271 2,7082810261471453e-05 0 -0 -0 0,00059762849632296277 0,00046298259931836855 -0,0016960377920149927 -0,00036611511111906737
leaf_count=5 4057 53 3 139 1 7 15 2 1 1 3 4 3 14 3
internal_value=0 -0,571518 0,616937 -1,09623 1,19466 -0 -0,303406 -0,699844 -0,890034 0,576015 -1,35885 0,0393308 -0 -1,02973 -0
internal_count=4311 254 75 179 57 37 29 17 18 8 142 12 8 17 4
shrinkage=0.00150669


Tree=38
num_leaves=18
num_cat=0
split_feature=5 16 12 20 20 22 17 23 26 16 7 24 16 27 26 26 24
split_gain=51,6206 39,3718 17,7717 11,5139 3,92822 3,24616 2,35756 2,03991 1,45124 5,98493 1,17395 0,576983 0,498862 0,12671 0,0978772 0,091432 0,0521878
threshold=-1,7001623427422921 0,094785121243411055 -0,60807508877528382 -3,4445003923775404 -0,068834124808039784 1,0000000180025095e-35 0,069331074577166182 0,18552886878867689 -0,066546354878141659 -0,010670590184036927 0,1851418848970888 1,1418373961533363 0,069867278978735084 -0,09517960875317856 -0,020670645629246701 -0,098027406001922432 1,0000000180025095e-35
decision_type=2 2 2 2 2 2 2 2 2 2 2 2 2 2 2 2 2
left_child=1 3 4 6 -3 -2 7 -1 9 -5 13 -10 15 -4 -6 -11 -9
right_child=5 2 10 8 14 -7 -8 16 11 12 -12 -13 -14 -15 -16 -17 -18
leaf_value=-0,0014969726314622604 -0,002750226744006103 0,002342573286025437 -0 -0,0019505751039050063 0 -0,0020801305347470491 0,0014919452225671916 0,00050131156157751002 -0,0025983635751676603 0,0010979824740663547 0 -0 -0 -0,0019506215080721965 -0,00041385328599439667 0 0
leaf_count=8 3797 53 3 29 1 260 8 3 112 5 1 3 5 14 3 2 4
internal_value=0 -0,564942 0,612746 -1,08559 1,18635 -1,55009 0,0736008 -0,220935 -1,28487 -0,624116 -0,880923 -1,45965 0,271139 -1,02041 -0 0,538007 0,182629
internal_count=4311 254 75 179 57 4057 23 15 156 41 18 115 12 17 4 7 7
shrinkage=0.00174855


Tree=39
num_leaves=15
num_cat=0
split_feature=5 16 12 20 20 22 16 23 17 7 20 23 24 23
split_gain=50,5124 38,3257 17,3676 11,3147 3,86266 3,24288 1,65824 1,75309 2,70857 1,16039 0,706768 0,690682 0,396054 0,0296007
threshold=-1,7001623427422921 0,094785121243411055 -0,60807508877528382 -2,2156711775921996 -0,068834124808039784 1,0000000180025095e-35 0,021022783681610351 0,34957699165490436 0,069331074577166182 0,1851418848970888 -3,4445003923775404 0,71968371869418502 1,1418373961533363 0,39080022707407752
decision_type=2 2 2 2 2 2 2 2 2 2 2 2 2 2
left_child=1 3 4 6 -3 -2 7 8 -1 -4 -10 -8 -5 -9
right_child=5 2 9 12 -6 -7 11 13 10 -11 -12 -13 -14 -15
leaf_value=-0,0018966997656584418 -0,0029286689162592566 0,0024921443601072868 -0,0019003619319654622 -0,0025403067753028219 -0 -0,0022103381343074194 0,0014602864858729114 0 0,0010315950834825114 0 -0,0002626622942693001 -0 -0 0,00060974290962476009
leaf_count=16 3797 53 17 139 4 260 7 2 5 1 3 1 3 3
internal_value=0 -0,558827 0,604378 -1,07358 1,17318 -1,53545 -0 -0,29432 -0,578447 -0,87181 0 0,566745 -1,33293 0,262043
internal_count=4311 254 75 179 57 4057 37 29 24 18 8 8 142 5
shrinkage=0.00187951


Tree=40
num_leaves=18
num_cat=0
split_feature=25 16 12 20 21 21 23 17 21 25 26 23 27 16 17 26 26
split_gain=50,3423 41,6483 17,1445 11,8716 5,18319 3,69427 2,4915 2,15009 2,06892 1,78147 1,29258 0,948071 0,78894 0,429792 0,153056 0,435983 0,005736
threshold=-1,6214938204599676 0,094785121243411055 -0,60807508877528382 -2,2156711775921996 2,9043772609885647 0,54328213781769119 1,0865262435143848 0,038125031022904828 -0,1576238926930455 -1,7552944827810351 -0,14077976038355008 0,19548076373278658 -0,095192151994468552 0,057093602495090476 0,040224613331182338 -0,014304958080298405 -0,0078563544986379342
decision_type=2 2 2 2 2 2 2 2 2 2 2 2 2 2 2 2 2
left_child=1 3 6 4 5 13 7 -3 -5 12 -7 -6 -4 -1 15 -8 -11
right_child=-2 2 9 8 11 10 14 -9 -10 16 -12 -13 -14 -15 -16 -17 -18
leaf_value=-0,00088641703246583809 -0,0026388292466457829 -0 0 0 -0,0017770733112121954 0,0020617649061746104 0,00087055590233606889 0,0024794556087835112 -0,0023327250175159296 -0 -0 0 -0,0019431599646559934 0 -7,1296941315198507e-05 -0 0,00010506062902944678
leaf_count=5 4040 1 2 1 12 14 5 45 157 1 1 4 15 1 2 3 2
internal_value=0 -0,61204 0,605647 -1,11212 -0 0,539853 1,19405 1,38601 -1,35327 -0,77757 1,06282 -0,82791 -1,01803 -0,269074 0 0,22567 0
internal_count=4311 271 76 195 37 21 56 46 158 20 15 16 17 6 10 8 3
shrinkage=0.00169402


Tree=41
num_leaves=19
num_cat=0
split_feature=5 16 12 26 16 23 22 17 23 6 17 24 12 27 26 23 17 23
split_gain=49,8711 37,6843 17,0832 9,53028 7,69402 4,81556 3,28579 3,01123 2,02819 1,14907 0,910377 0,514067 0,321565 0,130737 0,066283 0,0441905 0,0345273 7,27575e-05
threshold=-1,7001623427422921 0,094785121243411055 -0,60807508877528382 -0,066546354878141659 -0,010670590184036927 0,19548076373278658 1,0000000180025095e-35 0,00059152511640026852 0,68118864541544444 -0,025480410646257546 0,10686346026264548 1,1418373961533363 -0,70861850539367299 -0,09517960875317856 -0,14077976038355008 0,39080022707407752 0,12426222006007716 0,68965428173891419
decision_type=2 2 2 2 2 2 2 2 2 2 2 2 2 2 2 2 2 2
left_child=1 3 7 4 5 10 -2 -3 -6 13 -1 -5 -9 -4 17 -7 -12 -10
right_child=6 2 9 11 8 15 -8 12 14 -11 16 -13 -14 -15 -16 -17 -18 -19
leaf_value=-0,0017889071005039276 -0,0022153299978314844 -0 -0 -0,0020561778488116674 0,0013723890112353331 0 -0,0016681973532351503 0,0018805195256162222 -0 0 0 -0 0 -0,0015701229521222462 -0,00027904038767080771 0,00045480459626733396 -0,00020213616339620342 9,9603646334909999e-06
leaf_count=30 3797 2 3 115 13 4 260 52 1 1 2 3 3 14 3 3 3 2
internal_value=0 -0,554636 0,599696 -1,06569 -0,301248 -0,80663 -1,52633 1,16487 0,569548 -0,864253 -1,12523 -1,41314 1,27158 -1,00335 -0 0,219699 -0 0
internal_count=4311 254 75 179 61 42 4057 57 19 18 35 118 55 17 6 7 5 3
shrinkage=0.00143004


Tree=42
num_leaves=19
num_cat=0
split_feature=5 16 12 20 20 22 17 23 16 26 20 6 24 16 27 26 24 20
split_gain=48,8303 36,6989 16,6988 11,0083 3,78989 3,28852 2,23821 1,94384 1,49509 4,69419 1,71195 1,13597 0,931498 0,815507 0,122098 0,0973101 0,0563862 0,00533473
threshold=-1,7001623427422921 0,094785121243411055 -0,60807508877528382 -3,4445003923775404 -0,068834124808039784 1,0000000180025095e-35 0,069331074577166182 0,18552886878867689 0,027902946816194287 -0,066546354878141659 -0,82586911533261165 -0,025480410646257546 1,0000000180025095e-35 0,087691929166530472 -0,09517960875317856 -0,020670645629246701 1,0000000180025095e-35 -1,0384429926844152
decision_type=2 2 2 2 2 2 2 2 2 2 2 2 2 2 2 2 2 2
left_child=1 3 4 6 -3 -2 7 -1 -5 12 17 14 -10 -14 -4 -6 -9 -11
right_child=5 2 11 8 15 -7 -8 16 9 10 -12 -13 13 -15 -16 -17 -18 -19
leaf_value=-0,0012219161080287396 -0,0022530388921390256 0,0019150342021759252 -0 -0,00206494718435727 0 -0,0016927032994625416 0,0012287483716571421 0,00042430962691067907 -0 -0 -0,001765830359909352 0 0,0012605394285330742 -0 -0,0015961371951548542 -0,00034635292904377515 -0 8,7680461081840447e-05
leaf_count=8 3797 53 3 120 1 260 8 3 2 2 22 1 7 1 14 3 4 2
internal_value=0 -0,548745 0,591671 -1,05419 1,1522 -1,5124 0,0768303 -0,205813 -1,25087 -0,54338 -1,00586 -0,85539 0,280377 0,635227 -0,994315 -0 0,180892 0
internal_count=4311 254 75 179 57 4057 23 15 156 36 26 18 10 8 17 4 7 4
shrinkage=0.00146757


Tree=43
num_leaves=16
num_cat=0
split_feature=5 16 12 20 20 22 16 24 23 7 23 24 17 23 26
split_gain=47,8162 35,739 16,3238 10,8322 3,72866 3,2953 1,53542 1,70319 1,99531 1,12315 0,665901 0,381833 0,267264 0,695042 0,0960745
threshold=-1,7001623427422921 0,094785121243411055 -0,60807508877528382 -2,2156711775921996 -0,068834124808039784 1,0000000180025095e-35 0,021022783681610351 -1,293523000396722 0,52906692039578784 0,1851418848970888 0,71968371869418502 1,1418373961533363 0,069331074577166182 0,19548076373278658 -0,020670645629246701
decision_type=2 2 2 2 2 2 2 2 2 2 2 2 2 2 2
left_child=1 3 4 6 -3 -2 7 12 -9 -4 -8 -5 13 -1 -6
right_child=5 2 9 11 14 -7 10 8 -10 -11 -12 -13 -14 -15 -16
leaf_value=-0,00085885236456917445 -0,0026777378121947927 0,0022734267657684138 -0,001734061162871943 -0,0023177312596199475 0 -0,0020069832993135283 0,001338935872201591 -0,0016941358733874958 2,8149295803452131e-05 0 -0 -0 0,00065865047129110748 0,00054510316481144131 -0,00041266630326251987
leaf_count=5 3797 53 17 139 1 260 7 15 2 1 1 3 4 3 3
internal_value=0 -0,54306 0,583718 -1,04298 1,13976 -1,49888 -0 -0,278455 -0,670985 -0,846672 0,553467 -1,29872 0,05157 -0 -0
internal_count=4311 254 75 179 57 4057 37 29 17 18 8 142 12 8 4
shrinkage=0.00175968


Tree=44
num_leaves=19
num_cat=0
split_feature=25 16 12 20 21 22 6 23 17 21 25 26 23 27 16 17 26 26
split_gain=45,7205 36,6742 15,1939 10,9754 4,84823 3,98391 3,45038 2,4123 2,09608 2,00596 1,72518 1,22097 0,879348 0,751238 0,382893 0,118822 0,380882 0,00955122
threshold=-1,6214938204599676 0,094785121243411055 -0,60807508877528382 -2,2156711775921996 2,9043772609885647 1,0000000180025095e-35 -2,2614313290475532 1,0865262435143848 0,038125031022904828 -0,1576238926930455 -1,7552944827810351 -0,14077976038355008 0,19548076373278658 -0,095192151994468552 0,057093602495090476 0,040224613331182338 -0,014304958080298405 -0,0078563544986379342
decision_type=2 2 2 2 2 2 2 2 2 2 2 2 2 2 2 2 2 2
left_child=1 3 7 4 6 -2 11 8 -3 -5 13 -1 -6 -4 -8 16 -9 -12
right_child=5 2 10 9 12 -7 14 15 -10 -11 17 -13 -14 -15 -16 -17 -18 -19
leaf_value=0,0018472790105571438 -0,0023351017386693857 -0 0 0 -0,0015497125021967963 -0,0017234386590377431 -0,00074615365982447809 0,0007329165375521455 0,00217221201903994 -0,002024798120076326 -0 -0 0 -0,0016962574423038468 0 -8,4037778405564095e-05 -0 0,00012391469036451477
leaf_count=14 3780 1 2 1 12 260 5 5 45 157 1 1 4 15 1 2 3 2
internal_value=0 -0,575538 0,574323 -1,05033 -0 -1,487 0,542532 1,13651 1,32616 -1,28581 -0,726627 1,04613 -0,787978 -0,970057 -0,231412 0 0,19779 0
internal_count=4311 271 76 195 37 4040 21 56 46 158 20 15 16 17 6 10 8 3
shrinkage=0.00154542


Tree=45
num_leaves=24
num_cat=0
split_feature=5 16 12 20 20 22 5 16 26 20 7 24 16 16 5 5 5 24 23 27 26 20 20
split_gain=46,0381 33,9499 15,598 10,3935 3,61361 3,3124 6,25586 1,5641 4,51291 1,67936 1,0948 0,937303 0,809341 0,776535 0,487785 0,870079 0,331953 0,149883 0,337005 0,125525 0,0921932 0,00715815 0,000433452
threshold=-1,7001623427422921 0,094785121243411055 -0,60807508877528382 -3,4445003923775404 -0,068834124808039784 1,0000000180025095e-35 -0,28167403692662446 0,027902946816194287 -0,066546354878141659 -0,82586911533261165 0,1851418848970888 1,0000000180025095e-35 0,087691929166530472 -0,0064936683139632566 -0,31410468407748598 -0,30564451525552699 -0,28590412133761056 -1,2935178056557353 0,72701874667178579 -0,09517960875317856 -0,020670645629246701 -1,0384429926844152 -6,2336129450846416
decision_type=2 2 2 2 2 2 2 2 2 2 2 2 2 2 2 2 2 2 2 2 2 2 2
left_child=1 3 4 13 -3 -2 14 -5 11 21 19 -9 -13 17 -7 -16 -17 22 -19 -4 -6 -10 -1
right_child=5 2 10 7 20 6 -8 8 9 -11 -12 12 -14 -15 15 16 -18 18 -20 -21 -22 -23 -24
leaf_value=2,5388370487921475e-05 -0,0025744846494249103 0,0021829727327496861 -0 -0,0023577271761512308 0 -0,0011237694217041405 -0,0023770671109432442 -0 -0 -0,0020118240634138308 0 0,0014879406046292673 -0 0,0009025246501669018 0,00049799009446652891 -0,00093811735017800294 0 -0,00072886749788592597 0 -0,0018212232731102654 -0,00039544105547060669 0,00011917001232572925 -0
leaf_count=4 3797 53 3 120 1 77 165 2 2 22 1 7 1 8 6 10 2 7 1 14 3 2 3
internal_value=0 -0,530832 0,57021 -1,0203 1,11723 -1,47302 -1,11575 -1,21355 -0,509658 -0,970775 -0,827704 0,292899 0,643628 0,0755807 -0,572936 -0 -0,417131 -0,0105378 -0,225144 -0,96608 -0 0 0
internal_count=4311 254 75 179 57 4057 260 156 36 26 18 10 8 23 95 18 12 15 8 17 4 4 7
shrinkage=0.00172101


Tree=46
num_leaves=19
num_cat=0
split_feature=5 16 12 20 20 22 5 16 24 23 7 25 23 24 17 23 27 26
split_gain=45,1328 33,0693 15,2521 10,2455 3,55714 3,31487 6,12144 1,41057 1,61656 1,92622 1,0827 0,878619 0,636531 0,391773 0,247561 0,662698 0,117746 0,0910241
threshold=-1,7001623427422921 0,094785121243411055 -0,60807508877528382 -2,2156711775921996 -0,068834124808039784 1,0000000180025095e-35 -0,28167403692662446 0,021022783681610351 -1,293523000396722 0,52906692039578784 0,1851418848970888 -0,26332992215096285 0,71968371869418502 1,1418373961533363 0,069331074577166182 0,19548076373278658 -0,09517960875317856 -0,020670645629246701
decision_type=2 2 2 2 2 2 2 2 2 2 2 2 2 2 2 2 2 2
left_child=1 3 4 7 -3 -2 11 8 14 -10 16 -7 -9 -5 15 -1 -4 -6
right_child=5 2 10 13 17 6 -8 12 9 -11 -12 -13 -14 -15 -16 -17 -18 -19
leaf_value=-0,0007297708926245096 -0,0022822399394570982 0,0019326136882262023 -0 -0,0019681105740557174 0 -0,00093922948620497502 -0,0021038640983293755 0,0011392380972988269 -0,0014458679022695765 2,0559329785571746e-05 0 0 -0 -0 0,00055592468083084587 0,00047394089735506569 -0,0016130946059559289 -0,00035123817326749847
leaf_count=5 3797 53 3 139 1 91 165 7 15 2 1 4 1 3 4 3 14 3
internal_value=0 -0,525475 0,562673 -1,00968 1,10552 -1,46065 -1,10397 -0 -0,263842 -0,649856 -0,819386 -0,565868 0,53623 -1,26093 0,0525307 -0 -0,957646 -0
internal_count=4311 254 75 179 57 4057 260 37 29 17 18 95 8 142 12 8 17 4
shrinkage=0.00153834


Tree=47
num_leaves=17
num_cat=0
split_feature=5 16 12 20 20 22 17 23 16 20 24 6 17 16 24 24
split_gain=48,698 36,4942 16,6786 10,9764 3,77442 3,21612 2,28949 1,96822 1,63957 4,57902 1,9526 1,13639 0,613491 0,105123 0,133132 0,0528613
threshold=-1,7001623427422921 0,094785121243411055 -0,60807508877528382 -3,4445003923775404 -0,068834124808039784 1,0000000180025095e-35 0,069331074577166182 0,18552886878867689 0,027902946816194287 -0,12509455204329264 1,0000000180025095e-35 -0,025480410646257546 0,023265405817503835 0,031769946334738085 1,1418221430846567 1,0000000180025095e-35
decision_type=2 2 2 2 2 2 2 2 2 2 2 2 2 2 2 2
left_child=1 3 4 6 -3 -2 7 -1 -5 10 -10 -4 -12 -14 -15 -9
right_child=5 2 11 8 -6 -7 -8 15 9 -11 12 -13 13 14 -16 -17
leaf_value=-0,00087935194554304979 -0,0016060334778930743 0,0013657870960929368 -0,0010425915336261346 -0,0014741587666749164 -0 -0,0012078249501981683 0,00088611375584855552 0,0002990588268323129 -0,00053594942723740764 -0,0012080026264493894 -0 0 0 0,00094706438138689002 0 -0
leaf_count=8 3797 53 17 120 4 260 8 3 5 19 1 1 2 7 2 4
internal_value=0 -0,54716 0,590306 -1,05132 1,15083 -1,50977 0,0774427 -0,210436 -1,2479 -0,532142 0,0381924 -0,855898 0,5914 0,733203 0,807265 0,180677
internal_count=4311 254 75 179 57 4057 23 15 156 36 17 18 12 11 9 7
shrinkage=0.00104799


Tree=48
num_leaves=23
num_cat=0
split_feature=5 17 12 7 26 21 26 22 23 17 24 23 6 25 7 17 27 21 23 27 27 12
split_gain=50,3603 33,7704 8,00236 8,11511 4,44609 6,21119 4,02765 3,23863 2,12585 1,9822 2,02536 1,76823 1,41402 1,36721 1,03884 0,544178 0,473533 1,22496 0,117922 0,0713777 0,262001 0,0469651
threshold=-1,7001623427422921 0,027343517447649974 -0,70861850539367299 -0,76107813114589262 -0,066546354878141659 2,9043772609885647 -0,35568359097185087 1,0000000180025095e-35 0,19548076373278658 0,03689179055780855 0,64674187442409059 1,7462030438583651 -1,0309967999864891 -1,3828687661409691 0,1851418848970888 0,037353972868751695 -0,095159544320205139 -0,1613590200939771 0,39080022707407752 -0,068003117506148666 0,22095559365969711 -2,5601741105042177
decision_type=2 2 2 2 2 2 2 2 2 2 2 2 2 2 2 2 2 2 2 2 2 2
left_child=1 6 3 4 5 9 8 -2 -1 21 -11 -8 -6 15 16 -5 -4 -18 -10 -12 -21 -3
right_child=7 2 14 13 12 -7 11 -9 18 10 19 -13 -14 -15 -16 -17 17 -19 -20 20 -22 -23
leaf_value=-0,00090258707899126421 -0,0017875780998773683 0 -0 0 -0,0011319150762931437 -0,00098615353588624253 -0,001729360164796844 -0,001348665578029689 0 0,0013730936731251584 0,00020888376929067049 0 0 -0 0 0,0014846844265703498 0 -0,0013593361016211664 0,00054719160253249985 -0,00033008139498488738 0,00017083853599898796 -0,0001892081227751716
leaf_count=8 3797 3 5 3 16 9 104 260 4 22 5 1 3 1 1 31 1 17 4 6 7 3
internal_value=0 -0,557251 0,122225 0,386075 -0 0,285777 -1,32515 -1,5327 -0,0627773 0,643437 0,809875 -1,47489 -0,767431 1,13743 -0,80429 1,21549 -0,910563 -1,05227 0,333894 0,0186144 -0 -0
internal_count=4311 254 133 109 74 55 121 4057 16 46 40 105 19 35 24 34 23 18 8 18 13 6
shrinkage=0.00114923


Tree=49
num_leaves=16
num_cat=0
split_feature=5 16 12 20 20 16 24 23 7 23 24 17 23 26 5
split_gain=46,1737 34,1334 15,6763 10,4331 3,61976 1,46231 1,64539 1,94939 1,09804 0,645966 0,391543 0,255524 0,68022 0,0916681 0,0247227
threshold=-1,7001623427422921 0,094785121243411055 -0,60807508877528382 -2,2156711775921996 -0,068834124808039784 0,021022783681610351 -1,293523000396722 0,52906692039578784 0,1851418848970888 0,71968371869418502 1,1418373961533363 0,069331074577166182 0,19548076373278658 -0,020670645629246701 -0,28167403692662446
decision_type=2 2 2 2 2 2 2 2 2 2 2 2 2 2 2
left_child=1 3 4 5 -3 6 11 -8 -4 -7 -5 12 -1 -6 -2
right_child=14 2 8 10 13 9 7 -9 -10 -11 -12 -13 -14 -15 -16
leaf_value=-0,00080205104754851821 -0,002215013957439334 0,0021117002765117217 -0,0016090841607501823 -0,0021497280035206187 0 0,001241694671594275 -0,0015764442802052769 2,1073959681603591e-05 0 -0 -0 0,00060809981233662426 0,00051072020308844948 -0,00038074065007656681 -0,0025128934872888195
leaf_count=5 892 53 17 139 1 7 15 2 1 1 3 4 3 3 3165
internal_value=0 -0,532099 0,571625 -1,02266 1,11964 -0 -0,271116 -0,658519 -0,829877 0,541943 -1,2752 0,0494871 -0 -0 -1,47526
internal_count=4311 254 75 179 57 37 29 17 18 8 142 12 8 4 4057
shrinkage=0.00166175


Tree=50
num_leaves=22
num_cat=0
split_feature=5 16 12 20 20 22 5 16 23 17 6 25 20 23 16 24 16 27 26 23 23
split_gain=45,3199 33,2325 15,3221 10,2604 3,56337 3,37621 6,01468 1,41567 1,61042 2,52415 1,08517 0,87754 0,648788 0,638825 0,406713 0,752404 0,469711 0,115181 0,0905078 0,0257328 0,0196
threshold=-1,7001623427422921 0,094785121243411055 -0,60807508877528382 -2,2156711775921996 -0,068834124808039784 1,0000000180025095e-35 -0,28167403692662446 0,021022783681610351 0,34957699165490436 0,069331074577166182 -0,025480410646257546 -0,26332992215096285 -3,4445003923775404 0,71968371869418502 0,027902946816194287 1,1418373961533363 0,034225862557071628 -0,09517960875317856 -0,020670645629246701 0,39080022707407752 0,19548076373278658
decision_type=2 2 2 2 2 2 2 2 2 2 2 2 2 2 2 2 2 2 2 2 2
left_child=1 3 4 7 -3 -2 11 8 9 20 17 -7 -11 -9 -5 16 -16 -4 -6 -10 -1
right_child=5 2 10 14 18 6 -8 13 19 12 -12 -13 -14 -15 15 -17 -18 -19 -20 -21 -22
leaf_value=-0,0016464772926481068 -0,0023287199802004711 0,0019726313186285288 -0 -0,0021991639555690823 0 -0,00096264157626014136 -0,0021422127920282517 0,0011611743783607575 0 0,00083188884857783108 0 0 -0,00017340431147903754 -0 -0 0 -0,0011944222342492284 -0,0016457911124681133 -0,00035682690594786374 0,00049698340415415231 -0
leaf_count=13 3797 53 3 109 1 91 165 7 2 5 1 4 3 1 5 1 27 14 3 3 3
internal_value=0 -0,526271 0,564274 -1,0114 1,10795 -1,46286 -1,10468 -0 -0,265085 -0,545049 -0,821045 -0,569737 0 0,535961 -1,26269 -0,589509 -0,667201 -0,959338 -0 0,258369 -0,965848
internal_count=4311 254 75 179 57 4057 260 37 29 24 18 95 8 8 142 33 32 17 4 5 16
shrinkage=0.00156725


Tree=51
num_leaves=19
num_cat=0
split_feature=25 16 12 20 21 22 6 23 21 25 26 23 27 16 20 23 26 26
split_gain=48,0416 39,102 16,1835 11,5162 5,08226 4,00148 3,62059 2,46988 2,05011 1,7701 1,2689 0,944251 0,758218 0,403509 0,066588 0,117837 0,0669206 0,00844586
threshold=-1,6214938204599676 0,094785121243411055 -0,60807508877528382 -2,2156711775921996 2,9043772609885647 1,0000000180025095e-35 -2,2614313290475532 1,0865262435143848 -0,1576238926930455 -1,7552944827810351 -0,14077976038355008 0,19548076373278658 -0,095192151994468552 0,057093602495090476 -0,16419983947283409 1,1822424405258449 -0,020670645629246701 -0,0078563544986379342
decision_type=2 2 2 2 2 2 2 2 2 2 2 2 2 2 2 2 2 2
left_child=1 3 7 4 6 -2 10 -3 -5 12 -1 -6 -4 -8 15 -9 -16 -11
right_child=5 2 9 8 11 -7 13 14 -10 17 -12 -13 -14 -15 16 -17 -18 -19
leaf_value=0,0010893010985416869 -0,0013832425048929278 0,0012157353993473518 0 0 -0,00092263459387432101 -0,0010269731367368354 -0,00044923886663745638 -0 -0,0012023721907444577 -0 -0 0 -0,0010051608530531784 0 0 0,00027461133833221887 -0,00017577208205153924 6,7465628654571534e-05
leaf_count=14 3780 46 2 1 12 260 5 2 157 1 1 4 15 1 1 4 3 2
internal_value=0 -0,592361 0,591103 -1,07959 -0 -1,52107 0,549676 1,16681 -1,31883 -0,752285 1,0648 -0,809028 -0,995581 -0,250037 0 0,165178 -0 0
internal_count=4311 271 76 195 37 4040 21 56 158 20 15 16 17 6 10 6 4 3
shrinkage=0.000895287


Tree=52
num_leaves=25
num_cat=0
split_feature=20 16 6 22 20 20 24 23 17 12 16 22 23 13 20 16 20 16 20 16 20 20 20 20
split_gain=44,6366 34,9846 34,8669 5,68244 26,0911 3,71552 2,77517 1,14999 0,691468 0,583036 0,370625 0,269298 0,388419 0,140367 0,062428 0,597636 0,177085 0,17168 0,181004 0,219208 0,15975 0,12476 0,0838075 0,0826459
threshold=-0,51198231224833879 0,031769946334738085 -0,15778519871734012 1,0000000180025095e-35 0,1997547662484889 -6,2336129450846416 -1,2935109611641666 0,39594958454876944 0,024983140470084306 -0,75128141545923011 0,28483624840058047 1,0000000180025095e-35 1,1822424405258449 -2,4684968652684245 0,04131477068542571 0,25162946141751047 -0,15286428889153511 0,21509683030812846 0,13760387668760649 0,27007257901714105 -0,17510782312045467 0,18688777563173206 -0,28451107119203828 0,13965224705373752
decision_type=2 2 2 2 2 2 2 2 2 2 2 2 2 2 2 2 2 2 2 2 2 2 2 2
left_child=1 5 6 -2 10 8 7 9 13 -3 14 12 -9 -1 15 16 20 21 -19 -20 22 23 -5 -16
right_child=3 2 -4 4 -6 -7 -8 11 -10 -11 -12 -13 -14 -15 17 -17 -18 18 19 -21 -22 -23 -24 -25
leaf_value=0 -0,0018215940310196555 0,00089436963864336606 -0,0014219582139063229 -0 -0,001697306126987485 -0,001526970106205067 0,0018358410914859277 -0,00066232770623778179 0,00051227442556412784 -0 0,00052851830847251539 0 0 -0,00056222369978345247 -0 -0,00014275630388568987 0,00069347913071268611 -0 0,00058420264373736769 -0 -0,00016880478297215463 0 0,00042350191535634553 -0,00051104308320465408
leaf_count=2 3786 12 36 4 215 141 46 5 4 1 7 2 1 5 11 3 6 5 3 3 3 2 3 5
internal_value=0 -0,547051 0,342724 -1,47986 -1,08373 -1,17302 1,21727 0,248615 -0 0,610948 0,0997747 -4,6977e-05 -0,332909 -0,35249 0 0,096262 0,359797 -0,0373444 0 0,273107 0 -0,186134 0,217542 -0,253077
internal_count=4311 255 103 4056 270 152 67 21 11 13 55 8 6 7 48 19 16 29 11 6 10 18 7 16
shrinkage=0.00120902


Tree=53
num_leaves=17
num_cat=0
split_feature=5 16 12 20 20 22 17 23 26 16 7 24 16 26 26 24
split_gain=48,1787 36,0753 16,4329 10,9147 3,75059 3,28814 2,25477 1,93866 1,51798 5,83416 1,12458 0,520159 0,478503 0,0956615 0,066931 0,0523694
threshold=-1,7001623427422921 0,094785121243411055 -0,60807508877528382 -3,4445003923775404 -0,068834124808039784 1,0000000180025095e-35 0,069331074577166182 0,18552886878867689 -0,066546354878141659 -0,010670590184036927 0,1851418848970888 1,1418373961533363 0,069867278978735084 -0,020670645629246701 -0,098027406001922432 1,0000000180025095e-35
decision_type=2 2 2 2 2 2 2 2 2 2 2 2 2 2 2 2
left_child=1 3 4 6 -3 -2 7 -1 9 -5 -4 -10 14 -6 -11 -9
right_child=5 2 10 8 13 -7 -8 15 11 12 -12 -13 -14 -15 -16 -17
leaf_value=-0,0010402609764583576 -0,0019089619465110564 0,0016228739745973897 -0,0012349925612710757 -0,0013504907435460207 0 -0,0014318981846784618 0,0010527899445737471 0,00035675607114656332 -0,0018053423171427985 0,00078906553129705023 0 -0 -0 -0,0002928235625194092 0 -0
leaf_count=8 3797 53 17 29 1 260 8 3 112 5 1 3 5 3 2 4
internal_value=0 -0,544153 0,587534 -1,04595 1,14457 -1,50272 0,0793954 -0,204986 -1,24235 -0,586775 -0,848201 -1,4171 0,293993 -0 0,548836 0,180895
internal_count=4311 254 75 179 57 4057 23 15 156 41 18 115 12 4 7 7
shrinkage=0.00125133


Tree=54
num_leaves=20
num_cat=0
split_feature=5 16 12 20 20 22 5 17 26 16 7 16 24 16 5 5 5 26 24
split_gain=45,4665 33,3862 15,3969 10,3245 3,56795 3,35402 5,80934 2,12451 1,55075 5,57925 1,08745 0,639059 0,532809 0,470488 0,438586 0,874916 0,328008 0,09002 0,0249222
threshold=-1,7001623427422921 0,094785121243411055 -0,60807508877528382 -3,4445003923775404 -0,068834124808039784 1,0000000180025095e-35 -0,28167403692662446 0,069331074577166182 -0,066546354878141659 -0,010670590184036927 0,1851418848970888 0,021022783681610351 1,1418373961533363 0,069867278978735084 -0,31410468407748598 -0,30564451525552699 -0,28590412133761056 -0,020670645629246701 -1,2935178056557353
decision_type=2 2 2 2 2 2 2 2 2 2 2 2 2 2 2 2 2 2 2
left_child=1 3 4 7 -3 -2 14 11 9 -5 -4 18 -10 -11 -7 -16 -17 -6 -1
right_child=5 2 10 8 17 6 -8 -9 12 13 -12 -13 -14 -15 15 16 -18 -19 -20
leaf_value=-0 -0,0026391435851471656 0,0022374434122513498 -0,0017054297360735409 -0,0018523929249900266 0 -0,0011645696554570568 -0,0024237125973134502 0,0014563033409492304 -0,0024952152879574576 0,00097826623093124525 0 0 -0 -0 0,00049109399690587031 -0,00097503798162971371 0 -0,00040286361995570406 -0,0009429842938336137
leaf_count=5 3797 53 17 29 1 77 165 8 112 7 1 2 3 5 6 10 2 3 8
internal_value=0 -0,526798 0,565917 -1,01291 1,1105 -1,46451 -1,10673 0,0784697 -1,20613 -0,555893 -0,822928 -0,1925 -1,38057 0,300166 -0,577837 -0 -0,423468 -0 -0,440037
internal_count=4311 254 75 179 57 4057 260 23 156 41 18 15 115 12 95 18 12 4 13
shrinkage=0.00177424


Tree=55
num_leaves=18
num_cat=0
split_feature=5 16 20 20 22 17 23 6 16 26 20 24 16 24 20 24 20
split_gain=47,5664 35,4247 14,9838 10,7103 3,27056 2,21346 1,916 1,79571 1,59097 4,7599 1,70144 0,967127 0,824329 0,624224 0,122638 0,0500809 0,00590001
threshold=-1,7001623427422921 0,094785121243411055 -0,068834124808039784 -3,4445003923775404 1,0000000180025095e-35 0,069331074577166182 0,18552886878867689 -0,32038081984680206 0,027902946816194287 -0,066546354878141659 -0,82586911533261165 1,0000000180025095e-35 0,087691929166530472 -1,2935156495438096 -0,17510782312045467 1,0000000180025095e-35 -1,0384429926844152
decision_type=2 2 2 2 2 2 2 2 2 2 2 2 2 2 2 2 2
left_child=1 3 7 5 -2 6 -1 14 -5 11 16 -10 -13 -4 -3 -8 -11
right_child=4 2 13 8 -6 -7 15 -9 9 10 -12 12 -14 -15 -16 -17 -18
leaf_value=-0,0010122235283780894 -0,0018554671709769353 0,0014935674624548614 0 -0,0017011233192873313 -0,001389991518208509 0,0010199289086427505 0,00034262151525308725 -0 -0 -0 -0,0014577190635812023 0,0010777004582064628 -0 -0,0011531375199824423 0 -0 7,6922844140306165e-05
leaf_count=8 3797 52 2 120 260 8 3 3 2 2 22 7 1 15 3 4 2
internal_value=0 -0,539191 0,58312 -1,03729 -1,49312 0,076386 -0,203791 1,10091 -1,23232 -0,52326 -0,993281 0,308137 0,659435 -0,825523 1,1848 0,178026 0
internal_count=4311 254 75 179 4057 23 15 58 156 36 26 10 8 17 55 7 4
shrinkage=0.00122398


Tree=56
num_leaves=17
num_cat=0
split_feature=5 16 12 20 20 22 17 23 26 16 14 24 16 26 26 24
split_gain=47,7216 35,6109 16,2985 10,7669 3,68478 3,24544 2,19996 1,92645 1,51329 5,76331 1,12117 0,516138 0,476519 0,0921253 0,0695975 0,0459333
threshold=-1,7001623427422921 0,094785121243411055 -0,60807508877528382 -3,4445003923775404 -0,068834124808039784 1,0000000180025095e-35 0,069331074577166182 0,18552886878867689 -0,066546354878141659 -0,010670590184036927 0,30867817317348606 1,1418373961533363 0,069867278978735084 -0,020670645629246701 -0,098027406001922432 1,0000000180025095e-35
decision_type=2 2 2 2 2 2 2 2 2 2 2 2 2 2 2 2
left_child=1 3 4 6 -3 -2 7 -1 9 -5 -4 -10 14 -6 -11 -9
right_child=5 2 10 8 13 -7 -8 15 11 12 -12 -13 -14 -15 -16 -17
leaf_value=-0,0010147362757412595 -0,0018624457746280844 0,0015821246574103962 -0,0012068798445627744 -0,0013147793040859282 0 -0,0013967048385268384 0,0010191546202663272 0,00034249745446060487 -0,0017604487736219087 0,00077108326216567414 0 -0 -0 -0,00028158872808412775 0 0
leaf_count=8 3797 53 17 29 1 260 8 3 112 5 1 3 5 3 2 4
internal_value=0 -0,541241 0,583663 -1,04039 1,13942 -1,4963 0,076548 -0,202138 -1,23578 -0,582004 -0,845667 -1,41028 0,291712 -0 0,546334 0,181633
internal_count=4311 254 75 179 57 4057 23 15 156 41 18 115 12 4 7 7
shrinkage=0.00122604


Tree=57
num_leaves=18
num_cat=0
split_feature=5 16 12 26 16 23 22 17 23 6 17 24 12 26 23 17 23
split_gain=46,2877 34,0735 15,6964 9,25432 7,29744 4,6001 3,28816 2,84931 1,9465 1,10049 0,908322 0,494474 0,340887 0,053805 0,0437359 0,0228907 0,000369088
threshold=-1,7001623427422921 0,094785121243411055 -0,60807508877528382 -0,066546354878141659 -0,010670590184036927 0,19548076373278658 1,0000000180025095e-35 0,00059152511640026852 0,68118864541544444 -0,025480410646257546 0,10686346026264548 1,1418373961533363 -0,70861850539367299 -0,14077976038355008 0,39080022707407752 0,12426222006007716 0,68965428173891419
decision_type=2 2 2 2 2 2 2 2 2 2 2 2 2 2 2 2 2
left_child=1 3 7 4 5 10 -2 -3 -6 -4 -1 -5 -9 16 -7 -12 -10
right_child=6 2 9 11 8 14 -8 12 13 -11 15 -13 -14 -15 -16 -17 -18
leaf_value=-0,0014803938858021688 -0,0018336525927922301 -0 -0,0011863930405004305 -0,0017021946274812961 0,0011692807055345275 0 -0,0013692278822258538 0,0015508251487866241 -0 0 0 -0 0 -0,00021522369132418468 0,00039669359730838205 -0,00014108381121322479 1,9184390018449795e-05
leaf_count=30 3797 2 17 115 13 4 260 52 1 1 2 3 3 3 3 3 2
internal_value=0 -0,532605 0,570242 -1,02252 -0,269472 -0,768613 -1,47673 1,11888 0,576825 -0,831814 -1,08545 -1,36765 1,2249 -0 0,225919 -0 0
internal_count=4311 254 75 179 61 42 4057 57 19 18 35 118 55 6 7 5 3
shrinkage=0.00122277


Tree=58
num_leaves=15
num_cat=0
split_feature=5 16 12 20 20 16 24 7 26 24 17 26 17 17
split_gain=45,3507 33,2573 15,3484 10,2911 3,55086 1,41629 1,61137 1,08612 0,640149 0,358213 0,253598 0,0896064 0,0378169 0,000975866
threshold=-1,7001623427422921 0,094785121243411055 -0,60807508877528382 -2,2156711775921996 -0,068834124808039784 0,021022783681610351 -1,293523000396722 0,1851418848970888 -0,012734170066880749 1,1418373961533363 0,069331074577166182 -0,020670645629246701 0,031010214065434697 0,016885213240359954
decision_type=2 2 2 2 2 2 2 2 2 2 2 2 2 2
left_child=1 3 4 5 -3 6 10 -4 -7 -5 12 -6 13 -1
right_child=-2 2 7 9 11 8 -8 -9 -10 -11 -12 -13 -14 -15
leaf_value=-0 -0,0027225610689009137 0,0023423608212384851 -0,0017866818751925459 -0,0023843391319779148 0 0,0013805855845247428 -0,0012082822420253273 0 -0 -0 0,0006791342981237933 -0,00042152919440498313 -0,00027511439422063511 4,7482970940821027e-05
leaf_count=3 4057 53 17 139 1 7 17 1 1 3 4 3 3 2
internal_value=0 -0,526353 0,56448 -1,01166 1,10857 -0 -0,264411 -0,82195 0,536956 -1,26333 0,0508393 -0 -0 0
internal_count=4311 254 75 179 57 37 29 18 8 142 12 4 8 5
shrinkage=0.00186071


Tree=59
num_leaves=23
num_cat=0
split_feature=5 17 20 21 20 26 12 17 7 23 23 25 25 27 7 24 6 17 23 13 17 12
split_gain=48,6011 32,7091 10,7845 5,49756 4,36545 4,00181 2,77725 2,65189 2,16077 2,07727 1,69979 1,11261 1,03055 0,782479 0,722506 0,291062 0,228635 0,22191 0,113868 0,0276001 0,183917 0,0147638
threshold=-1,7001623427422921 0,027343517447649974 -0,068834124808039784 2,9043772609885647 -0,55559103735501281 -0,35568359097185087 -0,97707560270963489 0,034632268275868676 -0,25192404686064507 0,19548076373278658 1,7462030438583651 -1,3828687661409691 -2,8692401485738857 -0,095159544320205139 0,34544980450373136 0,64674187442409059 -0,025480410646257546 0,040224613331182338 0,39080022707407752 -2,3294653642858067 0,031010214065434697 -1,1267086932861987
decision_type=2 2 2 2 2 2 2 2 2 2 2 2 2 2 2 2 2 2 2 2 2 2
left_child=1 5 3 4 7 9 15 19 -8 -1 -7 12 -9 -4 -5 -6 -10 -15 -11 20 -3 -17
right_child=-2 2 13 14 6 10 8 11 16 18 -12 -13 -14 17 -16 21 -18 -19 -20 -21 -22 -23
leaf_value=-0,00071583210540590776 -0,0013985040053951026 0 0 -0,00078410851611984689 -0,00079210528706212307 -0,0013759128360904863 0,00085710410544851681 0,00019885847874149995 -0,00032751260126715154 0 0 -0 0,001136744145628163 -0 0 -8,6152150971836891e-05 0 -0,0010946717607682522 0,00044585116884823318 0 -0,00030431191796393542 0
leaf_count=8 4057 1 2 9 8 104 11 19 4 4 1 1 45 3 1 3 1 18 4 1 4 2
internal_value=0 -0,545772 0,124249 0,421914 0,594225 -1,30449 -0 0,854631 0,443673 -0,0497766 -1,45407 0,976617 1,01786 -0,989622 -0,673123 -0,666974 -0,0894312 -1,09009 0,340106 -0 -0,111893 -0
internal_count=4311 254 133 110 100 121 29 71 16 16 105 65 64 23 10 13 5 21 8 6 5 5
shrinkage=0.000927499


Tree=60
num_leaves=19
num_cat=0
split_feature=25 16 12 20 21 22 6 23 17 21 25 26 23 27 16 17 26 26
split_gain=43,8777 34,6492 14,4102 10,4886 4,74544 4,17614 3,37504 2,31803 2,06206 1,97158 1,69097 1,20483 0,880289 0,736305 0,36174 0,112725 0,36395 0,0113719
threshold=-1,6214938204599676 0,094785121243411055 -0,60807508877528382 -2,2156711775921996 2,9043772609885647 1,0000000180025095e-35 -2,2614313290475532 1,0865262435143848 0,038125031022904828 -0,1576238926930455 -1,7552944827810351 -0,14077976038355008 0,19548076373278658 -0,095192151994468552 0,057093602495090476 0,040224613331182338 -0,014304958080298405 -0,0078563544986379342
decision_type=2 2 2 2 2 2 2 2 2 2 2 2 2 2 2 2 2 2
left_child=1 3 7 4 6 -2 11 8 -3 -5 13 -1 -6 -4 -8 16 -9 -12
right_child=5 2 10 9 12 -7 14 15 -10 -11 17 -13 -14 -15 -16 -17 -18 -19
leaf_value=0,0020190289433185114 -0,0025196065831411419 -0 0 0 -0,0016879375770372732 -0,0018412889994402163 -0,00079606882865307599 0,00078844223243098644 0,0023467329159771941 -0,0021776486232137002 -0 -0 0 -0,0018297260852318321 0 -9,3983330272883069e-05 -0 0,00014889834633337581
leaf_count=14 3780 1 2 1 12 260 5 5 45 157 1 1 4 15 1 2 3 2
internal_value=0 -0,559725 0,561529 -1,02388 -0 -1,45758 0,541085 1,11302 1,30015 -1,25612 -0,705005 1,03905 -0,777249 -0,949023 -0,221868 0 0,192688 0
internal_count=4311 271 76 195 37 4040 21 56 46 158 20 15 16 17 6 10 8 3
shrinkage=0.00170026


Tree=61
num_leaves=21
num_cat=0
split_feature=5 16 12 20 22 5 20 17 23 16 26 20 7 24 25 16 27 26 24 20
split_gain=44,075 31,9965 14,8209 9,95735 3,5112 5,82622 3,46493 2,05048 1,82112 1,63896 4,44854 1,65754 1,06438 0,956313 0,853722 0,810286 0,127714 0,0861543 0,0495461 0,00822333
threshold=-1,7001623427422921 0,094785121243411055 -0,60807508877528382 -3,4445003923775404 1,0000000180025095e-35 -0,28167403692662446 -0,068834124808039784 0,069331074577166182 0,18552886878867689 0,027902946816194287 -0,066546354878141659 -0,82586911533261165 0,1851418848970888 1,0000000180025095e-35 -0,26332992215096285 0,087691929166530472 -0,09517960875317856 -0,020670645629246701 1,0000000180025095e-35 -1,0384429926844152
decision_type=2 2 2 2 2 2 2 2 2 2 2 2 2 2 2 2 2 2 2 2
left_child=1 3 6 7 -2 14 -3 8 -1 -5 13 19 16 -11 -6 -15 -4 -8 -10 -12
right_child=4 2 12 9 5 -7 17 -9 18 10 11 -13 -14 15 -16 -17 -18 -19 -20 -21
leaf_value=-0,0013293376187345622 -0,0024284153290806869 0,0020548746345206864 -0 -0,0022228163356359147 -0,00099334862717057612 -0,0022234039722065124 0 0,0013353695436353239 0,0004592047041674424 -0 -0 -0,0018967561978972588 0 0,0014521693319757281 0 -0 -0,0017154307077798263 -0,00036764233105232444 -0 0,00012286487605775112
leaf_count=8 3797 53 3 120 91 165 1 8 3 2 2 22 1 7 4 1 14 3 4 2
internal_value=0 -0,51733 0,554957 -0,995107 -1,44436 -1,08402 1,09235 0,0745585 -0,188512 -1,18609 -0,483216 -0,947373 -0,807367 0,311973 -0,556093 0,65921 -0,945361 -0 0,176197 0
internal_count=4311 254 75 179 4057 260 57 23 15 156 36 26 18 10 95 8 17 4 7 4
shrinkage=0.00165468


Tree=62
num_leaves=28
num_cat=0
split_feature=5 16 20 20 22 20 5 25 20 16 6 16 23 17 20 20 24 23 20 16 24 16 27 25 23 27 23
split_gain=43,2352 31,1738 13,5193 9,78374 3,51831 22,046 7,74397 4,88636 2,91654 1,72914 1,61136 1,32188 1,58569 2,43934 0,847554 0,625914 0,62145 0,615727 0,609463 0,477924 0,715418 0,467302 0,137907 0,0412867 0,0260651 0,021046 0,0200731
threshold=-1,7001623427422921 0,094785121243411055 -0,068834124808039784 -2,2156711775921996 1,0000000180025095e-35 0,1997547662484889 -0,24783336163877909 -0,8980652321743402 -0,55559103735501281 0,1598402382362199 -0,32038081984680206 0,021022783681610351 0,34957699165490436 0,069331074577166182 0,18688777563173206 0,049051384861565232 -1,2935156495438096 0,71968371869418502 -3,4445003923775404 0,027902946816194287 1,1418373961533363 0,034225862557071628 -0,095141519478078446 -1,0032746887638733 0,39080022707407752 -0,09517960875317856 0,19548076373278658
decision_type=2 2 2 2 2 2 2 2 2 2 2 2 2 2 2 2 2 2 2 2 2 2 2 2 2 2 2
left_child=1 3 10 11 -2 6 7 15 -9 -10 22 12 13 26 -8 23 -4 -13 -15 -5 21 -21 25 -6 -14 -3 -1
right_child=4 2 16 19 5 -7 14 8 9 -11 -12 17 24 18 -16 -17 -18 -19 -20 20 -22 -23 -24 -25 -26 -27 -28
leaf_value=-0,0021831874854643927 -0,0030753350769184701 0,00023389494470443545 0 -0,0029014563948229896 0,00035400526022407895 -0,0028602830649513992 -0,0020492617868886104 -0 -0 0,0034091815429418003 -0 0,0015296153217766719 0 0,0010904718878404155 0 -0,0011212395129105023 -0,0019146287069516882 -0 -0,00020866543381805832 -0 0 -0,0015510234514499127 0,0025301419649599718 -0 0,0006838871877639269 -0 -0
leaf_count=13 3797 3 2 109 2 213 14 2 1 19 3 7 2 5 2 6 15 1 3 5 1 27 49 1 3 3 3
internal_value=0 -0,51222 0,547711 -0,985013 -1,43277 -1,07277 0,119099 0,758075 1,24705 1,48146 1,04862 -0 -0,254407 -0,53544 -0,817805 -0,131925 -0,788273 0,521569 0 -1,23271 -0,56214 -0,639628 1,12945 0 0,264457 0 -0,950056
internal_count=4311 254 75 179 4057 260 47 31 22 20 58 37 29 24 16 9 17 8 8 142 33 32 55 3 5 6 16
shrinkage=0.00211209


Tree=63
num_leaves=20
num_cat=0
split_feature=20 16 6 22 20 25 25 20 24 16 20 25 23 25 25 13 24 20 23
split_gain=42,1109 32,6023 32,1394 5,75247 25,1438 6,27995 7,22526 3,44198 2,93518 1,51971 1,41226 1,2951 0,803976 0,393957 0,363687 0,177344 0,0511662 0,0194703 0,00240285
threshold=-0,51198231224833879 0,031769946334738085 -0,15778519871734012 1,0000000180025095e-35 0,1997547662484889 -0,18490367223460799 -0,8980652321743402 -6,2336129450846416 -1,2935109611641666 0,1598402382362199 0,045331155583028186 -1,3828687661409691 0,68118864541544444 -2,2834998456996001 -1,0032746887638733 -2,4684968652684245 0,64674187442409059 -0,40482820201047831 1,1822424405258449
decision_type=2 2 2 2 2 2 2 2 2 2 2 2 2 2 2 2 2 2 2
left_child=1 7 8 -2 5 6 10 15 11 -8 13 12 -3 17 -15 -1 -17 -5 -14
right_child=3 2 -4 4 -6 -7 9 -9 -10 -11 -12 -13 18 14 -16 16 -18 -19 -20
leaf_value=0,00035772230658632283 -0,0027074927400967102 0,001415444133256162 -0,0020851404972282383 0 -0,0025141076513497626 -0,0016618701739793246 -0 -0,002253091846306701 0,0028382248105370189 0,0027365917728182725 -0,0013263602118946077 -0,00040517367531539453 -7,5272328982562119e-05 0,00093609051825726251 -0 -0,000515454132197565 0 -0,00019915731475653197 0
leaf_count=5 3786 13 36 1 215 12 1 141 46 20 8 4 2 9 1 4 2 3 2
internal_value=0 -0,502782 0,36487 -1,42079 -1,02475 0,140971 0,565718 -1,11648 1,20993 1,34243 -0,107917 0,224307 0,549415 0,0867412 0,354836 -0 -0,19879 -0 -0
internal_count=4311 255 103 4056 270 55 43 152 67 21 22 21 17 14 10 11 6 4 4
shrinkage=0.00186986


Tree=64
num_leaves=28
num_cat=0
split_feature=5 16 12 20 22 20 5 25 20 20 16 16 23 17 6 20 20 20 23 16 24 16 27 26 25 23 23
split_gain=42,0304 29,8391 14,0699 9,51507 3,54369 21,0889 7,36033 4,60986 3,27179 2,76856 1,65542 1,22055 1,54378 2,38293 1,03192 0,825398 0,605526 0,604756 0,599037 0,460179 0,688003 0,460078 0,117081 0,0739516 0,0396908 0,025203 0,0155383
threshold=-1,7001623427422921 0,094785121243411055 -0,60807508877528382 -2,2156711775921996 1,0000000180025095e-35 0,1997547662484889 -0,24783336163877909 -0,8980652321743402 -0,068834124808039784 -0,55559103735501281 0,1598402382362199 0,021022783681610351 0,34957699165490436 0,069331074577166182 -0,025480410646257546 0,18688777563173206 0,049051384861565232 -3,4445003923775404 0,71968371869418502 0,027902946816194287 1,1418373961533363 0,034225862557071628 -0,09517960875317856 -0,020670645629246701 -1,0032746887638733 0,39080022707407752 0,19548076373278658
decision_type=2 2 2 2 2 2 2 2 2 2 2 2 2 2 2 2 2 2 2 2 2 2 2 2 2 2 2
left_child=1 3 8 11 -2 6 7 16 -3 -9 -11 12 13 26 22 -8 24 -15 -13 -5 21 -21 -4 -10 -6 -14 -1
right_child=4 2 14 19 5 -7 15 9 23 10 -12 18 25 17 -16 -17 -18 -19 -20 20 -22 -23 -24 -25 -26 -27 -28
leaf_value=-0,0018662929322495834 -0,0026344369271896558 0,0022317225001420118 -0 -0,0024806322909876953 0,00030178348668678112 -0,0024416192598161941 -0,0017557768818310822 -0 0 -0 0,0028701034349917416 0,0013043240340431272 0 0,00094683960944447827 0 0 -0,00095781502553404817 -0,00016687467422194901 -0 -0 0 -0,0013188563587313896 -0,001862607637901385 -0,00037842305760384137 -0 0,00060537727141711398 -0
leaf_count=13 3797 53 3 109 2 213 14 2 1 1 19 7 2 5 1 2 6 3 1 5 1 27 14 3 1 3 3
